\data\
ngram 1=38
ngram 2=804
ngram 3=8681

\1-grams:
-2.585091	<unk>	0
0	<s>	-3.3524108
-1.4943649	</s>	0
-1.4465162	O	-1.0751159
-1.4618874	N	-0.85844743
-1.4465162	C	-0.83353794
-1.4465162	E	-1.145219
-1.4465162	T	-1.0271579
-1.4465162	H	-0.80774325
-1.4465162	R	-0.82151663
-1.4778225	W	-0.7138369
-1.4465162	A	-1.0984347
-1.4173155	S	-1.0816509
-1.4618874	Y	-1.0120376
-1.4618874	U	-0.900656
-1.4618874	G	-0.79958224
-1.4618874	M	-0.8964437
-1.4465162	D	-0.89255834
-1.4943649	V	-0.72762096
-1.4618874	L	-0.8264287
-1.4618874	K	-0.791031
-1.4618874	P	-0.8921745
-1.4618874	I	-1.0636772
-1.4465162	F	-0.79276866
-1.5676619	'	-0.5699307
-1.4465162	B	-0.82932633
-1.6095405	X	-0.520339
-1.5115623	J	-0.675106
-1.4943649	Q	-0.54339755
-1.681066	-	-0.403365
-1.4943649	Z	-0.5478585
-2.330443	2	-0.30716708
-2.4152849	0	-0.3571675
-2.4648576	&	-0.3737771
-2.4648576	\	-0.34643716
-2.4152849	3	-0.3737771
-2.4648576	4	-0.3737771
-2.4648576	1	-0.3737771

\2-grams:
-1.5399783	O </s>	0
-1.4966536	N </s>	0
-1.5709631	C </s>	0
-1.4387767	E </s>	0
-1.4440736	T </s>	0
-1.6293297	H </s>	0
-1.5785798	R </s>	0
-1.9147365	W </s>	0
-1.507352	A </s>	0
-1.4010935	S </s>	0
-1.3435178	Y </s>	0
-1.5829382	U </s>	0
-1.5338429	G </s>	0
-1.4939177	M </s>	0
-1.5142453	D </s>	0
-1.8576431	V </s>	0
-1.5889326	L </s>	0
-1.3457308	K </s>	0
-1.6155523	P </s>	0
-1.5137603	I </s>	0
-1.6975949	F </s>	0
-1.560122	B </s>	0
-1.4402373	X </s>	0
-1.9407753	J </s>	0
-1.7213018	Z </s>	0
-0.88773525	0 </s>	0
-1.5276731	<s> O	-2.1929576
-1.3972379	O O	-2.6666381
-1.152452	N O	-2.9140239
-1.0633308	C O	-2.880763
-1.4356027	E O	-2.6861768
-1.2805367	T O	-3.10998
-1.0659305	H O	-2.842083
-1.0914845	R O	-2.906882
-1.0023057	W O	-2.661438
-1.6122407	A O	-1.7477582
-1.3422337	S O	-2.8449903
-1.3005065	Y O	-2.9543757
-1.4137456	U O	-1.6368525
-1.0621701	G O	-2.579252
-1.1651771	M O	-2.7297583
-1.1176009	D O	-2.7404525
-0.8262225	V O	-2.216244
-1.1211005	L O	-2.75305
-1.2724128	K O	-1.8998966
-1.1238587	P O	-2.5732107
-1.4121686	I O	-2.8227808
-1.0200208	F O	-2.9059227
-1.7119749	' O	-0.76328295
-1.0879973	B O	-2.5738983
-1.4269665	X O	-1.7700535
-0.8041133	J O	-2.1588633
-1.6986104	Q O	-0.21567225
-1.6119902	- O	-0.21567225
-0.9736737	Z O	-1.3492093
-1.6225944	<s> N	-2.4756398
-1.2935452	O N	-3.1573443
-1.4919822	N N	-2.3152444
-2.0061421	C N	-0.49686044
-1.3855095	E N	-3.1668072
-1.520478	T N	-2.2182355
-1.3517928	H N	-1.673172
-1.6310506	R N	-2.354558
-1.6714568	W N	-2.0893373
-1.3123653	A N	-3.3072696
-1.4190916	S N	-2.7390678
-1.4598109	Y N	-1.9901975
-1.1652348	U N	-2.6552153
-1.3871063	G N	-1.9316831
-1.4896628	M N	-1.5626309
-1.5097475	D N	-2.8714466
-1.8433082	V N	-0.21567225
-1.5312444	L N	-1.8432807
-1.0564076	K N	-2.850127
-1.4682932	P N	-1.6046869
-1.2825857	I N	-3.3762343
-1.7679461	F N	-1.7494516
-1.9980106	B N	-1.9857885
-1.277476	X N	-0.6694783
-1.7323328	J N	-0.21567225
-1.4777737	Q N	-0.21567225
-1.6208119	- N	-0.21567225
-1.2980736	Z N	-0.56502306
-1.8415743	<s> C	-2.1163638
-1.3972379	O C	-2.593492
-1.5307624	N C	-2.9918854
-1.5621995	C C	-2.4319773
-1.4009243	E C	-2.9491787
-1.4908619	T C	-2.4406023
-1.6856482	H C	-2.2136405
-1.6275805	R C	-2.5390642
-1.7639819	W C	-1.7810826
-1.343646	A C	-2.8583603
-1.3599546	S C	-2.808441
-1.3835695	Y C	-2.5010178
-1.448838	U C	-2.656206
-1.6523131	G C	-1.9237721
-1.2971145	M C	-1.7673892
-1.5488993	D C	-2.369884
-1.960974	V C	-0.21567225
-1.5285156	L C	-1.9174577
-1.6451923	K C	-0.73776865
-1.5083205	P C	-1.5208002
-1.3513992	I C	-2.723047
-1.6185943	F C	-2.1465278
-1.4810568	' C	-0.90005696
-1.6105525	B C	-1.5946184
-1.2743989	X C	-2.0404704
-1.7885782	J C	-0.21567225
-1.6986104	Q C	-0.21567225
-1.2468427	- C	-1.9031154
-1.6977901	Z C	-0.3889318
-1.8486315	<s> E	-1.8907971
-1.4842322	O E	-2.1885154
-1.2102495	N E	-2.933648
-1.1394103	C E	-2.7072802
-1.4179175	E E	-2.8391232
-1.3152283	T E	-3.017493
-1.0659305	H E	-3.5764
-1.0566913	R E	-3.306926
-0.9660598	W E	-2.773372
-1.5280156	A E	-1.1016812
-1.308824	S E	-2.9651008
-1.2820054	Y E	-2.4236405
-1.2963092	U E	-2.2289689
-1.1018978	G E	-2.687654
-1.1288159	M E	-2.9290056
-1.2065333	D E	-2.8238156
-0.7853975	V E	-2.9771833
-1.0848919	L E	-2.8653471
-1.0951291	K E	-2.5587084
-1.1060091	P E	-2.6882877
-1.3513992	I E	-2.6191142
-1.1051974	F E	-2.4309225
-1.7119749	' E	-0.21567225
-1.0694066	B E	-2.807792
-1.2743989	X E	-1.586069
-0.82720673	J E	-2.2550006
-1.5466664	Q E	-0.21567225
-1.034522	- E	-2.0795472
-0.81660014	Z E	-1.8178167
-0.66280603	<s> T	-3.321179
-1.3595078	O T	-2.8295553
-1.41757	N T	-3.0871017
-1.4222806	C T	-2.3929672
-1.4009243	E T	-3.04499
-1.4646137	T T	-2.9268289
-1.4224492	H T	-2.638643
-1.472262	R T	-2.7807872
-1.5870792	W T	-2.302256
-1.3606676	A T	-3.145492
-1.3784294	S T	-3.1516035
-1.3612676	Y T	-2.8203797
-1.2476865	U T	-2.7496142
-1.5251422	G T	-2.7430239
-1.449436	M T	-2.512774
-1.4349799	D T	-3.1100345
-1.7733989	V T	-0.21567225
-1.4413863	L T	-2.3050046
-1.2724128	K T	-2.115842
-1.4279205	P T	-2.2212076
-1.3328959	I T	-3.1024537
-1.3864446	F T	-2.7626925
-1.7119749	' T	-2.0462563
-1.5514898	B T	-1.5871167
-1.3440173	X T	-1.7693707
-1.9118823	J T	-0.21567225
-1.4731542	Q T	-0.31459773
-1.1278346	- T	-1.8995702
-1.6398606	Z T	-0.28767508
-0.93143064	<s> H	-3.0728168
-1.3779633	O H	-2.3610182
-1.3855643	N H	-2.880597
-1.081138	C H	-2.8168433
-1.4732922	E H	-3.1241667
-1.2641776	T H	-3.622485
-1.6187147	H H	-2.5343611
-1.3258566	R H	-2.650062
-1.0023057	W H	-3.3102784
-1.4161434	A H	-2.0114179
-1.3599546	S H	-2.938446
-1.3835695	Y H	-2.559279
-1.9346328	U H	-2.186013
-1.4268985	G H	-2.694265
-1.449436	M H	-2.06383
-1.507516	D H	-3.107787
-1.8363144	V H	-0.21567225
-1.637627	L H	-2.2942898
-1.466293	K H	-2.157799
-1.2261121	P H	-2.4349685
-1.434474	I H	-2.5230737
-1.7628744	F H	-2.4655619
-1.5560424	' H	-1.8088455
-1.678931	B H	-0.51145035
-1.3440173	X H	-1.2484612
-1.5700216	J H	-0.21567225
-1.1278346	- H	-1.6397003
-1.4924775	Z H	-1.3122681
-0.7975008	& H	-0.59136164
-2.1815653	<s> R	-1.9386275
-1.3247952	O R	-3.11308
-1.4521234	N R	-2.155144
-1.1191049	C R	-2.7764583
-1.4009243	E R	-3.3574169
-1.3152283	T R	-3.1314409
-1.5607328	H R	-2.689121
-1.5181276	R R	-2.8922546
-1.1088783	W R	-2.0495224
-1.343646	A R	-3.0700984
-1.4848278	S R	-2.4935458
-1.4319344	Y R	-2.2333312
-1.1836491	U R	-2.8341897
-1.0435909	G R	-3.060447
-1.248544	M R	-1.6879872
-1.1872302	D R	-2.532264
-1.8363144	V R	-0.31459773
-1.4827696	L R	-2.3781414
-1.5181458	K R	-1.4235567
-1.1424735	P R	-3.160517
-1.3513992	I R	-2.6165738
-1.1445708	F R	-3.0154552
-1.3011882	' R	-2.477068
-1.0879973	B R	-2.8324306
-1.5295906	X R	-1.4398265
-1.9118823	J R	-0.21567225
-1.6986104	Q R	-0.21567225
-1.4113106	- R	-1.6193807
-1.6977901	Z R	-0.37403506
-1.1748022	<s> W	-2.827405
-1.4410622	O W	-2.8398173
-1.5358725	N W	-2.7158048
-1.881097	C W	-1.0238563
-1.4199463	E W	-2.8621712
-1.2824771	T W	-3.1703491
-1.5668935	H W	-2.208287
-1.6345484	R W	-2.7020288
-1.5952237	W W	-2.1730697
-1.3990064	A W	-2.4513118
-1.3999678	S W	-3.0164697
-1.3423605	Y W	-2.5945234
-2.2283235	U W	-2.314612
-1.6600785	G W	-2.2465405
-1.5339994	M W	-1.8813962
-1.3478898	D W	-2.836011
-1.8504165	V W	-0.21567225
-1.6446784	L W	-2.404275
-1.3823214	K W	-2.0981486
-1.6728431	P W	-1.7011492
-1.4856923	I W	-2.4917717
-1.5675665	F W	-2.2484174
-1.7694358	B W	-1.3956323
-1.351276	X W	-0.50015515
-1.9309292	J W	-0.21567225
-1.7143362	Q W	-0.21567225
-1.7133223	Z W	-0.21567225
-0.9859376	<s> A	-2.6697555
-1.3972379	O A	-2.338333
-1.1901169	N A	-2.6511111
-1.0462251	C A	-2.7544377
-1.3845711	E A	-3.1349201
-1.3152283	T A	-2.827518
-1.0325084	H A	-3.1562982
-1.1099855	R A	-2.8933742
-0.9660598	W A	-3.0846553
-1.479758	A A	-1.6931963
-1.3422337	S A	-2.928872
-1.3005065	Y A	-2.4596589
-1.4137456	U A	-2.2990818
-1.1456289	G A	-2.612094
-1.1651771	M A	-2.770525
-1.1872302	D A	-2.7870018
-0.8262225	V A	-2.3137903
-1.1211005	L A	-2.7487051
-1.2422109	K A	-1.8048236
-1.1619221	P A	-2.5491612
-1.3328959	I A	-2.4204645
-1.1051974	F A	-2.583861
-1.5560424	' A	-0.42707992
-1.0515792	B A	-2.384072
-1.3440173	X A	-1.4956621
-0.9342527	J A	-1.7845045
-1.6986104	Q A	-0.21567225
-1.6119902	- A	-0.21567225
-1.0568477	Z A	-1.582246
-1.2495371	<s> S	-2.5072544
-1.3574333	O S	-2.7023628
-1.3523743	N S	-2.635362
-1.5564537	C S	-1.4585699
-1.3827006	E S	-3.1918213
-1.4138055	T S	-2.6138613
-1.5041842	H S	-1.961213
-1.4264095	R S	-2.729599
-1.6570017	W S	-1.9437158
-1.3586961	A S	-3.1264493
-1.436643	S S	-2.762264
-1.35886	Y S	-2.3982375
-1.1260331	U S	-2.6913981
-1.5194372	G S	-2.2071116
-1.4455934	M S	-2.1484723
-1.4656737	D S	-2.5530565
-1.607853	V S	-0.3374061
-1.5231087	L S	-2.3417
-1.4154029	K S	-1.9048724
-1.3892837	P S	-1.9675981
-1.3308924	I S	-3.1226945
-1.460033	F S	-2.027226
-0.47007322	' S	-2.3044503
-1.4070454	B S	-1.9401416
-1.2091055	X S	-1.0187954
-1.5616219	J S	-0.3889318
-1.6834344	Q S	-0.21567225
-1.1221437	- S	-1.8411254
-1.4830704	Z S	-0.3889318
-0.7946442	& S	-0.37403506
-0.22673169	1 S	-0.21567225
-1.4426658	<s> Y	-2.7746704
-1.5368389	O Y	-2.2785637
-1.4919822	N Y	-2.171414
-1.4664171	C Y	-1.3713223
-1.4744434	E Y	-2.6566153
-1.3347673	T Y	-2.4212759
-1.2348529	H Y	-2.1677668
-1.2428361	R Y	-2.450005
-1.5911323	W Y	-1.9305859
-1.5045909	A Y	-2.563543
-1.3988451	S Y	-1.8169045
-1.5504779	Y Y	-2.1124144
-1.8397723	U Y	-1.2747189
-1.5280231	G Y	-1.7018287
-1.2273103	M Y	-2.2745252
-1.3744781	D Y	-2.154055
-1.62033	V Y	-1.0834671
-1.1036406	L Y	-2.6918979
-1.4688579	K Y	-1.5731015
-1.510558	P Y	-1.2794642
-2.387222	I Y	-0.21567225
-1.5643623	F Y	-1.7806393
-1.0703466	B Y	-2.1030674
-1.535144	X Y	-0.540191
-1.5521432	Q Y	-0.21567225
-1.6208119	- Y	-1.705305
-1.4972588	Z Y	-0.53741115
-0.7989362	& Y	-0.59136164
-2.5619745	<s> U	-1.6422453
-1.3428041	O U	-3.1646543
-1.2783556	N U	-2.2686381
-1.1201487	C U	-2.3308928
-1.4744434	E U	-2.2777653
-1.3347673	T U	-2.5478692
-1.0846791	H U	-2.4336162
-1.1304085	R U	-2.50869
-1.7700875	W U	-2.1526618
-1.3979285	A U	-2.3937628
-1.3795005	S U	-2.6812248
-1.5181063	Y U	-1.7605082
-2.1221313	U U	-1.5061079
-1.170532	G U	-2.3367472
-1.1856171	M U	-2.2793686
-1.2491473	D U	-2.2586875
-1.1223943	V U	-1.0684829
-1.1830176	L U	-2.2871714
-1.4688579	K U	-0.84556955
-1.1833373	P U	-2.2002628
-1.5389011	I U	-1.9442945
-1.166959	F U	-2.43539
-1.7195318	' U	-0.21567225
-1.1084455	B U	-2.6403284
-1.535144	X U	-1.4935862
-0.7619723	J U	-2.204675
-0.42914617	Q U	-2.810517
-1.6465888	Z U	-0.21567225
-1.9771775	<s> G	-2.0168893
-1.48562	O G	-2.3325841
-1.5789878	N G	-3.079785
-1.8751116	C G	-1.1741122
-1.4744434	E G	-2.6501853
-1.520478	T G	-1.8994075
-1.6222243	H G	-2.0374584
-1.5724485	R G	-2.321266
-1.897909	W G	-1.4128966
-1.3616567	A G	-2.6996279
-1.5110855	S G	-2.4365933
-1.4084225	Y G	-1.9404441
-1.3525965	U G	-2.6433845
-1.6561785	G G	-1.9872689
-1.5781599	M G	-1.9890023
-1.5973741	D G	-2.4266796
-1.5827247	L G	-2.037435
-1.7307434	K G	-1.625721
-1.8212993	P G	-1.4355253
-1.3718228	I G	-2.6278195
-1.6890031	F G	-1.9386916
-1.7195318	' G	-0.21567225
-1.9980106	B G	-1.6791713
-1.7245255	X G	-0.21567225
-1.9213014	J G	-0.21567225
-1.7064022	Q G	-0.21567225
-1.4168471	- G	-2.173993
-1.8203981	Z G	-0.21567225
-1.6382475	<s> M	-2.3373592
-1.4398096	O M	-2.8449419
-1.454248	N M	-2.4441059
-1.8751116	C M	-0.90311545
-1.3697163	E M	-2.836819
-1.4660952	T M	-2.483004
-1.6897453	H M	-2.0840077
-1.6310506	R M	-2.319695
-1.897909	W M	-1.902453
-1.3281822	A M	-2.572291
-1.3795005	S M	-2.5325117
-1.4084225	Y M	-2.264983
-1.205051	U M	-2.250906
-1.4758036	G M	-2.124203
-1.4513701	M M	-2.3277907
-1.5097475	D M	-2.5691862
-1.8433082	V M	-0.21567225
-1.5827247	L M	-2.1499615
-1.5210371	K M	-1.4802043
-1.4297792	P M	-1.7281331
-1.3161137	I M	-2.7245963
-1.5643623	F M	-2.1827774
-1.5613059	' M	-1.685299
-1.7647552	B M	-1.5419879
-1.8250117	X M	-0.42707992
-1.79565	J M	-0.21567225
-1.6208119	- M	-1.6073498
-1.8203981	Z M	-0.21567225
-1.679154	<s> D	-2.352039
-1.5090054	O D	-2.4570737
-1.5307624	N D	-3.1613412
-1.6891217	C D	-1.810896
-1.4179175	E D	-3.2369204
-1.4908619	T D	-2.4193583
-1.6187147	H D	-1.9830801
-1.6275805	R D	-2.3986664
-1.6665848	W D	-1.67883
-1.3968533	A D	-2.794071
-1.4613605	S D	-2.5114036
-1.407079	Y D	-2.257997
-1.3228271	U D	-2.0838718
-1.6523131	G D	-2.0617042
-1.6273245	M D	-1.5720522
-1.5946451	D D	-2.4642024
-1.4827696	L D	-2.545782
-1.5181458	K D	-1.1105187
-1.6070648	P D	-1.5882049
-1.3707261	I D	-2.6542268
-1.7628744	F D	-1.9127767
-0.9964135	' D	-1.2844722
-1.7601247	B D	-0.6114864
-1.6642231	X D	-1.3908677
-1.9118823	J D	-0.21567225
-1.5466664	Q D	-0.21567225
-1.4113106	- D	-1.8257875
-1.8103968	Z D	-0.21567225
-0.88227165	0 D	-0.59136164
-2.5361876	<s> V	-1.5384711
-1.3626382	O V	-2.8732624
-1.6952621	N V	-2.2648726
-2.0225227	C V	-1.5165349
-1.4387767	E V	-3.0385416
-1.5238552	T V	-1.3475629
-1.8804399	H V	-2.0375493
-1.7070338	R V	-2.4305768
-1.9653176	W V	-1.7226396
-1.4195244	A V	-3.0298514
-1.6317695	S V	-2.0640688
-1.5895225	Y V	-1.2312052
-1.6357996	U V	-1.4711186
-1.9866272	G V	-1.7353709
-1.6961893	M V	-1.2689866
-1.7143772	D V	-2.4410636
-1.6482475	L V	-2.6143568
-1.9790491	K V	-0.48584184
-2.072507	P V	-1.3975276
-1.4620235	I V	-3.0584335
-2.006152	F V	-1.6942934
-1.1809402	' V	-1.8757924
-1.8778224	B V	-2.0017157
-1.4402373	X V	-0.32319632
-1.8101487	J V	-0.21567225
-1.7213018	Z V	-1.5272346
-2.0357392	<s> L	-2.0491562
-1.3605487	O L	-2.6078656
-1.5789878	N L	-2.6385477
-1.0820943	C L	-2.7041929
-1.4018986	E L	-2.9519904
-1.4412612	T L	-2.9043806
-1.5638022	H L	-2.2666817
-1.5724485	R L	-2.339379
-1.5911323	W L	-1.8365091
-1.3794141	A L	-2.9450238
-1.4190916	S L	-2.8028266
-1.3848422	Y L	-2.229964
-1.1846867	U L	-2.622204
-1.1243527	G L	-2.4385
-1.531661	M L	-1.7151246
-1.5097475	D L	-2.7315028
-1.9703182	V L	-0.21567225
-1.4436179	L L	-2.8654742
-1.3802187	K L	-1.9463556
-1.1629285	P L	-3.0139925
-1.3161137	I L	-2.768516
-1.166959	F L	-2.7564576
-1.1765511	' L	-3.006335
-1.1084455	B L	-2.9416904
-1.535144	X L	-0.7285208
-1.9213014	J L	-0.21567225
-1.1307082	- L	-1.8587538
-1.6465888	Z L	-1.5736285
-2.6248085	<s> K	-1.5794544
-1.462111	O K	-2.2770855
-1.5789878	N K	-2.0762544
-1.565101	C K	-2.3417072
-1.5615853	E K	-1.8989861
-1.5826586	T K	-2.1106617
-1.7697318	H K	-0.67442995
-1.6310506	R K	-2.0621698
-1.897909	W K	-1.3067261
-1.4587381	A K	-2.304103
-1.3795005	S K	-1.8830825
-1.6652068	Y K	-1.8511347
-1.8397723	U K	-2.0346246
-1.9703183	G K	-0.42320934
-1.9397185	M K	-1.4614582
-1.5097475	D K	-1.9280932
-1.8433082	V K	-0.21567225
-1.6411383	L K	-1.7956045
-1.6490705	K K	-1.1969839
-1.9231476	P K	-1.5078156
-1.4593284	I K	-2.7694666
-1.6890031	F K	-0.6878022
-2.1441524	B K	-0.21567225
-1.535144	X K	-0.21567225
-1.7323328	J K	-0.21567225
-1.5521432	Q K	-0.21567225
-1.6208119	- K	-1.7601537
-1.8203981	Z K	-0.21567225
-1.6902517	<s> P	-2.2834387
-1.3790495	O P	-2.4726393
-1.5333099	N P	-2.1552908
-1.8751116	C P	-1.322338
-1.4946451	E P	-2.6526477
-1.5504564	T P	-2.2296948
-1.5123154	H P	-1.7923188
-1.6988121	R P	-2.275575
-1.5911323	W P	-1.6604222
-1.3794141	A P	-2.5365727
-1.360981	S P	-2.7308393
-1.3848422	Y P	-2.314597
-1.1846867	U P	-2.2825787
-1.6561785	G P	-1.892107
-1.5781599	M P	-2.4393158
-1.6488544	D P	-2.303763
-1.9703182	V P	-0.21567225
-1.5827247	L P	-1.8390242
-1.6490705	K P	-1.3669596
-1.6098756	P P	-2.7342587
-1.4842671	I P	-2.2497704
-1.7679461	F P	-1.8682063
-1.7195318	' P	-0.21567225
-1.9980106	B P	-1.477068
-1.4313452	X P	-2.2280643
-1.9213014	J P	-0.21567225
-1.7064022	Q P	-0.21567225
-1.6208119	- P	-1.7135775
-0.83422405	<s> I	-2.7547262
-1.4185976	O I	-2.5062568
-1.1187772	N I	-2.6393013
-1.140504	C I	-2.450118
-1.4366581	E I	-2.781559
-1.298544	T I	-3.0667825
-1.103206	H I	-3.2039068
-1.1110363	R I	-2.899276
-1.0033566	W I	-2.9305415
-1.3616567	A I	-2.8004653
-1.3097363	S I	-2.823398
-1.3624763	Y I	-2.318335
-1.3525965	U I	-2.2488983
-1.1029826	G I	-2.3791416
-1.1475781	M I	-2.5970795
-1.2076477	D I	-2.8056247
-0.805977	V I	-2.515541
-1.0858725	L I	-2.9210155
-1.075857	K I	-2.2634492
-1.1434358	P I	-2.399109
-1.6744546	I I	-1.7094898
-1.0367181	F I	-2.6945956
-1.0889783	B I	-2.2366507
-1.1640897	X I	-1.722894
-1.3674277	J I	-1.1661432
-1.7064022	Q I	-0.21567225
-1.4844291	- I	-1.8813962
-0.975116	Z I	-1.7611532
-1.7050879	<s> F	-2.347756
-1.3418047	O F	-2.9773138
-1.5761588	N F	-2.529944
-1.7698965	C F	-1.2847079
-1.4179175	E F	-2.7283952
-1.4398619	T F	-2.4861407
-1.5607328	H F	-2.1366005
-1.6275805	R F	-2.5759346
-1.6665848	W F	-1.6061022
-1.4363304	A F	-2.4254246
-1.4390965	S F	-2.7039816
-1.3198308	Y F	-2.3164093
-1.448838	U F	-1.9494634
-1.6523131	G F	-2.2487223
-1.3819771	M F	-1.9577023
-1.5946451	D F	-2.6945295
-1.7733989	V F	-0.31459773
-1.4827696	L F	-2.2280767
-1.466293	K F	-1.7032923
-1.4662626	P F	-1.631559
-1.4121686	I F	-2.470821
-1.4650836	F F	-2.280425
-1.7119749	' F	-0.21567225
-1.678931	B F	-0.42749083
-1.214414	X F	-1.4423497
-1.4553852	J F	-0.38390923
-1.0732118	Q F	-0.42749083
-1.4113106	- F	-1.8682063
-1.4924775	Z F	-0.28767508
-1.7566104	O '	-1.9658808
-1.548917	N '	-2.6577249
-2.223738	C '	-1.8526244
-1.5954506	E '	-2.5380416
-1.6692418	T '	-2.77182
-1.9067657	H '	-1.1934216
-1.9163208	R '	-2.7208903
-1.9504834	W '	-0.83439964
-1.877007	A '	-1.6031711
-1.8587443	S '	-1.1110325
-1.6800402	Y '	-1.5333697
-2.2899268	U '	-2.084471
-2.0781689	G '	-1.1934216
-2.1216686	M '	-0.8923916
-1.8002203	D '	-2.237275
-2.031046	V '	-0.68827164
-1.8193916	L '	-2.3010554
-2.07055	K '	-0.59136164
-2.276608	P '	-2.0862117
-1.4434463	I '	-2.5721498
-2.0429866	F '	-0.59136164
-2.2168186	B '	-0.21567225
-1.3201045	<s> B	-2.65548
-1.4174079	O B	-2.3765209
-1.5307624	N B	-2.418446
-1.7698965	C B	-1.4487942
-1.4540387	E B	-2.8089554
-1.4646137	T B	-2.5078301
-1.5095881	H B	-1.817788
-1.5181276	R B	-2.2095518
-1.5870792	W B	-1.8713584
-1.3783838	A B	-2.6020694
-1.4613605	S B	-2.6237788
-1.407079	Y B	-2.4254642
-1.3510699	U B	-2.0863566
-1.8329033	G B	-1.9249353
-1.575572	M B	-2.1273758
-1.507516	D B	-2.8356504
-1.637627	L B	-2.1425912
-1.466293	K B	-1.7135775
-1.6070648	P B	-1.6022966
-1.3707261	I B	-2.160222
-1.6847701	F B	-1.7532177
-1.7119749	' B	-2.467868
-1.678931	B B	-1.756672
-1.5295906	X B	-0.7411144
-1.7885782	J B	-0.21567225
-1.6986104	Q B	-0.37403506
-1.2468427	- B	-1.6619767
-1.6977901	Z B	-0.21567225
-0.7975008	& B	-0.59136164
-4.169452	<s> X	-0.21567225
-1.5784646	O X	-1.3084545
-1.9844002	N X	-1.444906
-2.2511141	C X	-0.21567225
-1.4837652	E X	-2.3049462
-2.3501902	T X	-0.21567225
-2.2359018	H X	-0.21567225
-1.9695245	W X	-0.21567225
-1.7809465	A X	-1.6200439
-2.3995864	S X	-0.2722878
-1.7903452	U X	-1.2947565
-2.314999	M X	-0.21567225
-2.0533345	V X	-0.21567225
-2.0916152	K X	-0.21567225
-1.9741945	I X	-1.6836084
-1.9187214	F X	-0.21567225
-2.066924	B X	-0.21567225
-1.7998475	X X	-0.21567225
-2.005058	J X	-0.21567225
-1.772527	Z X	-0.21567225
-2.17207	<s> J	-1.8407881
-1.706721	O J	-1.9539766
-1.767634	N J	-2.0091226
-2.0841238	C J	-0.21567225
-1.6175135	E J	-2.3563156
-1.6237961	T J	-1.6217237
-1.8868734	H J	-1.8794606
-1.7940896	R J	-1.5520309
-1.9234011	W J	-1.7722518
-1.6874031	A J	-1.8070555
-1.633691	S J	-1.9898888
-1.7195284	Y J	-1.7245867
-2.0966434	U J	-0.69117314
-2.0484326	G J	-1.3206936
-1.8538581	M J	-1.2067075
-1.605665	D J	-2.0361867
-1.9996215	V J	-0.21567225
-2.0393224	L J	-1.7089065
-1.7450821	K J	-0.35550556
-2.2390113	P J	-0.21567225
-1.7704914	I J	-1.532467
-1.7835271	F J	-1.7683244
-1.7789509	B J	-1.8693275
-1.8175838	J J	-0.21567225
-1.7294307	Z J	-0.21567225
-3.1270704	<s> Q	-1.500598
-1.9722453	O Q	-1.8641834
-1.6364733	N Q	-2.1132076
-2.0225227	C Q	-2.3183508
-1.5894002	E Q	-2.6804957
-1.748114	T Q	-1.6253626
-2.0117624	H Q	-0.56502306
-1.7070338	R Q	-0.92797726
-1.9147365	W Q	-0.8660531
-1.6175631	A Q	-1.8399503
-1.5405847	S Q	-2.5758889
-1.6700952	Y Q	-1.3309399
-2.1405046	U Q	-0.46642286
-2.0389566	G Q	-0.78687185
-2.0868132	M Q	-1.5427467
-1.7830942	D Q	-2.0524602
-1.8576431	V Q	-0.37403506
-2.0305917	L Q	-1.8343997
-2.1305954	K Q	-0.21567225
-1.9349073	P Q	-0.48584184
-1.7210491	I Q	-1.6314049
-2.006152	F Q	-1.5722016
-2.066835	B Q	-0.31459773
-1.847366	X Q	-1.0306942
-1.9407753	J Q	-0.21567225
-1.3052139	Q Q	-0.21567225
-2.4315794	O -	-1.7216953
-2.1595902	N -	-1.6595877
-1.8015659	E -	-1.8836815
-2.3245695	T -	-1.7094609
-2.159394	H -	-1.7270242
-2.169767	R -	-1.7746315
-2.5739899	A -	-0.21567225
-2.4346619	S -	-1.5111477
-2.360288	Y -	-1.5577239
-2.1327562	G -	-1.8257875
-1.9129432	D -	-1.9037719
-2.1163132	L -	-1.5456041
-2.218059	P -	-2.1065729
-2.5348592	I -	-1.5333697
-2.0939116	F -	-1.7411144
-2.2883086	B -	-1.9577845
-1.9489754	Z -	-1.7746315
-3.246458	<s> Z	-1.3077613
-1.8447763	O Z	-1.6644288
-1.6952621	N Z	-1.3028982
-1.7841231	C Z	-0.2722878
-1.6743548	E Z	-1.2214407
-1.748114	T Z	-1.1168889
-2.0619433	H Z	-0.99099183
-1.7070338	R Z	-0.44813508
-1.7825623	W Z	-1.351225
-1.7656177	A Z	-1.600902
-1.9052539	S Z	-0.55242956
-2.0807629	Y Z	-0.44008434
-1.8492656	U Z	-1.7666109
-2.0389566	G Z	-0.21567225
-1.7830942	D Z	-1.0465333
-1.8576431	V Z	-0.21567225
-1.8993087	L Z	-0.76328295
-2.0312572	K Z	-0.21567225
-1.54214	I Z	-2.109909
-2.006152	F Z	-0.3889318
-2.1670496	B Z	-0.21567225
-1.5464683	X Z	-0.48584184
-1.8101487	J Z	-0.21567225
-1.7224178	Q Z	-0.21567225
-1.6390121	- Z	-1.7746315
-1.3938583	Z Z	-1.5760069
-2.7958448	T 2	-0.59136164
-2.5660763	F 2	-0.59136164
-0.44445848	\ 2	-0.21567225
-0.23725368	4 2	-0.21567225
-0.55585384	2 0	-0.9435441
-0.6654499	0 0	-0.6641984
-2.374999	H &	-0.59136164
-2.6657681	U &	-0.59136164
-1.9680759	Q &	-0.37403506
-2.6650498	N \	-0.21567225
-0.93139404	2 \	-0.21567225
-0.9320763	0 \	-0.21567225
-0.93063676	2 3	-0.21567225
-0.71196914	\ 3	-0.21567225
-0.5375912	3 4	-0.21567225
-0.5375912	3 1	-0.21567225

\3-grams:
-1.9888731	O O </s>
-2.058429	N O </s>
-3.040053	C O </s>
-3.6371658	E O </s>
-2.3726146	T O </s>
-3.3663712	H O </s>
-2.672716	R O </s>
-1.5124131	W O </s>
-2.6771252	S O </s>
-1.5868461	G O </s>
-2.043228	D O </s>
-2.9954987	V O </s>
-3.3525918	L O </s>
-3.1361957	P O </s>
-2.3288455	I O </s>
-3.4371264	J O </s>
-1.020307	O N </s>
-2.2143514	N N </s>
-1.5908823	E N </s>
-2.6680973	H N </s>
-1.3044181	R N </s>
-0.9335915	W N </s>
-1.7911055	A N </s>
-1.7756076	U N </s>
-0.9641342	G N </s>
-1.9137343	M N </s>
-1.6274747	I N </s>
-3.8286479	O C </s>
-3.8065023	E C </s>
-1.7456657	T C </s>
-3.0142632	R C </s>
-3.9168108	A C </s>
-3.2256806	D C </s>
-1.0425851	P C </s>
-1.6167706	I C </s>
-1.1513377	O E </s>
-1.1367514	N E </s>
-0.7512316	C E </s>
-1.6726761	E E </s>
-1.7277198	T E </s>
-3.264914	H E </s>
-1.4082131	R E </s>
-3.4993424	W E </s>
-2.076771	A E </s>
-1.6333913	S E </s>
-2.010458	Y E </s>
-1.1447517	U E </s>
-1.2152016	G E </s>
-1.070911	M E </s>
-1.5070525	D E </s>
-1.6156939	V E </s>
-1.2264522	L E </s>
-1.6469991	K E </s>
-1.6146553	P E </s>
-1.864202	I E </s>
-1.0746286	F E </s>
-2.7400222	B E </s>
-2.7086797	X E </s>
-1.145253	Z E </s>
-1.8941061	O T </s>
-1.3073987	N T </s>
-1.1353858	C T </s>
-1.6024508	E T </s>
-2.6326241	T T </s>
-1.0951693	H T </s>
-1.4624226	R T </s>
-1.5606277	A T </s>
-1.5018075	S T </s>
-1.3180349	U T </s>
-3.5272515	D T </s>
-1.2356381	L T </s>
-1.6650007	P T </s>
-1.325224	I T </s>
-1.9405274	F T </s>
-2.5943873	' T </s>
-0.9402438	B T </s>
-1.9100606	X T </s>
-2.3733134	O H </s>
-1.6614639	C H </s>
-2.1296608	T H </s>
-1.5167078	A H </s>
-1.8298674	S H </s>
-1.7736058	G H </s>
-1.7987057	P H </s>
-1.7832078	O R </s>
-1.233365	E R </s>
-3.7814522	H R </s>
-3.1320047	W R </s>
-1.7017065	A R </s>
-3.3760839	Y R </s>
-1.6236497	U R </s>
-1.6337978	I R </s>
-1.1248368	O W </s>
-2.1409917	E W </s>
-1.364224	A W </s>
-2.1501446	N A </s>
-2.7887738	C A </s>
-2.2010837	E A </s>
-2.0903277	T A </s>
-2.7734022	H A </s>
-2.8247058	R A </s>
-3.8600397	W A </s>
-2.5268178	S A </s>
-3.0856252	Y A </s>
-3.9239705	G A </s>
-2.7096758	M A </s>
-2.980965	D A </s>
-3.550298	V A </s>
-3.2705963	L A </s>
-2.3755963	K A </s>
-3.618921	P A </s>
-1.1929922	I A </s>
-2.7466383	Z A </s>
-3.1860783	O S </s>
-1.1310239	N S </s>
-1.1221424	C S </s>
-1.112349	E S </s>
-0.9588946	T S </s>
-1.856941	H S </s>
-0.9739735	R S </s>
-0.7532041	W S </s>
-2.3357224	A S </s>
-1.1968997	S S </s>
-1.2017117	Y S </s>
-1.4121242	U S </s>
-1.0312729	G S </s>
-1.2969764	M S </s>
-0.8732414	D S </s>
-1.1163168	L S </s>
-0.86247057	K S </s>
-0.52312243	P S </s>
-1.6165466	I S </s>
-1.4666066	F S </s>
-1.5577888	' S </s>
-1.2323325	B S </s>
-2.5459416	O Y </s>
-1.6673667	N Y </s>
-0.13616705	C Y </s>
-1.8346956	E Y </s>
-0.8553797	T Y </s>
-2.3180814	H Y </s>
-0.9478524	R Y </s>
-0.8654835	W Y </s>
-0.8635727	A Y </s>
-0.96104515	S Y </s>
-0.5552452	U Y </s>
-0.8928263	G Y </s>
-2.4080622	M Y </s>
-0.9080705	D Y </s>
-1.8136303	V Y </s>
-0.7946924	L Y </s>
-0.59300166	K Y </s>
-1.3065554	P Y </s>
-2.2315648	F Y </s>
-1.3707182	B Y </s>
-0.65669274	Z Y </s>
-1.7279834	O U </s>
-3.285272	N U </s>
-3.5341153	E U </s>
-1.8772461	H U </s>
-1.8650199	A U </s>
-3.560927	M U </s>
-2.4408991	D U </s>
-1.5594437	L U </s>
-3.4624586	P U </s>
-1.5049288	O G </s>
-1.0579653	N G </s>
-3.3581617	E G </s>
-2.0466144	R G </s>
-3.2408445	A G </s>
-3.5868955	U G </s>
-3.1629012	G G </s>
-3.7345572	I G </s>
-1.6672217	O M </s>
-1.1195409	E M </s>
-1.3445469	H M </s>
-1.0709683	R M </s>
-1.8585829	A M </s>
-1.8947202	S M </s>
-1.6865412	U M </s>
-3.2082934	M M </s>
-1.8958867	L M </s>
-0.5489546	P M </s>
-0.7864763	I M </s>
-1.2860203	O D </s>
-1.328528	N D </s>
-2.792957	C D </s>
-0.887164	E D </s>
-1.2519138	R D </s>
-1.6563635	A D </s>
-1.2013597	U D </s>
-3.6957908	D D </s>
-1.2646359	L D </s>
-1.178107	I D </s>
-2.5068822	' D </s>
-3.9471436	O V </s>
-2.5129004	T V </s>
-1.6271105	O L </s>
-1.755914	E L </s>
-1.733428	R L </s>
-0.9883604	W L </s>
-1.9232839	A L </s>
-2.294076	U L </s>
-1.1620266	L L </s>
-1.4332385	I L </s>
-1.4753339	O K </s>
-0.8556076	N K </s>
-0.87620336	C K </s>
-0.8854836	E K </s>
-0.7146009	R K </s>
-1.401751	A K </s>
-1.7240295	S K </s>
-2.913996	D K </s>
-0.6513907	V K </s>
-1.1494094	L K </s>
-3.73169	I K </s>
-1.633844	F K </s>
-1.7867028	O P </s>
-1.7989318	E P </s>
-1.4249332	A P </s>
-4.0012426	S P </s>
-1.0717416	U P </s>
-1.912003	M P </s>
-1.3849372	L P </s>
-0.95972836	I P </s>
-3.7973166	O I </s>
-2.2698903	N I </s>
-3.7212129	T I </s>
-4.155984	H I </s>
-3.8407772	R I </s>
-2.3500273	A I </s>
-4.170221	S I </s>
-3.6019468	Y I </s>
-3.2555447	U I </s>
-1.8277147	M I </s>
-3.6251569	D I </s>
-3.7771583	V I </s>
-4.038247	L I </s>
-3.3190982	K I </s>
-0.88772714	I I </s>
-3.2537508	B I </s>
-2.3825405	O F </s>
-1.9584115	E F </s>
-1.8813813	A F </s>
-1.0133616	L F </s>
-3.4454358	I F </s>
-1.7240645	F F </s>
-1.4159063	O B </s>
-2.3560846	E B </s>
-3.4606962	R B </s>
-2.0070236	A B </s>
-1.3000978	U B </s>
-1.5791788	M B </s>
-3.0998242	I B </s>
-2.9939716	B B </s>
-0.6952653	O X </s>
-3.1383328	E X </s>
-1.9770738	A X </s>
-2.4302104	U X </s>
-1.0787287	I X </s>
-2.9176693	A J </s>
-2.3958917	E Z </s>
-1.0806973	T Z </s>
-0.692371	0 0 </s>
-1.3894613	<s> O O
-2.876116	O O O
-1.5031625	N O O
-1.7716682	C O O
-2.2113175	E O O
-1.1430513	T O O
-1.4126024	H O O
-1.4774159	R O O
-1.3821383	W O O
-1.5285329	S O O
-2.7888927	U O O
-0.70847344	G O O
-1.4998939	M O O
-1.7749773	D O O
-3.388266	V O O
-0.77734333	L O O
-2.346056	K O O
-1.3605218	P O O
-3.8290162	I O O
-1.3373587	F O O
-1.2927918	B O O
-0.6718552	Z O O
-0.090115815	<s> N O
-1.1611261	O N O
-0.6179392	N N O
-0.41590434	C N O
-1.0191436	E N O
-0.33061424	T N O
-0.51620305	H N O
-1.0233783	R N O
-1.3603595	W N O
-1.4970801	A N O
-0.1646151	S N O
-0.3332035	Y N O
-2.1206667	U N O
-0.6446229	G N O
-0.19186892	M N O
-0.2104464	D N O
-0.61176896	L N O
-0.13850191	K N O
-0.2905514	P N O
-1.8827848	I N O
-0.24688184	F N O
-0.0069982605	B N O
-1.1994047	X N O
-1.0736575	Z N O
-0.52142024	<s> C O
-0.8990805	O C O
-0.8600478	N C O
-0.45329058	C C O
-0.53344697	E C O
-0.60648674	T C O
-0.5065812	H C O
-0.8924539	R C O
-0.5233736	W C O
-1.2822118	A C O
-0.5014422	S C O
-0.35878468	Y C O
-1.5038712	U C O
-0.5679045	G C O
-0.6289317	M C O
-0.36539412	D C O
-0.3662937	L C O
-0.5986087	K C O
-0.504228	P C O
-1.4727831	I C O
-0.40658608	F C O
-1.0143411	' C O
-1.6600195	B C O
-2.7268255	X C O
-0.1650359	- C O
-3.226281	O E O
-1.5276113	N E O
-1.1467487	C E O
-1.9716463	E E O
-1.8916227	T E O
-1.7508814	H E O
-1.6582689	R E O
-2.0525236	W E O
-1.76779	A E O
-1.5976185	S E O
-1.8818858	Y E O
-1.1750548	U E O
-1.3657558	G E O
-1.439615	M E O
-1.7186904	D E O
-1.6991935	V E O
-1.5016966	L E O
-1.3849676	K E O
-1.214131	P E O
-1.8705281	I E O
-2.009614	F E O
-1.8156426	B E O
-2.7071443	X E O
-0.9782145	Z E O
-1.305484	<s> T O
-1.2113445	O T O
-0.8488182	N T O
-0.92937875	C T O
-0.79272246	E T O
-0.7955691	T T O
-1.1371527	H T O
-0.9981225	R T O
-0.7864194	W T O
-1.4400216	A T O
-0.8544147	S T O
-0.7240678	Y T O
-1.037528	U T O
-0.5166893	G T O
-0.6518356	M T O
-0.5491685	D T O
-0.7894978	V T O
-1.0026888	L T O
-0.51869583	K T O
-0.7322252	P T O
-1.7314786	I T O
-1.465565	F T O
-2.4639585	' T O
-1.83814	B T O
-2.092794	X T O
-0.6539018	- T O
-1.1510499	<s> H O
-0.780908	O H O
-1.1561366	N H O
-0.9747216	C H O
-1.057439	E H O
-1.3973448	T H O
-1.4088761	H H O
-0.7438344	R H O
-0.7663859	W H O
-1.093843	A H O
-0.78371084	S H O
-0.94669276	Y H O
-2.202086	U H O
-1.5405755	G H O
-1.6851293	M H O
-1.4456127	D H O
-0.90822047	L H O
-1.516922	K H O
-0.8321825	P H O
-0.9862057	I H O
-1.370909	F H O
-1.2285672	B H O
-1.3695089	X H O
-2.0593653	- H O
-2.0132828	Z H O
-0.8784293	<s> R O
-1.6127826	O R O
-1.1185567	N R O
-0.736525	C R O
-1.3435658	E R O
-0.9005791	T R O
-0.432217	H R O
-0.76726466	R R O
-0.98553616	W R O
-1.4459229	A R O
-0.76063883	S R O
-1.234191	Y R O
-1.3802102	U R O
-0.7536136	G R O
-1.1195817	M R O
-0.7147228	D R O
-0.9732103	L R O
-1.2796493	K R O
-0.33954462	P R O
-1.6313368	I R O
-0.22998516	F R O
-2.9710875	' R O
-0.5095227	B R O
-0.012258932	- R O
-1.4146488	<s> W O
-1.2453415	O W O
-0.9499121	N W O
-0.17668259	C W O
-0.875482	E W O
-0.5684798	T W O
-1.591492	H W O
-0.90588385	R W O
-1.2019534	W W O
-0.9096337	A W O
-1.0875896	S W O
-1.0004697	Y W O
-0.49005663	U W O
-1.2863514	G W O
-1.6062835	M W O
-1.136609	D W O
-0.8535007	L W O
-1.9178295	K W O
-2.2344391	P W O
-1.0962229	I W O
-0.8012799	F W O
-1.7347926	B W O
-0.83084273	X W O
-4.0351543	<s> A O
-3.7069201	O A O
-1.9449846	N A O
-3.9011056	C A O
-2.4571726	E A O
-2.243296	T A O
-2.4375331	H A O
-2.177645	R A O
-3.6131945	S A O
-3.6501913	M A O
-3.9518223	D A O
-3.1702225	K A O
-2.7358322	I A O
-3.7338252	B A O
-0.5817113	<s> S O
-1.4781842	O S O
-1.1561595	N S O
-1.7382921	C S O
-1.2014532	E S O
-1.0215875	T S O
-0.7408649	H S O
-1.100272	R S O
-0.8324763	W S O
-1.3571507	A S O
-1.0812066	S S O
-1.1915706	Y S O
-1.66482	U S O
-0.43356496	G S O
-1.2692472	M S O
-0.86322224	D S O
-1.0035256	V S O
-0.48290747	L S O
-0.9125838	K S O
-1.3678254	P S O
-1.522764	I S O
-0.8192562	F S O
-1.3332148	' S O
-0.93265146	B S O
-1.4286115	X S O
-0.090722	<s> Y O
-0.5426383	O Y O
-0.47657812	N Y O
-1.1732643	C Y O
-0.6071187	E Y O
-0.57694656	T Y O
-0.7378289	H Y O
-0.7657664	R Y O
-0.27090582	W Y O
-1.2642728	A Y O
-0.46285087	S Y O
-0.17782496	Y Y O
-0.63324	U Y O
-0.5849526	G Y O
-1.1447208	M Y O
-0.5402323	D Y O
-1.9616476	V Y O
-0.94167835	L Y O
-0.2579692	K Y O
-0.7766002	P Y O
-0.11764499	F Y O
-1.4307412	B Y O
-0.121138126	& Y O
-2.5152113	O U O
-2.5025601	N U O
-2.5207324	C U O
-3.4461324	E U O
-2.6132374	T U O
-3.70445	R U O
-3.6223114	A U O
-3.640761	S U O
-2.7689826	Y U O
-2.9190397	G U O
-3.210865	D U O
-1.5205674	L U O
-1.1175797	Q U O
-0.57992727	<s> G O
-1.0415039	O G O
-1.232703	N G O
-0.14603345	C G O
-0.7415689	E G O
-0.4320113	T G O
-1.126134	H G O
-0.822254	R G O
-0.19104987	W G O
-0.93528533	A G O
-0.4211298	S G O
-0.3190772	Y G O
-1.4296848	U G O
-0.8274064	G G O
-0.20993446	M G O
-0.9244675	D G O
-0.2849822	L G O
-0.359863	K G O
-2.185456	P G O
-1.695085	I G O
-0.30019438	F G O
-0.35247228	' G O
-0.3099753	B G O
-1.0338358	<s> M O
-1.1609554	O M O
-0.77138335	N M O
-0.59887695	C M O
-0.84403694	E M O
-0.7162284	T M O
-0.7053774	H M O
-0.7647288	R M O
-0.6328701	W M O
-0.84977275	A M O
-0.6742939	S M O
-0.75227153	Y M O
-1.2433727	U M O
-0.74466425	G M O
-0.68207246	M M O
-0.77825004	D M O
-0.53011626	L M O
-1.5858054	K M O
-0.8497353	P M O
-1.5076929	I M O
-1.0145255	F M O
-2.3131924	B M O
-0.37614855	X M O
-0.3454044	<s> D O
-0.89344376	O D O
-1.2271757	N D O
-0.02283407	C D O
-1.2311912	E D O
-0.37303305	T D O
-1.5230889	H D O
-1.1048698	R D O
-0.4309709	W D O
-1.1438773	A D O
-0.70325625	S D O
-0.66199684	Y D O
-0.7121567	U D O
-0.42246607	G D O
-1.0675819	M D O
-0.8754046	D D O
-1.2270147	L D O
-1.3511412	K D O
-0.4664141	P D O
-1.2992506	I D O
-1.4405468	F D O
-1.7115434	' D O
-0.4549333	B D O
-0.028102096	X D O
-0.7522944	Q D O
-0.16342756	- D O
-0.117299005	0 D O
-1.9402757	<s> V O
-1.2960256	O V O
-1.2053597	N V O
-1.0911931	E V O
-1.5969433	T V O
-0.56186396	H V O
-1.2354801	R V O
-2.3061426	W V O
-1.5204197	A V O
-0.4667498	S V O
-0.8897443	Y V O
-2.1111467	U V O
-0.57779527	G V O
-1.8707101	M V O
-1.0920253	D V O
-1.4306326	L V O
-0.021382647	P V O
-1.550064	I V O
-1.8438028	F V O
-1.8294129	' V O
-0.0142977	Z V O
-0.48836172	<s> L O
-0.76646703	O L O
-1.1337773	N L O
-0.574276	C L O
-1.0298257	E L O
-1.0739675	T L O
-0.65961903	H L O
-1.033015	R L O
-0.8249648	W L O
-1.0824957	A L O
-0.83922803	S L O
-0.9956521	Y L O
-1.6627057	U L O
-0.61927813	G L O
-1.462846	M L O
-0.94929576	D L O
-0.8986485	L L O
-1.0242511	K L O
-1.1008941	P L O
-1.5861577	I L O
-0.86638796	F L O
-0.93089604	B L O
-0.6634532	- L O
-1.6876616	O K O
-1.0550768	N K O
-1.2570001	C K O
-1.3337723	E K O
-1.5972086	H K O
-1.8857247	R K O
-1.4105128	A K O
-2.469288	S K O
-0.92152023	U K O
-0.7334317	G K O
-2.289486	M K O
-1.2484245	L K O
-2.0083468	K K O
-3.6998577	I K O
-1.1442792	<s> P O
-1.2143219	O P O
-0.6901016	N P O
-2.2034113	C P O
-0.9558188	E P O
-0.8322225	T P O
-1.7635918	H P O
-0.99709	R P O
-1.5784731	W P O
-1.0689104	A P O
-0.8840522	S P O
-0.5590162	Y P O
-0.71217835	U P O
-0.49791425	G P O
-0.9236869	M P O
-1.5561049	D P O
-1.0642567	L P O
-2.0108285	K P O
-0.8009249	P P O
-1.5200143	I P O
-0.61653626	F P O
-0.3593555	' P O
-1.6770738	X P O
-0.0078374315	- P O
-2.0389209	<s> I O
-3.733676	O I O
-1.526968	N I O
-1.1156154	C I O
-3.578544	E I O
-0.5921547	T I O
-2.4007382	H I O
-1.3004786	R I O
-4.154512	W I O
-4.0451813	A I O
-0.9764743	S I O
-1.9578977	G I O
-1.8221403	D I O
-0.9053139	V I O
-1.9562519	L I O
-2.6779335	K I O
-1.8222945	P I O
-3.9352808	F I O
-1.2260176	B I O
-1.2580836	X I O
-0.25508717	<s> F O
-1.336271	O F O
-0.42181635	N F O
-0.35130572	C F O
-0.4613287	E F O
-0.3788485	T F O
-0.35499611	H F O
-0.71553797	R F O
-0.3947931	W F O
-1.5206269	A F O
-0.6142192	S F O
-0.43693256	Y F O
-0.8156338	U F O
-0.37666208	G F O
-0.1521962	M F O
-0.39291865	D F O
-0.36533228	V F O
-1.0155704	L F O
-0.41613686	K F O
-0.16189793	P F O
-1.3055675	I F O
-1.00815	F F O
-0.5954734	' F O
-0.27447343	B F O
-0.1433374	X F O
-0.6346857	J F O
-0.59059066	- F O
-0.4711846	Z F O
-2.4309742	N ' O
-1.4584875	<s> B O
-1.320503	O B O
-0.34947675	N B O
-2.0643966	C B O
-0.68937945	E B O
-1.4961051	T B O
-1.1305215	H B O
-0.9314174	R B O
-0.937178	W B O
-0.48061955	A B O
-0.871382	S B O
-0.5836487	Y B O
-1.2004926	U B O
-1.3827602	G B O
-1.2051783	M B O
-1.2730899	D B O
-1.0831537	L B O
-1.7440099	K B O
-1.6738447	P B O
-2.3752432	I B O
-0.39773485	F B O
-1.0278555	B B O
-0.16742566	X B O
-1.9905729	O X O
-3.53184	E X O
-0.14351381	A X O
-1.7922943	U X O
-1.4633774	I X O
-0.6699419	<s> J O
-0.53655064	O J O
-0.19174032	N J O
-0.24048539	E J O
-0.55619884	T J O
-0.40983433	H J O
-0.3001856	R J O
-0.7908712	W J O
-0.4595212	A J O
-1.0530114	S J O
-0.5880593	Y J O
-1.2223889	U J O
-0.33826864	G J O
-1.5808694	M J O
-0.7975419	D J O
-0.84590673	L J O
-0.63040304	K J O
-2.1579676	I J O
-0.44678697	F J O
-0.535735	Z J O
-2.7633495	D Q O
-3.0319555	E - O
-2.1193104	O Z O
-1.5659887	N Z O
-0.86953545	C Z O
-1.3669127	E Z O
-1.730129	T Z O
-1.580372	A Z O
-0.5883459	Y Z O
-0.13039027	D Z O
-1.3148576	L Z O
-0.58441633	K Z O
-1.1998606	I Z O
-2.2595332	Z Z O
-0.41242936	<s> O N
-0.93482006	O O N
-1.3362764	N O N
-0.5986898	C O N
-0.86728776	E O N
-1.2839727	T O N
-1.2947887	H O N
-1.346602	R O N
-1.0124474	W O N
-1.6438395	A O N
-0.71364	S O N
-1.0489016	Y O N
-0.98598516	U O N
-0.85913146	G O N
-0.82637614	M O N
-0.5806276	D O N
-3.3236	V O N
-0.75706965	L O N
-0.59621936	K O N
-0.7975205	P O N
-0.109391324	I O N
-2.1096015	F O N
-0.11009023	' O N
-1.5303222	B O N
-0.04382365	X O N
-1.5829567	J O N
-0.37431252	Q O N
-0.15534651	Z O N
-3.551404	<s> N N
-2.1917427	O N N
-2.0162451	E N N
-1.120267	H N N
-3.4451628	R N N
-3.1846461	W N N
-1.5299824	A N N
-2.653394	Y N N
-1.8096552	U N N
-3.1663256	G N N
-1.9978704	I N N
-3.8976252	T C N
-3.80364	A C N
-3.3235831	I C N
-0.6329677	<s> E N
-0.9582063	O E N
-1.6461724	N E N
-1.3667879	C E N
-0.5192541	E E N
-0.97812724	T E N
-1.310078	H E N
-1.3489848	R E N
-1.0928507	W E N
-1.8974983	A E N
-1.1546494	S E N
-1.2225014	Y E N
-1.1177032	U E N
-0.928314	G E N
-0.6277844	M E N
-0.8969727	D E N
-0.9684776	V E N
-1.1772299	L E N
-1.115623	K E N
-0.82870084	P E N
-0.77884793	I E N
-1.3499823	F E N
-1.579185	B E N
-2.682142	X E N
-1.8446696	J E N
-0.83341753	- E N
-1.2764659	Z E N
-2.5544214	O T N
-3.1801393	N T N
-2.9302626	C T N
-3.2819982	E T N
-3.9851608	T T N
-1.743816	H T N
-2.080275	R T N
-2.0309904	A T N
-2.3065097	S T N
-2.0844223	U T N
-3.6294296	L T N
-2.4246666	I T N
-2.2936966	F T N
-2.0369754	' T N
-2.6397147	X T N
-1.5019972	O H N
-3.8910797	N H N
-1.9292058	C H N
-2.5002704	T H N
-3.678968	R H N
-2.8503077	A H N
-2.5853252	S H N
-2.8828633	G H N
-3.0875168	M H N
-3.2421606	L H N
-3.5988953	P H N
-3.4760444	F H N
-0.9033528	J H N
-1.4565163	O R N
-1.6172988	E R N
-4.0535145	R R N
-1.5392542	A R N
-1.0441813	U R N
-3.855147	D R N
-2.8722987	I R N
-0.8557129	O W N
-2.1046443	C W N
-2.371367	E W N
-1.4824519	A W N
-3.399063	G W N
-0.3394608	<s> A N
-0.63935035	O A N
-0.7351607	N A N
-0.6320622	C A N
-0.8207349	E A N
-0.6770507	T A N
-0.84403074	H A N
-0.5952086	R A N
-1.1518863	W A N
-0.21123874	A A N
-0.65187573	S A N
-0.50115335	Y A N
-1.1157064	U A N
-0.5796876	G A N
-0.53760445	M A N
-0.72056943	D A N
-0.7410508	V A N
-0.7823808	L A N
-0.5879935	K A N
-0.79055256	P A N
-0.49218255	I A N
-1.0507311	F A N
-0.6035104	' A N
-0.78616816	B A N
-1.1553047	X A N
-1.1966983	J A N
-0.37566465	Q A N
-1.9503056	Z A N
-3.1699686	<s> S N
-3.7298226	O S N
-2.8497446	N S N
-1.862462	E S N
-1.7794847	T S N
-2.4068296	H S N
-2.0345485	R S N
-2.8419926	W S N
-1.3283318	A S N
-2.3493495	S S N
-3.1968918	Y S N
-2.244168	U S N
-2.906922	G S N
-3.4116054	M S N
-1.6536903	D S N
-2.7455196	L S N
-1.9592859	K S N
-1.4994364	P S N
-1.5329493	I S N
-2.2597802	F S N
-1.4524875	' S N
-2.2278287	N Y N
-1.5450342	C Y N
-2.4333358	E Y N
-1.6211965	T Y N
-1.6306237	H Y N
-1.7395409	R Y N
-2.0843174	W Y N
-1.7542562	A Y N
-1.9031155	S Y N
-2.93439	G Y N
-1.7879418	M Y N
-2.7739577	D Y N
-1.6420444	L Y N
-2.1173763	P Y N
-2.9671462	F Y N
-2.1221337	B Y N
-0.04690952	<s> U N
-0.95450723	O U N
-0.9216948	N U N
-1.631366	C U N
-0.51104623	E U N
-1.2883612	T U N
-0.54705846	H U N
-0.73754275	R U N
-0.2672287	W U N
-1.0720385	A U N
-1.0219778	S U N
-0.44057432	Y U N
-0.32590634	U U N
-0.7717029	G U N
-1.7466861	M U N
-1.0825781	D U N
-1.1389403	L U N
-0.92019445	K U N
-1.413435	P U N
-1.3279353	I U N
-1.1402183	F U N
-1.9044641	B U N
-0.93014055	J U N
-1.2433252	O G N
-2.0282135	N G N
-3.4693713	E G N
-2.9921863	T G N
-3.0699575	H G N
-3.5171845	R G N
-1.4576569	A G N
-3.0235932	Y G N
-3.8001554	U G N
-3.0646448	D G N
-1.3492553	I G N
-2.3150363	O M N
-3.0639942	E M N
-3.61898	T M N
-3.6141675	R M N
-2.1211615	A M N
-1.6265752	Y M N
-2.209247	U M N
-3.3794782	L M N
-3.0055304	I M N
-1.0329556	' M N
-2.4169128	B M N
-2.661193	O D N
-1.7129369	N D N
-2.7916315	C D N
-1.8668511	E D N
-2.7461262	R D N
-1.3622775	A D N
-3.0738487	Y D N
-2.9666123	U D N
-0.92724514	L D N
-1.0030856	I D N
-2.5045793	' D N
-4.28526	E V N
-3.1828995	S V N
-3.3240807	O L N
-3.7217858	N L N
-3.288504	E L N
-3.3589	R L N
-3.0374231	W L N
-2.4352405	A L N
-2.7351515	U L N
-1.8239305	L L N
-2.4368653	I L N
-0.64041376	<s> K N
-1.1757812	O K N
-1.2194687	N K N
-2.4537797	C K N
-0.5232008	E K N
-0.078592636	T K N
-0.7071556	H K N
-1.2027239	R K N
-1.6861836	W K N
-2.4940252	A K N
-1.1790283	S K N
-0.06537123	Y K N
-0.11293151	U K N
-0.7039259	G K N
-1.8948834	M K N
-0.5988239	D K N
-1.0834743	L K N
-0.9849276	K K N
-0.08590475	P K N
-0.9502043	I K N
-0.7084043	F K N
-0.8201666	X K N
-0.006937076	- K N
-3.7592952	O P N
-3.300967	N P N
-3.375371	T P N
-1.0696425	H P N
-3.3977818	A P N
-3.928504	S P N
-3.0130727	Y P N
-2.962816	U P N
-3.4811704	M P N
-3.4621632	D P N
-1.8284615	I P N
-0.88399464	<s> I N
-0.42337933	O I N
-0.45889324	N I N
-0.9187052	C I N
-0.47850144	E I N
-0.65783244	T I N
-0.78607243	H I N
-0.6573108	R I N
-0.9109916	W I N
-0.34456468	A I N
-0.589244	S I N
-0.23853865	Y I N
-0.89795554	U I N
-0.3965317	G I N
-0.43631136	M I N
-0.5948854	D I N
-0.5966015	V I N
-0.788569	L I N
-0.15085207	K I N
-0.5564669	P I N
-1.7747142	I I N
-0.64349955	F I N
-0.7040752	B I N
-1.1518759	X I N
-0.40672994	J I N
-0.18845075	- I N
-0.19017076	Z I N
-2.080771	O F N
-3.826935	R F N
-3.248633	L F N
-1.8573048	I F N
-1.1450231	B F N
-1.6014991	A B N
-2.8694484	M B N
-3.1715205	I B N
-1.0553162	<s> X N
-2.0884087	O X N
-2.9641154	E X N
-2.653948	A X N
-1.899346	I X N
-0.7888948	B X N
-0.6423918	X X N
-3.4736264	E J N
-2.8798127	A J N
-0.39504242	V J N
-2.4597363	T Q N
-2.1067588	M Q N
-2.399467	I Q N
-3.0488245	D - N
-2.539761	O Z N
-1.1748048	R Z N
-2.0778947	W Z N
-1.2004199	S Z N
-0.64523774	V Z N
-3.1622365	I Z N
-2.4623542	<s> O C
-3.064012	O O C
-1.7342656	N O C
-1.9057523	C O C
-2.4396343	E O C
-1.4845929	T O C
-2.2807965	H O C
-1.5181082	R O C
-2.260232	W O C
-2.8907988	A O C
-1.4017581	S O C
-2.1172907	Y O C
-3.5058348	G O C
-2.2935224	M O C
-1.4813982	D O C
-1.0402812	V O C
-1.637713	L O C
-1.9330223	P O C
-3.8290162	I O C
-2.5889819	F O C
-3.1438854	B O C
-1.4896013	J O C
-1.5624063	O N C
-1.1462673	E N C
-2.6785545	H N C
-1.6565504	R N C
-1.6024574	W N C
-1.2629126	A N C
-2.2200742	Y N C
-1.331521	U N C
-2.463362	G N C
-1.428796	I N C
-0.9264419	O C C
-2.6218553	E C C
-1.0916339	A C C
-1.6017032	U C C
-0.7068411	M C C
-2.785387	L C C
-2.722955	P C C
-1.8020929	I C C
-2.5644634	<s> E C
-3.4223492	O E C
-1.5621705	N E C
-2.0627177	C E C
-1.9281247	E E C
-2.0597441	T E C
-1.3144373	H E C
-1.3907741	R E C
-1.7481333	W E C
-1.9014113	A E C
-1.5994731	S E C
-3.4864402	Y E C
-1.7824975	U E C
-1.5980128	G E C
-1.9477	M E C
-1.5898994	D E C
-1.9618958	V E C
-1.4237576	L E C
-1.961725	K E C
-0.96670604	P E C
-2.460335	I E C
-1.2161559	F E C
-1.1586338	B E C
-1.400929	X E C
-0.7813872	J E C
-2.533613	Z E C
-1.5822747	O T C
-2.1696026	N T C
-2.766734	C T C
-1.8183209	E T C
-3.5661867	T T C
-2.1147358	H T C
-2.2884445	R T C
-1.4481171	A T C
-2.0394855	S T C
-1.629545	U T C
-4.2876725	D T C
-3.2289262	L T C
-1.5859194	P T C
-1.7534183	I T C
-2.4638572	F T C
-1.2875004	' T C
-3.7189012	O H C
-1.7378241	C H C
-2.2487488	T H C
-1.8676928	A H C
-1.9171207	S H C
-2.3211777	G H C
-1.7934548	O R C
-1.8040957	E R C
-1.2961984	A R C
-1.2842473	U R C
-2.1842034	M R C
-3.8534365	D R C
-1.4674501	I R C
-4.0585523	<s> W C
-1.6930842	O W C
-2.9776914	E W C
-3.916187	A W C
-1.646495	<s> A C
-1.3593364	O A C
-1.1645336	N A C
-2.4205515	C A C
-1.2941167	E A C
-1.4233862	T A C
-2.8824174	H A C
-1.2744634	R A C
-2.22128	W A C
-0.9401711	A A C
-1.5274608	S A C
-1.4153545	Y A C
-1.6930232	U A C
-1.7727365	G A C
-1.5891006	M A C
-1.2445437	D A C
-1.3704299	V A C
-1.102686	L A C
-1.2689313	K A C
-1.6561257	P A C
-2.6795356	I A C
-0.5558809	F A C
-0.45023632	B A C
-0.29009485	X A C
-0.45841527	J A C
-0.9078982	Z A C
-1.7647681	<s> S C
-1.9735603	O S C
-1.4264455	N S C
-0.86067927	C S C
-1.6581761	E S C
-1.4276628	T S C
-1.1797107	H S C
-1.7018037	R S C
-2.5187285	W S C
-1.5010875	A S C
-1.7581642	S S C
-1.4275478	Y S C
-1.7706205	U S C
-2.4505827	G S C
-2.5240855	M S C
-1.784097	D S C
-1.7047918	L S C
-2.5960255	K S C
-2.439279	P S C
-1.3823619	I S C
-1.5286294	F S C
-1.5250976	' S C
-1.8807539	B S C
-0.5388221	- S C
-1.6054744	O Y C
-1.5784395	N Y C
-1.5016747	C Y C
-1.3513312	E Y C
-2.2769513	T Y C
-1.7008774	H Y C
-1.3310729	R Y C
-2.3057053	W Y C
-1.7485121	A Y C
-0.8725597	S Y C
-2.4163387	U Y C
-2.6537511	G Y C
-1.0691428	M Y C
-1.6356074	D Y C
-2.2430575	V Y C
-1.5859925	L Y C
-2.7578154	K Y C
-0.71382284	P Y C
-1.3593087	B Y C
-1.6876996	O U C
-3.4952674	N U C
-3.1914206	E U C
-2.5589252	T U C
-1.92306	H U C
-1.1403378	R U C
-2.7371874	A U C
-0.7176202	S U C
-0.43324947	M U C
-0.49197328	D U C
-1.3641186	L U C
-2.0450094	B U C
-3.2175367	<s> G C
-1.5261636	O G C
-1.7878053	N G C
-3.3709862	R G C
-4.0210524	A G C
-1.7586813	I G C
-1.2951695	<s> M C
-2.274634	O M C
-2.414963	N M C
-2.3142076	E M C
-3.5230746	T M C
-1.802661	R M C
-1.0574145	W M C
-2.0751061	A M C
-1.9962946	S M C
-3.3719826	Y M C
-3.2008774	U M C
-3.1515338	M M C
-1.9080279	L M C
-1.6258582	P M C
-2.3177073	I M C
-3.209924	F M C
-1.0253668	' M C
-2.5644112	O D C
-1.6593049	N D C
-1.911265	E D C
-2.6802635	R D C
-1.4810247	A D C
-3.1455266	U D C
-2.2217937	D D C
-1.7659363	L D C
-2.0142717	I D C
-2.0384493	' D C
-0.693873	J V C
-2.146183	O L C
-2.6438427	E L C
-3.6230052	R L C
-1.7798119	A L C
-2.0304055	U L C
-1.703649	M L C
-0.38782218	V L C
-1.955453	L L C
-3.732971	I L C
-2.9155302	O K C
-2.3897877	N K C
-2.7133124	C K C
-2.6423206	R K C
-3.3634584	A K C
-2.8492317	L K C
-3.7852225	O P C
-3.319551	N P C
-3.4213657	E P C
-1.8561469	R P C
-3.9495091	S P C
-1.8563374	U P C
-2.2533407	G P C
-2.0102508	M P C
-1.1638577	L P C
-1.5623968	I P C
-1.4777515	<s> I C
-0.8214905	O I C
-1.1990309	N I C
-3.4118757	C I C
-2.615534	E I C
-1.0839729	T I C
-1.2961419	H I C
-1.2128874	R I C
-2.2624695	W I C
-3.4397185	A I C
-1.4224331	S I C
-2.3553286	Y I C
-0.8759258	U I C
-1.5632973	G I C
-1.4699181	M I C
-1.6261307	D I C
-0.8545152	V I C
-1.3425629	L I C
-2.2692604	K I C
-0.87413776	P I C
-1.035345	F I C
-2.024085	B I C
-0.92366207	X I C
-1.357628	O F C
-2.261103	E F C
-1.819512	R F C
-3.1429985	Y F C
-1.4788091	L F C
-3.599711	I F C
-3.2071295	F F C
-1.3453768	O ' C
-3.007443	N ' C
-2.1242118	S ' C
-1.9278095	O B C
-4.0808163	E B C
-1.9650424	A B C
-1.5640442	U B C
-3.4550872	M B C
-2.9602222	L B C
-3.0172243	B B C
-2.4299717	O X C
-0.536108	E X C
-0.64195657	T X C
-0.9719135	S X C
-1.9155374	U X C
-2.4020686	I X C
-0.8853705	F X C
-3.071474	<s> J C
-0.68696517	J J C
-2.2114875	<s> Q C
-0.33366254	O - C
-1.0558679	E - C
-2.0860636	Y - C
-0.5215929	F - C
-2.0843072	<s> Z C
-1.7102481	T Z C
-3.2709525	O O E
-1.5909036	N O E
-2.495782	C O E
-1.6228927	T O E
-1.9756219	H O E
-3.4549384	R O E
-2.1291986	W O E
-1.8323287	S O E
-4.2345653	Y O E
-2.0523715	G O E
-4.0225663	M O E
-1.3149273	D O E
-3.2866852	L O E
-3.0930781	K O E
-1.5833141	P O E
-4.101594	I O E
-2.4418101	F O E
-1.2753253	J O E
-0.8416363	<s> N E
-0.7816652	O N E
-0.26540866	N N E
-1.1153611	E N E
-0.59191287	T N E
-0.87782896	H N E
-0.36767843	R N E
-0.99349046	W N E
-1.5825703	A N E
-0.89666235	S N E
-0.6750298	Y N E
-1.6750816	U N E
-0.58624977	G N E
-1.1549513	M N E
-0.65840936	D N E
-0.46832234	L N E
-0.6516386	K N E
-0.34174517	P N E
-1.1011212	I N E
-1.1217428	F N E
-0.3676339	- N E
-2.2468116	<s> C E
-1.1797217	O C E
-0.3074953	N C E
-0.646301	C C E
-1.3633693	E C E
-1.4756871	T C E
-1.2266802	H C E
-0.8067412	R C E
-2.665972	W C E
-0.6908796	A C E
-1.3734998	S C E
-2.1954873	Y C E
-0.98376083	U C E
-2.6564426	G C E
-2.281271	M C E
-2.2132225	D C E
-2.1863165	L C E
-2.2730196	P C E
-0.70795006	I C E
-2.0532894	F C E
-0.7189125	X C E
-1.3311572	N E E
-2.0558078	C E E
-3.078956	E E E
-1.1785066	T E E
-1.5689944	H E E
-1.2392235	R E E
-1.0317433	W E E
-2.3109949	A E E
-1.0267084	S E E
-2.4192739	Y E E
-2.1196067	U E E
-1.8177462	G E E
-1.8282024	M E E
-1.5943109	D E E
-2.1470606	V E E
-1.461858	L E E
-1.1652339	K E E
-1.638165	P E E
-3.6854212	I E E
-0.7869181	F E E
-0.82826656	B E E
-3.372231	J E E
-0.65965056	Q E E
-1.1057587	- E E
-1.3462268	Z E E
-2.278634	<s> T E
-1.2304444	O T E
-1.078113	N T E
-1.0886093	C T E
-1.1697196	E T E
-0.73380476	T T E
-0.92427325	H T E
-1.232952	R T E
-2.6591325	W T E
-0.7736863	A T E
-0.93229985	S T E
-1.6316226	Y T E
-1.0197538	U T E
-1.6895344	G T E
-2.6430285	M T E
-1.6663184	D T E
-0.91824377	L T E
-2.467585	K T E
-0.8852551	P T E
-1.2331631	I T E
-0.8742324	F T E
-1.965184	' T E
-1.7130316	B T E
-0.58459264	X T E
-0.12780325	<s> H E
-0.65722936	O H E
-0.48504516	N H E
-0.8281631	C H E
-0.60713136	E H E
-0.20863749	T H E
-0.49166203	H H E
-0.5982203	R H E
-0.5291103	W H E
-0.66898483	A H E
-0.42188534	S H E
-0.56600267	Y H E
-1.6280916	U H E
-1.1897062	G H E
-0.4805327	M H E
-0.51543045	D H E
-0.48629457	L H E
-0.5923512	K H E
-0.9189814	P H E
-1.827646	I H E
-0.4031128	F H E
-1.2285672	B H E
-2.066706	X H E
-0.12472931	- H E
-2.0132828	Z H E
-0.233361	<s> R E
-0.6959513	O R E
-0.44020462	N R E
-0.51511455	C R E
-0.57708097	E R E
-0.58819425	T R E
-0.4322008	H R E
-0.45124656	R R E
-0.7137556	W R E
-0.63949484	A R E
-0.38779438	S R E
-0.33853695	Y R E
-0.75180334	U R E
-0.2805652	G R E
-1.2473291	M R E
-0.32574114	D R E
-0.36912295	V R E
-0.16505891	L R E
-0.35374448	K R E
-0.5181279	P R E
-0.7294352	I R E
-0.7775764	F R E
-0.0016708618	' R E
-0.672127	B R E
-0.024995456	X R E
-2.104343	- R E
-0.5556327	<s> W E
-0.9113318	O W E
-0.78945446	N W E
-1.0025485	C W E
-1.0440536	E W E
-0.8212347	T W E
-0.7928209	H W E
-0.8236911	R W E
-1.6572196	W W E
-1.003258	A W E
-0.37911883	S W E
-0.5652975	Y W E
-0.45350403	U W E
-1.1996982	G W E
-0.86651564	M W E
-1.0010576	D W E
-0.85939527	L W E
-0.74911743	K W E
-1.4509728	P W E
-1.4014021	I W E
-0.9918071	F W E
-2.1423564	B W E
-0.48567596	X W E
-0.33988214	Q W E
-0.58251286	Z W E
-3.9854598	<s> A E
-3.65688	O A E
-3.0511863	N A E
-4.095941	C A E
-3.8219888	E A E
-4.1839957	T A E
-2.7939336	H A E
-2.9560833	R A E
-4.285415	S A E
-3.7986405	Y A E
-3.9370308	G A E
-2.3329437	M A E
-3.446138	D A E
-3.272688	L A E
-2.9364598	I A E
-3.6633983	F A E
-2.7558975	Z A E
-1.3295596	<s> S E
-0.5081334	O S E
-1.1421746	N S E
-1.5922312	C S E
-1.0404551	E S E
-0.96976	T S E
-1.0308793	H S E
-0.7207541	R S E
-0.9314957	W S E
-1.2309382	A S E
-0.80070025	S S E
-0.87176716	Y S E
-0.6925247	U S E
-2.0644238	G S E
-0.21627423	M S E
-1.2713412	D S E
-0.5959731	V S E
-0.8309646	L S E
-2.5080945	K S E
-1.0352886	P S E
-1.1872154	I S E
-0.7580572	F S E
-1.499916	' S E
-0.5617399	B S E
-0.31191784	X S E
-0.28918815	J S E
-0.9284587	Z S E
-0.77339613	<s> Y E
-1.1142169	O Y E
-1.168404	N Y E
-2.2715662	C Y E
-0.7087954	E Y E
-1.5596287	T Y E
-0.95934814	H Y E
-1.2801648	R Y E
-0.98363656	W Y E
-1.2230912	A Y E
-1.1679852	S Y E
-0.6338147	Y Y E
-0.66542596	U Y E
-2.023086	G Y E
-1.3077512	M Y E
-1.0683966	D Y E
-1.4323949	L Y E
-2.4829328	K Y E
-1.8405448	P Y E
-1.6437331	F Y E
-1.5653756	B Y E
-1.3216964	X Y E
-0.64302766	Q Y E
-0.008189682	- Y E
-2.4974594	O U E
-0.6497269	N U E
-3.0656164	C U E
-1.258902	T U E
-2.6994195	H U E
-1.4609222	R U E
-1.438254	S U E
-0.61198056	G U E
-2.8823955	M U E
-1.6263655	D U E
-0.8585284	L U E
-1.74267	K U E
-3.3020968	P U E
-2.917991	F U E
-3.545309	B U E
-0.5475119	Q U E
-0.7925517	Z U E
-1.0050944	<s> G E
-0.59922254	O G E
-0.8971012	N G E
-1.1106337	E G E
-1.1310711	T G E
-0.5884194	H G E
-0.4532841	R G E
-2.0252075	W G E
-0.3756661	A G E
-1.7616353	S G E
-1.3995326	Y G E
-1.289669	U G E
-0.4735373	G G E
-2.0189867	M G E
-0.37437665	D G E
-1.2009284	L G E
-2.3271081	K G E
-0.34956378	P G E
-1.432463	I G E
-1.8262111	F G E
-0.35700414	Q G E
-0.8035167	<s> M E
-0.45184192	O M E
-0.8259472	N M E
-0.88394356	C M E
-0.73498034	E M E
-0.7208482	T M E
-0.47566566	H M E
-0.7355484	R M E
-0.53161985	W M E
-0.43594873	A M E
-0.9922337	S M E
-0.681756	Y M E
-0.54987067	U M E
-0.4559875	G M E
-0.6294369	M M E
-0.60284287	D M E
-0.6180878	V M E
-0.57706517	L M E
-0.5334027	K M E
-0.6502113	P M E
-0.65489405	I M E
-0.5692537	F M E
-2.6929777	' M E
-0.3649398	B M E
-0.10531414	- M E
-0.7454538	<s> D E
-1.0289452	O D E
-1.0932776	N D E
-2.173788	C D E
-1.4144728	E D E
-0.76418316	T D E
-0.8519904	H D E
-0.89967597	R D E
-0.7623658	W D E
-0.80463624	A D E
-0.594295	S D E
-0.45958894	Y D E
-0.82742816	U D E
-0.9258885	G D E
-1.051357	M D E
-0.3184109	D D E
-1.0133576	L D E
-0.14340356	K D E
-0.43453133	I D E
-0.5496428	F D E
-1.4705291	B D E
-1.5586221	X D E
-0.3395595	<s> V E
-0.06530614	O V E
-0.33498052	N V E
-0.031328734	C V E
-0.14220642	E V E
-0.5399191	T V E
-0.36329663	H V E
-0.35824022	R V E
-0.17886072	W V E
-0.08207375	A V E
-0.5806973	S V E
-0.71090364	Y V E
-0.27612942	U V E
-0.53464735	G V E
-0.7566066	M V E
-0.56592023	D V E
-0.06167872	L V E
-0.1880484	K V E
-0.105881706	I V E
-1.2200209	F V E
-0.010529782	' V E
-0.84432775	X V E
-1.9213741	Z V E
-0.5200421	<s> L E
-0.9658086	O L E
-1.1742369	N L E
-0.8277087	C L E
-1.0639744	E L E
-0.43011153	T L E
-0.64716256	H L E
-0.88618803	R L E
-0.33433473	W L E
-1.3928622	A L E
-0.73474085	S L E
-0.90396756	Y L E
-1.4752839	U L E
-0.9504338	G L E
-0.73027897	M L E
-0.71520466	D L E
-0.93637156	L L E
-0.60051066	K L E
-0.45855188	P L E
-0.8109008	I L E
-0.67170703	F L E
-0.29097354	B L E
-0.11731121	X L E
-0.11464893	- L E
-0.03855137	Z L E
-0.36787558	<s> K E
-0.4546084	O K E
-0.8757745	N K E
-0.9514045	C K E
-0.9277774	E K E
-0.96473855	T K E
-0.4716779	H K E
-0.78533113	R K E
-0.18861799	A K E
-0.4582296	S K E
-1.66425	Y K E
-1.0420307	U K E
-0.7101801	G K E
-0.3915513	M K E
-0.2942032	D K E
-0.6892111	L K E
-0.08387941	K K E
-0.08206843	I K E
-0.6385003	F K E
-0.83345425	X K E
-0.74628353	J K E
-0.6846528	<s> P E
-0.5849832	O P E
-0.94670516	N P E
-2.1931162	C P E
-1.0147974	E P E
-1.0084312	T P E
-0.81103766	H P E
-0.64041686	R P E
-0.7879704	W P E
-0.9447929	A P E
-0.516791	S P E
-0.85944116	Y P E
-0.93630487	U P E
-0.9941207	G P E
-1.2724464	M P E
-0.726124	D P E
-0.35745245	V P E
-1.2481058	L P E
-1.8379171	K P E
-0.3105826	P P E
-1.1592404	I P E
-1.0358953	F P E
-2.1800854	B P E
-0.4498502	X P E
-0.35745245	J P E
-3.6564038	<s> I E
-3.4847507	O I E
-2.3099415	N I E
-0.841028	C I E
-3.68543	E I E
-1.6716357	T I E
-1.5557884	H I E
-0.8307893	R I E
-3.7530737	W I E
-2.4651654	S I E
-1.4474899	Y I E
-1.0670115	U I E
-1.7632453	G I E
-1.9751403	M I E
-1.1612983	D I E
-1.2294002	V I E
-1.144227	L I E
-3.1093483	K I E
-0.7259412	P I E
-1.4279143	F I E
-2.5403707	B I E
-0.9101785	X I E
-1.6094495	Z I E
-2.0252655	<s> F E
-1.6911112	O F E
-0.88668406	N F E
-0.41059145	C F E
-1.264081	E F E
-1.0721791	T F E
-1.1609623	H F E
-0.94582987	R F E
-2.0927098	W F E
-0.79936963	A F E
-1.1316907	S F E
-1.0732317	Y F E
-1.9819846	U F E
-0.7374699	G F E
-1.0967672	M F E
-0.9252136	D F E
-2.2689493	L F E
-2.2454648	P F E
-0.5933825	I F E
-0.5281962	F F E
-0.6135542	' F E
-1.3787663	X F E
-0.60616285	- F E
-2.1899273	S ' E
-0.7386364	<s> B E
-0.33214533	O B E
-0.70146036	N B E
-0.51585793	C B E
-0.47770125	E B E
-0.27388552	T B E
-1.359048	H B E
-0.47781986	R B E
-0.6617389	W B E
-1.7688599	A B E
-0.44077054	S B E
-0.47374958	Y B E
-1.4045306	U B E
-0.4620437	G B E
-0.43603814	M B E
-0.30957544	D B E
-0.21377213	L B E
-1.4053285	K B E
-0.14460607	P B E
-0.6641541	I B E
-1.0990281	F B E
-0.47581285	B B E
-0.9024124	X B E
-0.6062958	Z B E
-1.0541909	<s> X E
-1.4071295	O X E
-1.8142987	N X E
-1.8952128	E X E
-0.89368963	A X E
-2.3401287	U X E
-0.58547556	I X E
-0.5368389	<s> J E
-0.25443938	O J E
-2.2701294	N J E
-1.0832108	E J E
-0.5202183	T J E
-0.3844126	H J E
-1.5206147	R J E
-0.24541314	W J E
-0.6667269	A J E
-0.90935886	S J E
-0.6192336	Y J E
-1.2345554	U J E
-0.3956941	G J E
-0.0770339	M J E
-0.38462245	D J E
-2.2374759	L J E
-0.31694898	P J E
-0.46360737	F J E
-0.00747488	B J E
-2.1931663	<s> Q E
-3.461169	E Q E
-0.7832542	E - E
-0.73264843	R - E
-0.39175895	G - E
-0.4570015	D - E
-0.4650427	L - E
-0.11691447	P - E
-1.0908602	<s> Z E
-0.116533354	O Z E
-0.31394288	N Z E
-0.36845922	E Z E
-0.7348153	T Z E
-0.051090643	H Z E
-0.25865874	R Z E
-0.025071688	W Z E
-0.29610574	A Z E
-0.17741625	S Z E
-0.41348308	Y Z E
-2.251911	U Z E
-0.8695134	D Z E
-0.100386225	L Z E
-0.26099923	I Z E
-0.25487667	F Z E
-0.19054149	X Z E
-1.2736105	<s> O T
-1.2672255	O O T
-0.55755085	N O T
-1.8666018	C O T
-1.4316888	E O T
-1.0151788	T O T
-1.252622	H O T
-1.7043793	R O T
-1.8116734	W O T
-0.6892442	A O T
-1.7057374	S O T
-2.156919	Y O T
-0.4466091	U O T
-0.7788118	G O T
-1.2496578	M O T
-1.5537616	D O T
-1.384367	V O T
-1.3701694	L O T
-2.5952897	K O T
-1.1218199	P O T
-1.9453206	I O T
-2.4116294	F O T
-1.304378	B O T
-1.5236177	Z O T
-0.9509203	O N T
-3.5205688	N N T
-0.52449745	E N T
-2.0133684	H N T
-1.3347355	R N T
-0.6678059	W N T
-1.0730088	A N T
-1.8921367	Y N T
-0.7207132	U N T
-1.3264538	G N T
-1.907574	M N T
-3.7543983	K N T
-0.87018186	I N T
-1.3711108	O C T
-1.7171844	N C T
-0.8138096	E C T
-3.0822034	T C T
-2.0322556	R C T
-0.9236849	A C T
-1.1114259	U C T
-0.38255635	V C T
-2.3045945	L C T
-1.92186	P C T
-1.2303325	I C T
-2.5644634	<s> E T
-1.3651433	O E T
-1.3528383	N E T
-1.2250246	C E T
-1.0341166	E E T
-1.8144324	T E T
-1.4960706	H E T
-1.2042718	R E T
-1.9853327	W E T
-1.6561539	A E T
-1.2142872	S E T
-1.0116682	Y E T
-1.0433993	U E T
-0.8017294	G E T
-0.9601095	M E T
-1.4757819	D E T
-1.159672	V E T
-0.95736015	L E T
-0.7836666	K E T
-1.3920289	P E T
-1.2148015	I E T
-1.8190726	F E T
-1.1298014	B E T
-2.6899896	X E T
-2.6244872	J E T
-1.1950657	Z E T
-1.1446371	O T T
-1.5178586	N T T
-1.6444795	C T T
-1.2527826	E T T
-3.4074976	T T T
-1.2110468	H T T
-1.8489392	R T T
-0.890251	A T T
-1.6144581	S T T
-0.83471113	U T T
-1.4835403	L T T
-1.2273571	P T T
-1.0615486	I T T
-2.1761518	F T T
-1.2101555	' T T
-1.6207151	B T T
-0.75836664	X T T
-2.1014864	O H T
-3.9218614	N H T
-1.4633435	C H T
-4.173402	E H T
-1.8252958	T H T
-1.8948901	A H T
-1.8521041	S H T
-0.15271083	G H T
-0.6601295	V H T
-3.2327683	P H T
-1.3539777	B H T
-0.75704145	O R T
-1.1914799	E R T
-4.2321377	T R T
-3.0951746	W R T
-0.87173593	A R T
-3.3340282	Y R T
-1.3730965	U R T
-2.9324913	M R T
-3.7698174	D R T
-1.0235707	I R T
-1.2365986	O W T
-1.8321909	E W T
-3.778822	R W T
-3.2828891	W W T
-1.6893356	A W T
-2.409204	B W T
-1.0085179	<s> A T
-0.8130657	O A T
-0.8047	N A T
-1.0833455	C A T
-0.9278262	E A T
-0.9660764	T A T
-0.51407593	H A T
-0.8633444	R A T
-1.4756675	W A T
-1.020316	A A T
-1.2354531	S A T
-1.2513963	Y A T
-0.8201297	U A T
-1.1954849	G A T
-0.9887846	M A T
-0.9853808	D A T
-0.9157624	V A T
-0.9609426	L A T
-0.79359484	K A T
-0.9707961	P A T
-0.9649074	I A T
-0.9979997	F A T
-1.2756513	B A T
-1.617816	X A T
-0.21213013	Z A T
-1.444582	<s> S T
-0.5983146	O S T
-0.7420552	N S T
-0.53274447	C S T
-0.7498542	E S T
-1.0545155	T S T
-1.2789179	H S T
-0.6865001	R S T
-0.85734165	W S T
-0.7201763	A S T
-0.92235845	S S T
-0.8293721	Y S T
-0.62523335	U S T
-0.9233777	G S T
-1.6383348	M S T
-0.85145074	D S T
-1.0915608	L S T
-0.82592297	K S T
-1.133302	P S T
-0.81111586	I S T
-0.8177162	F S T
-0.87749857	' S T
-0.70537686	B S T
-1.2838365	O Y T
-0.7637166	N Y T
-1.6829062	C Y T
-1.8105618	E Y T
-0.9581557	T Y T
-1.1892351	H Y T
-0.98900527	R Y T
-1.0137036	A Y T
-1.8467135	S Y T
-1.722524	U Y T
-2.0915952	G Y T
-1.5930848	M Y T
-1.5050292	D Y T
-1.8178875	V Y T
-1.0515662	L Y T
-2.1146598	K Y T
-0.6189771	P Y T
-1.7589474	F Y T
-0.52403843	B Y T
-1.2165152	Z Y T
-2.5537956	<s> U T
-0.7742902	O U T
-0.678501	N U T
-1.2361405	C U T
-1.059773	E U T
-1.5431447	T U T
-1.3237282	H U T
-0.918508	R U T
-0.7480316	A U T
-3.3010843	S U T
-2.3610215	U U T
-3.4028432	G U T
-1.5575947	M U T
-1.5889685	D U T
-0.8545021	L U T
-0.39686754	P U T
-1.4403164	F U T
-0.20409626	B U T
-3.2472162	J U T
-3.1682231	<s> G T
-1.3249263	O G T
-0.7640749	N G T
-2.5809588	R G T
-3.6788874	A G T
-3.584644	U G T
-3.159066	G G T
-1.8943582	I G T
-1.1047046	O M T
-1.433018	E M T
-2.2050893	R M T
-1.9560406	A M T
-3.7569685	S M T
-3.4640083	Y M T
-3.2628653	U M T
-3.6544776	D M T
-1.457943	L M T
-2.0279226	P M T
-1.3422714	I M T
-2.4916198	' M T
-1.3310952	O D T
-0.95870894	N D T
-0.82189184	E D T
-1.3043635	R D T
-2.1158476	W D T
-1.3657588	A D T
-2.9477684	U D T
-2.5879705	D D T
-1.3353089	L D T
-2.5454533	P D T
-1.0185627	I D T
-2.1937532	' D T
-0.38325202	J D T
-2.3359616	Y V T
-3.4845839	D V T
-1.0768275	K V T
-1.8888606	O L T
-3.7305686	C L T
-1.5194192	E L T
-2.761176	R L T
-2.993105	W L T
-1.4729435	A L T
-1.0988535	U L T
-1.0835606	L L T
-1.5918828	I L T
-1.4047306	X L T
-2.4199545	Z L T
-1.2572247	O K T
-1.0890194	N K T
-1.1686198	C K T
-1.4394931	E K T
-1.5972086	H K T
-0.98013586	R K T
-2.3542113	A K T
-1.9925227	S K T
-2.8804474	D K T
-0.9101527	L K T
-2.0083468	K K T
-3.6998577	I K T
-0.8848762	X K T
-0.7878897	J K T
-3.10158	<s> P T
-1.8146896	O P T
-1.1183987	E P T
-2.9036314	R P T
-0.843194	A P T
-3.9063885	S P T
-1.5738187	Y P T
-0.86646116	U P T
-0.91578984	M P T
-3.4419155	D P T
-1.2730244	L P T
-1.1972982	I P T
-0.4488034	<s> I T
-1.1593859	O I T
-0.87222576	N I T
-0.7178379	C I T
-1.0173185	E I T
-1.2577907	T I T
-1.4866595	H I T
-1.1336932	R I T
-0.22604987	W I T
-1.3258997	A I T
-0.90433764	S I T
-0.921557	Y I T
-0.8476429	U I T
-1.095338	G I T
-1.0955415	M I T
-0.9040311	D I T
-1.339004	V I T
-0.9709231	L I T
-1.2538178	K I T
-0.84392786	P I T
-0.8434977	I I T
-1.1440226	F I T
-0.81004256	B I T
-2.0782425	X I T
-0.4717586	O F T
-2.3125246	C F T
-1.4112659	E F T
-3.5983734	T F T
-0.54657567	A F T
-3.786802	S F T
-1.9441934	U F T
-3.2879586	G F T
-3.7337658	D F T
-0.98536783	L F T
-0.6607154	I F T
-1.1817247	F F T
-0.08467276	N ' T
-1.4849857	O B T
-2.6530323	E B T
-3.6648943	T B T
-1.6033517	R B T
-0.9675973	U B T
-1.6237208	M B T
-1.4795401	I B T
-2.9898453	B B T
-2.108487	O X T
-0.7398435	E X T
-0.98938435	S X T
-0.36677346	I X T
-0.8012588	B X T
-0.6511795	Z X T
-3.1085231	O J T
-2.458682	T Q T
-2.7339623	D Q T
-0.6651934	J Q T
-0.4698316	N - T
-0.014240533	Y - T
-1.8003327	L - T
-2.4526303	F - T
-0.16870223	B - T
-0.61405754	C Z T
-1.2856013	Y Z T
-3.3229928	I Z T
-1.5473918	<s> O H
-2.575512	O O H
-1.9077231	N O H
-2.088006	C O H
-2.181486	E O H
-1.2434328	T O H
-1.9075046	H O H
-3.1178856	R O H
-1.4590557	W O H
-2.6144865	A O H
-2.003091	S O H
-3.4892147	Y O H
-3.0250492	G O H
-3.7498937	M O H
-2.914547	D O H
-2.9750385	L O H
-3.035474	K O H
-3.7869287	P O H
-4.032388	I O H
-2.4954853	F O H
-2.091894	B O H
-1.2722639	X O H
-1.1681004	J O H
-3.5074565	<s> N H
-1.5071189	O N H
-2.8590944	N N H
-1.5140213	E N H
-2.8626118	H N H
-1.8298869	R N H
-1.9139609	W N H
-2.1415987	A N H
-2.2447007	S N H
-1.9910665	U N H
-2.8598075	G N H
-1.4633545	I N H
-0.8082248	J N H
-0.8082248	Q N H
-0.7534017	<s> C H
-0.930431	O C H
-0.943103	N C H
-1.4727051	C C H
-1.1218892	E C H
-0.39701596	T C H
-0.5160717	H C H
-0.36751282	R C H
-0.75719404	W C H
-0.78623015	A C H
-0.83791256	S C H
-0.72758484	Y C H
-0.25617504	U C H
-0.41803652	G C H
-0.7197732	M C H
-0.77384627	D C H
-0.9598121	L C H
-0.701741	K C H
-2.4476724	P C H
-0.84851825	I C H
-0.65556896	F C H
-2.392817	B C H
-1.1078061	X C H
-0.6087276	J C H
-3.2409701	O E H
-1.7804302	N E H
-1.484789	C E H
-1.8989625	E E H
-2.0550907	T E H
-1.4319696	H E H
-1.6051157	R E H
-1.6372833	W E H
-1.855775	S E H
-3.367904	Y E H
-2.7051017	U E H
-1.8137331	G E H
-1.8461454	M E H
-2.032952	D E H
-1.7845304	V E H
-1.7080758	L E H
-1.6471473	K E H
-3.4901638	P E H
-2.2270029	I E H
-1.9582015	F E H
-1.5735987	B E H
-2.6875339	Z E H
-0.04196733	<s> T H
-0.39905992	O T H
-0.5098567	N T H
-2.11853	C T H
-0.4304449	E T H
-0.3531225	T T H
-0.5541987	H T H
-0.3981542	R T H
-0.08483763	W T H
-1.0198145	A T H
-0.7358569	S T H
-0.16278562	Y T H
-0.8391102	U T H
-0.22625776	G T H
-0.14997447	M T H
-0.20626664	D T H
-0.7862348	V T H
-0.43982166	L T H
-0.19290823	K T H
-0.86717796	P T H
-0.5317463	I T H
-0.17296757	F T H
-1.2984825	' T H
-0.68965197	B T H
-0.96976674	X T H
-0.11988389	- T H
-0.8999214	Z T H
-1.5656103	C H H
-2.1640637	T H H
-3.7859313	R H H
-1.5854056	A H H
-2.1178312	S H H
-1.726955	G H H
-3.456839	P H H
-2.6207986	<s> R H
-1.5318202	O R H
-1.8739951	C R H
-1.6592426	E R H
-3.924618	R R H
-2.1047325	A R H
-1.5245028	S R H
-3.2656946	Y R H
-1.579933	U R H
-1.0897598	M R H
-3.3040218	D R H
-2.341358	K R H
-4.0979695	P R H
-1.6934996	I R H
-0.3062127	<s> W H
-1.3416783	O W H
-0.5849535	N W H
-1.1627612	C W H
-0.9711079	E W H
-1.1664319	T W H
-0.70674187	H W H
-0.672335	R W H
-0.36693808	W W H
-1.4533534	A W H
-0.8565706	S W H
-0.8603647	Y W H
-1.8582757	U W H
-1.4877286	G W H
-0.65494156	M W H
-0.8063752	D W H
-1.1573477	L W H
-0.9886457	K W H
-0.7021017	P W H
-3.2671366	I W H
-0.6127419	F W H
-2.163866	B W H
-1.002747	X W H
-1.3406463	<s> A H
-1.5402747	O A H
-2.1342607	N A H
-3.5523834	C A H
-2.1360884	E A H
-2.1591225	T A H
-3.3360078	H A H
-1.6726849	R A H
-4.333879	W A H
-2.042288	S A H
-2.7328954	Y A H
-1.770983	U A H
-3.2739158	G A H
-2.9812052	M A H
-2.7439182	D A H
-3.4990456	V A H
-3.2602262	L A H
-2.4465342	K A H
-3.5833623	P A H
-1.9804846	I A H
-2.8451083	F A H
-1.1653676	J A H
-0.42943966	<s> S H
-1.1715287	O S H
-1.0327307	N S H
-1.8009826	C S H
-1.2061183	E S H
-0.94571286	T S H
-0.6735232	H S H
-1.1110606	R S H
-0.86207664	W S H
-1.0703206	A S H
-1.0887574	S S H
-0.89502573	Y S H
-0.9993687	U S H
-0.9667492	G S H
-1.431188	M S H
-1.0574616	D S H
-1.3392577	L S H
-1.0904851	K S H
-1.3680239	P S H
-1.0475756	I S H
-1.063957	F S H
-1.7801754	' S H
-0.87742364	B S H
-0.46270993	- S H
-2.0392907	O Y H
-2.1884158	N Y H
-2.0078506	C Y H
-1.3408085	E Y H
-1.93908	T Y H
-1.6065702	H Y H
-1.4332966	R Y H
-1.2473843	W Y H
-1.2500281	A Y H
-2.1531737	U Y H
-2.3542578	G Y H
-1.2637771	M Y H
-1.184509	D Y H
-1.991222	V Y H
-1.3113375	L Y H
-2.0333538	K Y H
-1.5912752	P Y H
-2.0770116	F Y H
-1.4115133	B Y H
-1.8627999	O U H
-1.8876725	A U H
-3.6976805	D U H
-1.8568559	L U H
-1.8380436	O G H
-1.4942951	N G H
-2.1723802	E G H
-1.2735252	R G H
-3.5235386	S G H
-0.11643737	U G H
-3.5521693	D G H
-1.7386525	P G H
-0.15002374	I G H
-1.8848438	F G H
-1.7513098	O M H
-1.859483	E M H
-2.7069643	R M H
-2.092982	A M H
-3.504482	S M H
-3.4640083	Y M H
-3.4991627	U M H
-3.6544776	D M H
-2.517168	K M H
-1.6951554	I M H
-2.0825982	' M H
-0.66289085	J M H
-1.9791659	O D H
-1.2576839	N D H
-1.1047387	E D H
-1.5125989	R D H
-2.876326	W D H
-1.5244048	A D H
-3.3770466	U D H
-3.6922677	D D H
-1.1028106	L D H
-1.6656092	I D H
-2.5034325	' D H
-4.283479	E V H
-3.181572	S V H
-2.2432544	O L H
-2.272778	E L H
-3.6816976	R L H
-2.3873692	A L H
-2.1772041	U L H
-1.6049073	L L H
-1.7577584	I L H
-1.3355469	O K H
-1.5245678	N K H
-1.4787459	C K H
-2.5345693	E K H
-1.5607657	R K H
-1.7462845	A K H
-1.4006361	S K H
-2.3496807	M K H
-1.179418	L K H
-0.34466025	<s> P H
-1.0936452	O P H
-0.8130966	N P H
-1.6344075	C P H
-1.1819835	E P H
-0.86358106	T P H
-0.8201984	H P H
-1.4614563	R P H
-2.207646	W P H
-1.4435295	A P H
-1.4973643	S P H
-1.0171957	Y P H
-1.4132352	U P H
-2.4766777	G P H
-1.2503067	M P H
-0.8749174	D P H
-0.99783933	L P H
-1.905629	I P H
-1.0965664	F P H
-1.2260649	<s> I H
-3.2211962	O I H
-1.9920757	N I H
-2.223886	E I H
-2.9783897	T I H
-2.6939225	H I H
-2.427586	R I H
-3.6374686	W I H
-3.4546428	A I H
-2.1761725	S I H
-1.6476408	Y I H
-2.9234474	U I H
-3.1363163	G I H
-2.3440616	M I H
-2.2889147	D I H
-2.4102147	L I H
-2.7404094	K I H
-0.9187574	I I H
-3.4411752	F I H
-1.2556589	O F H
-2.2621114	E F H
-1.3501264	L F H
-1.4773033	I F H
-1.3173462	F F H
-2.08882	O ' H
-0.11126544	S ' H
-3.1486497	O B H
-3.5149813	R B H
-3.9640872	A B H
-2.9986372	M B H
-3.046446	B B H
-0.23194134	Q B H
-1.0784326	<s> X H
-2.4777427	O X H
-1.5851344	E X H
-2.6906683	A X H
-2.3798535	U X H
-2.1749883	I X H
-2.999215	<s> J H
-2.7222962	Y J H
-2.35236	G J H
-0.6734949	Z J H
-2.0531287	N - H
-1.5259532	T - H
-0.35976997	A - H
-0.70902926	D - H
-0.01193282	I - H
-1.996	N Z H
-0.22023651	T Z H
-0.8237631	G Z H
-0.38617134	Q Z H
-0.3843367	H & H
-1.1029977	<s> O R
-1.2142264	O O R
-1.0896358	N O R
-1.2686625	C O R
-1.0871125	E O R
-1.2149725	T O R
-0.91867083	H O R
-1.6105675	R O R
-0.5396446	W O R
-1.4836876	A O R
-1.3386576	S O R
-1.7441983	Y O R
-2.0853348	U O R
-1.5671939	G O R
-0.4768215	M O R
-1.3549204	D O R
-1.1316489	V O R
-1.1744177	L O R
-1.0646431	K O R
-0.9597307	P O R
-1.8727443	I O R
-0.13417082	F O R
-0.969662	B O R
-2.0209835	X O R
-1.543093	J O R
-2.3120503	Z O R
-2.3303096	O N R
-3.288333	N N R
-1.3294867	C N R
-2.0919242	E N R
-2.6535728	H N R
-3.0452652	R N R
-2.4775782	W N R
-2.240201	A N R
-3.3031025	U N R
-3.0426018	I N R
-0.8182792	J N R
-0.8182792	Q N R
-1.2172661	<s> C R
-1.5027994	O C R
-1.2606273	N C R
-2.9310696	C C R
-1.2009456	E C R
-1.7821244	T C R
-1.3595434	H C R
-1.7007422	R C R
-0.8022327	W C R
-1.4812512	A C R
-0.7964973	S C R
-1.536294	Y C R
-3.2500937	U C R
-0.82523865	G C R
-2.5453584	M C R
-1.0656588	D C R
-1.1148158	L C R
-1.1812541	K C R
-2.4739363	P C R
-1.827616	I C R
-2.0192947	F C R
-1.5528156	X C R
-1.1000699	<s> E R
-1.748682	O E R
-1.1868573	N E R
-1.2748173	C E R
-1.3627536	E E R
-0.56068456	T E R
-0.74624157	H E R
-1.8067511	R E R
-0.40930128	W E R
-1.1281168	A E R
-1.2031219	S E R
-1.3244781	Y E R
-1.7758565	U E R
-0.8919032	G E R
-1.1872077	M E R
-0.71118283	D E R
-0.4727413	V E R
-1.5433438	L E R
-1.3082219	K E R
-0.53093857	P E R
-1.0236577	I E R
-0.84567875	F E R
-1.1182468	B E R
-1.2007873	X E R
-0.8763877	J E R
-0.74066097	Z E R
-2.3432837	<s> T R
-1.5066311	O T R
-1.5648632	N T R
-1.4097087	C T R
-1.3322394	E T R
-1.8131988	T T R
-1.8894949	H T R
-1.7038748	R T R
-2.5454793	W T R
-1.6290048	A T R
-0.8914871	S T R
-2.0584345	Y T R
-1.603052	U T R
-1.5895841	G T R
-1.4830691	M T R
-1.7077752	D T R
-1.2943159	L T R
-2.467585	K T R
-3.064275	P T R
-2.2607954	I T R
-1.6508042	F T R
-2.1255789	' T R
-0.95812637	B T R
-1.1428382	X T R
-1.7783169	C H R
-3.8704312	E H R
-1.6032543	T H R
-2.7591126	A H R
-2.0172951	S H R
-3.3610873	G H R
-3.1733894	M H R
-2.6280577	P H R
-1.4230874	O R R
-1.4656374	E R R
-4.2510443	T R R
-1.2696688	A R R
-1.2444516	U R R
-2.518871	M R R
-3.091823	D R R
-3.478285	L R R
-1.3644619	I R R
-3.369091	<s> W R
-2.0023253	O W R
-2.7052312	N W R
-2.1979663	E W R
-3.2528386	T W R
-2.6603754	H W R
-2.3704634	R W R
-3.0604477	W W R
-3.2366061	A W R
-1.7786433	S W R
-2.1950667	Y W R
-2.7136476	U W R
-1.2697967	G W R
-0.89606726	M W R
-1.6221299	D W R
-2.6548452	L W R
-1.82977	P W R
-2.8661351	I W R
-1.4517573	<s> A R
-0.87086654	O A R
-1.2568641	N A R
-0.9513074	C A R
-0.6964977	E A R
-1.0714867	T A R
-1.294189	H A R
-1.7218996	R A R
-1.0789754	W A R
-1.6951748	A A R
-1.1661108	S A R
-0.6683637	Y A R
-0.5853004	U A R
-1.0916842	G A R
-1.1155974	M A R
-1.0654831	D A R
-1.2572469	V A R
-0.89669496	L A R
-1.1393741	K A R
-0.5339201	P A R
-1.3735017	I A R
-0.9995527	F A R
-0.7942283	B A R
-0.8580964	J A R
-0.37779483	- A R
-0.7130415	Z A R
-2.8251264	N S R
-2.5567038	E S R
-2.0489824	T S R
-3.230998	H S R
-2.396059	R S R
-2.8607814	W S R
-2.1635644	A S R
-3.1527858	S S R
-3.1098502	Y S R
-1.8378593	U S R
-3.3058379	G S R
-2.764706	M S R
-3.1911132	D S R
-1.8871557	L S R
-2.4683707	K S R
-3.251611	P S R
-1.5934697	I S R
-1.5119029	' S R
-1.5555168	O Y R
-1.6480488	N Y R
-2.3276799	C Y R
-1.9144508	E Y R
-2.7717164	T Y R
-2.8149788	H Y R
-1.7205908	R Y R
-2.737916	A Y R
-2.342876	S Y R
-1.1879604	G Y R
-1.3938426	M Y R
-2.1428695	D Y R
-0.32468587	V Y R
-1.4964341	L Y R
-2.1246514	K Y R
-0.7633155	P Y R
-1.6012934	B Y R
-2.5230865	<s> U R
-0.7636914	O U R
-1.2396494	N U R
-0.39502007	C U R
-0.6532422	E U R
-0.32809615	T U R
-0.5655422	H U R
-1.9527282	R U R
-1.3685663	A U R
-0.6841529	S U R
-2.0463862	Y U R
-1.2473552	G U R
-0.7186719	M U R
-0.75671494	D U R
-2.3862312	L U R
-0.8545671	P U R
-2.7093263	I U R
-0.9829169	F U R
-0.77567714	B U R
-0.030924553	X U R
-0.99290365	J U R
-0.76867926	Z U R
-0.43745804	<s> G R
-0.821063	O G R
-1.7033293	N G R
-1.3770845	C G R
-0.7649865	E G R
-0.63770294	T G R
-0.23954567	H G R
-1.1716653	R G R
-1.7004421	W G R
-1.1788902	A G R
-0.476884	S G R
-0.5201949	Y G R
-3.56733	U G R
-1.4885846	G G R
-2.276548	M G R
-0.59301764	D G R
-1.5130503	L G R
-0.26906237	K G R
-0.3020462	P G R
-1.9281965	I G R
-0.4875226	F G R
-0.30990502	B G R
-0.60075843	X G R
-0.0927424	- G R
-1.196879	<s> M R
-2.965313	O M R
-2.1994412	N M R
-2.0363164	E M R
-1.9535667	T M R
-2.443411	H M R
-1.771983	R M R
-1.0138938	W M R
-2.1289895	A M R
-3.281847	S M R
-2.5244384	Y M R
-2.9173927	U M R
-2.6325846	G M R
-3.13459	M M R
-1.3070768	D M R
-2.870126	L M R
-2.3097825	I M R
-2.325269	F M R
-2.437093	' M R
-2.0787904	<s> D R
-1.4493186	O D R
-1.2904432	N D R
-1.6743288	E D R
-1.2247968	T D R
-0.97146505	H D R
-1.7467982	R D R
-1.3336816	W D R
-1.8616865	A D R
-1.3947146	S D R
-1.0425338	Y D R
-1.6212921	U D R
-1.0377529	G D R
-0.30434722	M D R
-1.2396376	D D R
-1.2398646	L D R
-1.3597665	K D R
-0.5262612	P D R
-3.0030818	I D R
-1.0343558	F D R
-2.104119	' D R
-1.1494577	B D R
-0.52493465	- D R
-3.894221	E V R
-2.4959326	U V R
-2.791416	<s> L R
-3.2337759	O L R
-2.7799406	E L R
-3.596388	R L R
-3.0140922	W L R
-1.2777505	A L R
-3.3521268	Y L R
-3.716184	U L R
-1.7329894	L L R
-2.0437398	I L R
-3.088786	O K R
-1.6196462	N K R
-2.7951362	C K R
-1.4742515	E K R
-2.7151775	R K R
-3.5862508	A K R
-2.6172676	S K R
-2.812989	L K R
-1.0491631	<s> P R
-1.2154802	O P R
-0.8128474	N P R
-0.30416033	C P R
-0.7897489	E P R
-0.5301887	T P R
-0.8454803	H P R
-0.6992334	R P R
-0.7689206	W P R
-1.0635557	A P R
-0.74260485	S P R
-0.80764925	Y P R
-1.5135376	U P R
-1.0479438	G P R
-1.3090427	M P R
-0.61734575	D P R
-0.58937347	L P R
-0.5194348	K P R
-0.79576707	P P R
-2.6457362	I P R
-0.60362005	F P R
-0.6072242	B P R
-1.0213094	X P R
-2.25561	<s> I R
-1.9364281	O I R
-2.1054168	N I R
-1.6092117	C I R
-0.79774594	E I R
-1.7469239	T I R
-1.6833981	H I R
-2.5311449	R I R
-2.3961594	W I R
-0.9187092	A I R
-1.4262472	S I R
-3.134898	Y I R
-1.1859862	U I R
-1.0134003	G I R
-1.3421794	M I R
-1.5003381	D I R
-1.3015237	V I R
-3.710743	L I R
-2.4253652	K I R
-1.0361148	P I R
-0.72039044	F I R
-1.316266	B I R
-2.742343	Z I R
-0.5593161	<s> F R
-1.8059304	O F R
-0.95158273	N F R
-1.1772816	C F R
-1.2922882	E F R
-0.937698	T F R
-0.8647957	H F R
-1.1018059	R F R
-1.763815	W F R
-1.0940742	A F R
-0.667305	S F R
-0.7827537	Y F R
-2.6225164	U F R
-0.62996054	G F R
-1.0424426	M F R
-0.74650186	D F R
-1.9985466	L F R
-0.3085852	K F R
-0.641574	P F R
-2.3054993	I F R
-1.2026416	F F R
-3.6388545	N ' R
-1.3812485	E ' R
-1.5244366	Y ' R
-0.09606062	U ' R
-1.6488563	<s> B R
-1.4475899	O B R
-1.2377872	N B R
-0.46297956	C B R
-1.0681998	E B R
-1.1769285	T B R
-0.47687012	H B R
-0.9519314	R B R
-2.1446686	W B R
-1.3794324	A B R
-0.73985344	S B R
-1.0946177	Y B R
-2.5514252	U B R
-0.96297526	G B R
-2.0374105	M B R
-1.4008756	D B R
-1.1225771	L B R
-0.8168335	K B R
-0.71882343	P B R
-0.95277077	I B R
-1.5944911	F B R
-0.0013601833	' B R
-0.92225933	B B R
-0.6444837	O X R
-3.3312218	E X R
-3.0050578	I X R
-0.82843024	B X R
-2.7907743	Y J R
-2.575073	O Q R
-0.6702266	R - R
-2.0664878	S - R
-2.5562353	G - R
-1.2512546	R Z R
-1.4740881	L Z R
-1.6883804	<s> O W
-2.3095157	O O W
-0.6715214	N O W
-1.8879387	C O W
-2.1439123	E O W
-1.4767165	T O W
-0.8808882	H O W
-0.91786367	R O W
-2.282483	W O W
-1.6671505	S O W
-2.9589133	Y O W
-1.8773551	G O W
-0.8966173	D O W
-3.149724	V O W
-0.7161712	L O W
-3.0704558	K O W
-1.127257	P O W
-2.3208358	I O W
-3.9348516	F O W
-0.7807425	B O W
-1.4779645	O N W
-3.3143764	N N W
-1.643384	E N W
-2.3557744	H N W
-1.4424202	R N W
-1.5269499	W N W
-2.1658971	A N W
-2.200502	U N W
-2.9065504	G N W
-1.970533	I N W
-1.8960164	K C W
-2.8347933	P C W
-2.3159268	I C W
-3.310961	X C W
-3.1076925	<s> E W
-1.7721089	O E W
-1.0042931	N E W
-1.2113096	C E W
-1.8291957	E E W
-1.8467305	T E W
-1.2172247	H E W
-1.2078017	R E W
-1.3533732	W E W
-2.3122487	A E W
-1.7118376	S E W
-3.1244273	Y E W
-1.4428709	U E W
-1.8113545	G E W
-1.4197171	M E W
-2.8098	D E W
-1.7640713	V E W
-1.6647807	L E W
-1.860966	K E W
-1.7892472	P E W
-1.5223383	I E W
-1.0803217	F E W
-2.1100125	B E W
-1.4575802	J E W
-2.6736186	Z E W
-1.7581825	<s> T W
-1.6851254	O T W
-1.7233984	N T W
-1.8782037	C T W
-1.295752	E T W
-1.8334312	T T W
-1.5283707	H T W
-1.5117376	R T W
-2.6554043	W T W
-1.4622438	A T W
-1.7923172	S T W
-1.4450665	Y T W
-1.2633799	U T W
-2.916399	G T W
-2.5231204	M T W
-1.9128149	D T W
-1.8613586	L T W
-2.719312	K T W
-2.8344352	P T W
-0.93528676	I T W
-1.6742327	F T W
-1.1414204	' T W
-2.4873528	B T W
-1.5143534	X T W
-0.38700545	Q T W
-0.5008786	Z T W
-3.3802102	O H W
-1.6521297	C H W
-2.4604626	T H W
-1.1574347	A H W
-2.1780722	S H W
-3.122512	Y H W
-2.2557127	G H W
-3.7258294	P H W
-1.743332	O R W
-1.5241542	E R W
-2.262116	A R W
-1.8376848	U R W
-2.2742865	M R W
-3.5569365	D R W
-1.4347403	I R W
-4.0019383	<s> W W
-1.3497987	O W W
-2.098692	E W W
-3.285586	W W W
-1.7415257	A W W
-3.1580596	K W W
-2.1658928	<s> A W
-1.6380324	O A W
-1.7125471	N A W
-2.9707222	C A W
-1.8787714	E A W
-1.703015	T A W
-1.8505757	H A W
-1.5015587	R A W
-2.6603162	W A W
-2.8056722	A A W
-1.0355473	S A W
-1.8848468	Y A W
-3.2859719	U A W
-2.1590025	G A W
-2.6206405	M A W
-1.4617325	D A W
-1.351983	L A W
-1.9552332	K A W
-1.6512516	P A W
-1.8286355	I A W
-2.0607002	F A W
-3.2311702	B A W
-1.1652066	J A W
-1.9516287	<s> S W
-2.1110013	O S W
-0.9700296	N S W
-1.4941446	E S W
-1.2775782	T S W
-1.5268192	H S W
-1.5595543	R S W
-1.9952598	W S W
-1.6163647	A S W
-1.6378677	S S W
-1.135236	Y S W
-1.7652429	U S W
-1.3241894	G S W
-1.6165904	M S W
-1.3887576	D S W
-1.5156447	L S W
-1.413871	K S W
-1.1090915	P S W
-1.5094504	I S W
-2.306136	F S W
-1.1112553	' S W
-1.9856404	X S W
-3.7193663	<s> Y W
-1.8835919	O Y W
-1.507504	N Y W
-1.681186	C Y W
-0.9288563	E Y W
-2.067192	T Y W
-1.2395071	H Y W
-1.4100738	R Y W
-1.4539993	A Y W
-2.412232	S Y W
-2.3922555	U Y W
-1.7795895	G Y W
-1.5963936	M Y W
-2.1946337	D Y W
-0.4478848	V Y W
-1.3700129	L Y W
-2.5075338	K Y W
-2.086304	P Y W
-2.9006317	F Y W
-1.3337142	B Y W
-1.5302062	Z Y W
-1.5195321	O U W
-3.2202656	<s> G W
-3.0833426	O G W
-1.410867	N G W
-2.106949	E G W
-3.3729124	R G W
-3.2608278	I G W
-2.5840373	O M W
-2.0472279	E M W
-3.2597084	H M W
-2.5145955	R M W
-2.104779	A M W
-2.583023	S M W
-3.1209903	U M W
-2.397311	P M W
-1.9082595	I M W
-2.5094583	' M W
-3.4013844	<s> D W
-1.3886185	O D W
-1.408274	N D W
-1.3774712	E D W
-1.6039281	T D W
-2.9710813	H D W
-1.3972918	R D W
-2.79084	W D W
-1.8064071	A D W
-3.4994047	S D W
-2.7030005	Y D W
-2.9226193	U D W
-3.0497055	G D W
-1.614849	L D W
-1.6165357	I D W
-2.6188526	F D W
-2.7383654	<s> V W
-2.4980795	U V W
-3.5927334	O L W
-2.1975496	E L W
-3.6852558	R L W
-1.4994507	A L W
-2.9451044	U L W
-1.7103462	L L W
-1.889227	I L W
-2.5479703	<s> K W
-1.8314604	O K W
-2.1573486	N K W
-1.1527957	C K W
-2.3106172	E K W
-1.2388612	R K W
-1.2363251	W K W
-2.9863043	A K W
-1.3922681	S K W
-0.9999869	L K W
-0.38023794	Z K W
-2.8915248	O P W
-1.9390988	E P W
-3.2877424	A P W
-1.9630767	U P W
-3.2151291	M P W
-3.193075	L P W
-1.5451704	I P W
-1.1107314	<s> I W
-1.7052683	O I W
-2.037888	N I W
-2.7136087	E I W
-2.8935022	T I W
-3.7003279	H I W
-3.6466115	W I W
-2.3949316	A I W
-2.4208724	S I W
-1.4919615	Y I W
-3.5032108	U I W
-2.7264864	G I W
-3.347328	M I W
-2.6681044	D I W
-3.251611	L I W
-2.4328973	K I W
-2.1652358	F I W
-1.7111094	O F W
-3.3798437	E F W
-3.755678	R F W
-3.690465	A F W
-3.0842147	M F W
-1.1170559	L F W
-2.4412436	I F W
-2.1309705	F F W
-3.5045512	O B W
-2.5947094	C B W
-4.00537	A B W
-1.2481611	U B W
-3.0811422	B B W
-1.8733339	O X W
-0.65206903	H X W
-2.411411	A X W
-0.99108714	S X W
-1.782674	U X W
-2.4221117	I X W
-2.4298375	G J W
-2.4365983	I Q W
-1.9475037	D Z W
-3.3490565	I Z W
-2.8811035	<s> O A
-3.2584348	O O A
-1.8351642	N O A
-1.5464636	C O A
-3.163009	E O A
-1.5554234	T O A
-2.1016507	H O A
-1.5219454	R O A
-2.5213723	W O A
-1.5975289	S O A
-2.428692	Y O A
-0.9721834	U O A
-1.5169052	G O A
-1.8364166	D O A
-3.388266	V O A
-2.13243	L O A
-3.5870695	P O A
-3.3571763	I O A
-3.1033738	F O A
-1.238723	B O A
-0.98727936	J O A
-2.3420587	Z O A
-2.1938505	<s> N A
-1.2842826	O N A
-1.7196112	N N A
-0.6987293	C N A
-1.2060595	E N A
-1.1933063	T N A
-1.779243	H N A
-1.4229461	R N A
-0.940231	W N A
-1.3891935	A N A
-1.0955924	S N A
-1.0517879	Y N A
-1.8343276	U N A
-1.4463263	G N A
-0.6843986	M N A
-1.5223979	D N A
-0.87092674	L N A
-3.3456159	K N A
-2.358536	P N A
-1.3275348	I N A
-0.51510304	F N A
-1.0172274	X N A
-0.5612012	<s> C A
-0.87512904	O C A
-1.2568189	N C A
-1.236146	C C A
-0.6547517	E C A
-0.65420055	T C A
-0.639284	H C A
-0.81732327	R C A
-0.45461792	W C A
-1.2203213	A C A
-0.7205535	S C A
-0.81305885	Y C A
-1.0847136	U C A
-0.8598299	G C A
-0.99640435	M C A
-0.9956918	D C A
-0.61163753	L C A
-0.55448055	K C A
-0.78673464	P C A
-0.6825765	I C A
-0.8357513	F C A
-1.2109671	' C A
-0.22821277	B C A
-2.7195625	X C A
-0.5144919	- C A
-0.27533102	Z C A
-0.7412429	<s> E A
-0.8215112	O E A
-1.2414404	N E A
-1.2467321	C E A
-1.593551	E E A
-1.2817503	T E A
-1.2950903	H E A
-0.85880333	R E A
-1.1668756	W E A
-1.4379624	A E A
-1.1583328	S E A
-0.6965234	Y E A
-1.3907868	U E A
-1.2867457	G E A
-1.0313945	M E A
-0.84513754	D E A
-1.3481454	V E A
-0.9475725	L E A
-0.98055184	K E A
-0.99111307	P E A
-2.100679	I E A
-1.0752474	F E A
-0.98697484	B E A
-2.392144	X E A
-0.22428724	J E A
-0.55400884	- E A
-1.8576447	Z E A
-2.1571639	<s> T A
-1.0632308	O T A
-1.2194338	N T A
-1.1597832	C T A
-1.3574288	E T A
-1.6886543	T T A
-1.2762631	H T A
-1.1534836	R T A
-3.0006618	W T A
-1.3703059	A T A
-0.9121021	S T A
-1.7796292	Y T A
-1.2614331	U T A
-2.8164487	G T A
-1.5713775	M T A
-1.7388617	D T A
-1.0911816	L T A
-2.7259688	K T A
-0.6131464	P T A
-1.3652437	I T A
-2.0626395	F T A
-1.2532406	' T A
-0.8393054	B T A
-2.3561392	X T A
-1.2141138	<s> H A
-0.7668196	O H A
-0.8353057	N H A
-0.63396716	C H A
-0.38010684	E H A
-0.951857	T H A
-0.61928296	H H A
-0.6370946	R H A
-0.63679796	W H A
-0.5278546	A H A
-0.7533885	S H A
-0.34892774	Y H A
-0.016302163	U H A
-1.3252112	G H A
-0.3961421	M H A
-0.82602763	D H A
-0.42276773	L H A
-0.7138033	K H A
-1.2613292	P H A
-0.05738956	I H A
-1.0325541	F H A
-0.0061620465	' H A
-0.27860138	B H A
-0.13174818	X H A
-1.7094061	- H A
-1.9985412	Z H A
-0.11489869	& H A
-0.8838513	<s> R A
-1.1516997	O R A
-0.562552	N R A
-0.76802146	C R A
-1.0712216	E R A
-0.5787517	T R A
-1.4233541	H R A
-1.1011441	R R A
-1.6736692	W R A
-1.2703928	A R A
-0.86833775	S R A
-0.62464285	Y R A
-1.3859384	U R A
-0.7358705	G R A
-1.0800347	M R A
-0.8153196	D R A
-2.617688	L R A
-1.4178076	K R A
-1.4499536	P R A
-0.95861244	I R A
-1.0355388	F R A
-0.88214123	B R A
-2.12934	X R A
-1.2615609	<s> W A
-1.013302	O W A
-0.7046948	N W A
-1.1576145	C W A
-0.39042866	E W A
-0.3906049	T W A
-0.38579196	H W A
-0.39586926	R W A
-0.4358067	W W A
-0.46338263	A W A
-0.7809052	S W A
-0.69166464	Y W A
-0.746213	U W A
-0.4708355	G W A
-1.050735	M W A
-0.7396114	D W A
-0.58251286	V W A
-0.26954904	L W A
-0.59790456	K W A
-0.4066379	P W A
-0.17881137	I W A
-0.6205683	F W A
-0.31343704	B W A
-0.9909471	X W A
-0.58251286	Z W A
-3.9552321	<s> A A
-1.997813	N A A
-3.038683	C A A
-3.3332837	E A A
-2.5650864	T A A
-3.5971022	H A A
-2.9737768	R A A
-4.1493163	W A A
-2.6096025	S A A
-3.5520692	Y A A
-3.6812677	G A A
-2.6456559	M A A
-2.3941693	D A A
-4.0651207	L A A
-2.0976892	K A A
-3.312535	P A A
-1.7718422	I A A
-3.4158638	B A A
-2.425531	Z A A
-1.1821622	<s> S A
-1.3454652	O S A
-1.0068547	N S A
-1.4270418	C S A
-0.9488687	E S A
-0.95239544	T S A
-1.211521	H S A
-1.0023903	R S A
-1.3111262	W S A
-0.95231014	A S A
-1.0068153	S S A
-1.0097047	Y S A
-1.0875428	U S A
-1.4907136	G S A
-1.8081819	M S A
-0.857628	D S A
-1.1650175	L S A
-1.035095	K S A
-1.1425536	P S A
-1.003476	I S A
-0.95486796	F S A
-0.91965455	' S A
-1.1217746	B S A
-1.6270816	X S A
-0.22432798	& S A
-3.374949	<s> Y A
-0.9640229	O Y A
-1.1819509	N Y A
-1.8893598	C Y A
-0.91630316	E Y A
-1.2614274	T Y A
-1.3337433	H Y A
-1.1196922	R Y A
-2.9885764	W Y A
-1.0078473	A Y A
-2.0206273	S Y A
-1.0192455	Y Y A
-1.4969766	U Y A
-0.9989674	G Y A
-1.2172087	M Y A
-1.165315	D Y A
-1.8027546	V Y A
-0.9243589	L Y A
-0.935351	K Y A
-1.6945595	P Y A
-1.1223779	F Y A
-0.9267943	B Y A
-0.65400314	Z Y A
-1.5219574	O U A
-1.2849642	N U A
-1.0086699	T U A
-1.8470712	H U A
-2.7676191	R U A
-3.6223114	A U A
-1.3799093	S U A
-1.2842925	G U A
-1.1197996	D U A
-2.1878579	L U A
-2.880773	J U A
-0.61544067	Q U A
-0.8126419	Z U A
-0.8244533	<s> G A
-1.6677805	O G A
-0.9788512	N G A
-0.7301279	C G A
-0.70234406	E G A
-1.9068147	T G A
-1.0995824	H G A
-0.91064095	R G A
-1.8640559	W G A
-0.68344724	A G A
-0.89066815	S G A
-1.4886712	Y G A
-1.2392818	U G A
-0.84251356	G G A
-1.0668122	M G A
-2.0026278	D G A
-0.92017984	L G A
-1.3105813	I G A
-1.720175	F G A
-0.44655102	<s> M A
-1.069819	O M A
-0.92126644	N M A
-0.8864315	C M A
-0.7230036	E M A
-0.60079443	T M A
-0.7649403	H M A
-0.6033584	R M A
-0.9931872	W M A
-1.044527	A M A
-0.55112815	S M A
-0.5558708	Y M A
-1.042334	U M A
-0.6564599	G M A
-0.46269292	M M A
-0.41221517	D M A
-0.9033283	L M A
-0.20677446	K M A
-0.61768615	P M A
-0.8781185	I M A
-0.5257493	F M A
-0.75285375	' M A
-0.7118425	- M A
-0.79164827	<s> D A
-1.0131192	O D A
-1.0270387	N D A
-1.7358037	C D A
-0.8960963	E D A
-0.8526777	T D A
-0.3351929	H D A
-0.8959795	R D A
-0.8486323	W D A
-1.2606602	A D A
-0.58504635	S D A
-1.0154815	Y D A
-1.3026386	U D A
-0.8984797	G D A
-1.4637288	M D A
-1.2528344	D D A
-1.1122665	L D A
-1.6982231	K D A
-1.3001645	P D A
-1.3992096	I D A
-0.65875596	F D A
-1.9562353	' D A
-2.4990258	- D A
-1.3557293	<s> V A
-2.4190805	O V A
-0.56509286	N V A
-1.5356711	C V A
-1.1465161	E V A
-0.623795	T V A
-1.9888018	H V A
-0.6305969	R V A
-0.500032	W V A
-1.3347509	A V A
-1.692481	S V A
-0.9221179	Y V A
-0.43134326	U V A
-0.38838637	G V A
-1.8707101	M V A
-0.42812914	D V A
-1.1013516	L V A
-1.8872885	P V A
-1.4630551	I V A
-0.681426	F V A
-0.86606634	X V A
-0.8153218	<s> L A
-1.274752	O L A
-1.2190741	N L A
-0.65752745	C L A
-1.020533	E L A
-1.0818794	T L A
-1.555358	H L A
-1.0783225	R L A
-2.00831	W L A
-1.3094071	A L A
-0.82750803	S L A
-0.79603547	Y L A
-0.92007494	U L A
-0.69152325	G L A
-0.74363655	M L A
-0.90289044	D L A
-1.1713431	L L A
-0.8951473	K L A
-0.49890333	P L A
-1.4386859	I L A
-0.5894077	F L A
-0.91867	B L A
-2.5676756	- L A
-1.7172713	<s> K A
-0.9703945	O K A
-1.6226174	N K A
-1.1378704	C K A
-2.0235004	E K A
-1.9183218	T K A
-0.81224686	H K A
-1.2912858	R K A
-1.4260938	A K A
-1.7694575	S K A
-1.1373569	Y K A
-2.8657315	D K A
-1.3328018	L K A
-3.685856	I K A
-1.2758142	F K A
-1.6990976	<s> P A
-1.1902809	O P A
-0.9790067	N P A
-1.6260567	C P A
-0.8303679	E P A
-0.7910447	T P A
-0.5958003	H P A
-0.9565361	R P A
-0.81585306	W P A
-1.2434334	A P A
-0.71943617	S P A
-1.0024983	Y P A
-1.0477197	U P A
-0.4507819	G P A
-0.68476635	M P A
-0.71494466	D P A
-1.124463	L P A
-1.8502468	K P A
-1.6275437	P P A
-1.279849	I P A
-1.4080954	F P A
-2.0243266	X P A
-1.4305525	<s> I A
-1.9241138	O I A
-1.5074694	N I A
-0.8321233	C I A
-2.7903392	E I A
-1.8489748	T I A
-3.3096366	H I A
-1.5150126	R I A
-3.6165502	W I A
-3.3565016	A I A
-1.4930283	S I A
-1.736347	Y I A
-1.7257758	U I A
-1.5334058	G I A
-2.011843	M I A
-1.2277514	D I A
-1.7978784	V I A
-1.5488946	L I A
-3.2472541	K I A
-1.4959676	P I A
-0.37503237	I I A
-2.785344	F I A
-1.6148517	B I A
-2.5157008	X I A
-1.1143528	<s> F A
-1.066755	O F A
-1.3244148	N F A
-1.9154333	C F A
-1.0675367	E F A
-1.0365642	T F A
-0.9288162	H F A
-0.546124	R F A
-0.39861143	W F A
-1.1827807	A F A
-0.6685512	S F A
-0.98156375	Y F A
-2.043085	U F A
-1.1686685	G F A
-2.051324	M F A
-1.1194328	D F A
-0.7804258	L F A
-1.1557763	K F A
-2.2454648	P F A
-2.1264455	I F A
-1.0371935	F F A
-2.1757662	X F A
-0.31377965	- F A
-3.1768582	N ' A
-1.7934575	A ' A
-1.6528354	<s> B A
-1.1640543	O B A
-1.6950175	N B A
-1.8881636	C B A
-0.9693903	E B A
-1.1811092	T B A
-0.895303	H B A
-0.7804737	R B A
-0.28635272	W B A
-1.3975664	A B A
-1.0667112	S B A
-0.81071746	Y B A
-1.2371604	U B A
-0.622441	G B A
-1.7494763	M B A
-0.9520299	D B A
-1.150683	L B A
-1.8010843	K B A
-1.5088478	P B A
-1.1409144	I B A
-1.5006206	F B A
-2.1576428	B B A
-0.6024996	J B A
-0.47478837	- B A
-0.11547703	& B A
-1.8721385	O X A
-1.2859251	E X A
-0.8012588	W X A
-1.9682704	A X A
-2.3798535	U X A
-1.7170694	I X A
-0.7218701	<s> J A
-1.8419739	O J A
-1.6046342	N J A
-1.2103184	E J A
-0.5042293	T J A
-2.2657113	H J A
-2.2349312	R J A
-0.37930393	A J A
-0.8808384	S J A
-1.3169128	Y J A
-1.4246197	G J A
-1.6248026	M J A
-0.66102415	D J A
-0.47806978	I J A
-0.7029994	F J A
-2.4256065	A Q A
-3.0319555	E - A
-2.4323494	O Z A
-0.4211496	N Z A
-0.90257645	C Z A
-1.7035258	E Z A
-1.4759958	H Z A
-1.9989818	W Z A
-1.159303	A Z A
-0.7355102	G Z A
-0.6129248	I Z A
-0.6036343	J Z A
-3.3759491	<s> O S
-1.3333155	O O S
-1.9930551	N O S
-2.184801	C O S
-3.5823212	E O S
-1.2294776	T O S
-1.2604835	H O S
-1.4049101	R O S
-2.2194862	W O S
-2.868182	A O S
-1.6471397	S O S
-2.9342043	Y O S
-2.7658148	U O S
-2.0665283	G O S
-0.941321	M O S
-2.1286163	D O S
-3.364131	V O S
-1.0947177	L O S
-0.6033476	P O S
-2.2497315	I O S
-3.3736851	F O S
-1.796973	B O S
-1.2851855	J O S
-2.3259332	Z O S
-1.0736282	O N S
-2.958135	N N S
-1.3297017	E N S
-3.2528167	T N S
-2.137837	H N S
-1.287847	R N S
-1.4919068	W N S
-1.5242401	A N S
-1.6473085	U N S
-1.8873426	G N S
-1.8127576	M N S
-2.848155	L N S
-1.4095701	I N S
-1.5880799	X N S
-0.8027048	Q N S
-2.1521783	E C S
-2.616972	T C S
-4.174479	A C S
-3.978666	S C S
-3.8555665	U C S
-3.1048243	G C S
-2.7204378	P C S
-1.6539471	I C S
-1.3172355	<s> E S
-0.65223515	O E S
-0.8938992	N E S
-0.8698758	C E S
-1.6918687	E E S
-1.3576185	T E S
-1.0308201	H E S
-0.9814211	R E S
-1.4678785	W E S
-2.2888758	A E S
-1.310449	S E S
-0.62237483	Y E S
-0.53936976	U E S
-1.1257007	G E S
-1.2570839	M E S
-1.1701211	D E S
-1.0219234	V E S
-0.92218316	L E S
-1.0557587	K E S
-1.915551	P E S
-0.8022413	I E S
-1.2923307	F E S
-1.1770355	B E S
-1.4004465	X E S
-1.3774897	J E S
-1.1813712	- E S
-1.2764325	Z E S
-1.5994388	O T S
-1.230033	N T S
-1.3057802	C T S
-1.795476	E T S
-2.3084197	T T S
-1.3601764	H T S
-1.5281427	R T S
-1.3725222	A T S
-1.4936512	S T S
-1.2197286	U T S
-2.1285048	G T S
-1.8634931	L T S
-2.2423162	P T S
-1.1842034	I T S
-2.8532314	F T S
-0.922021	' T S
-0.88166994	B T S
-1.9770225	X T S
-0.8263532	Q T S
-2.0250516	O H S
-1.6065655	C H S
-2.0994868	T H S
-2.5576472	A H S
-2.096388	S H S
-3.3154879	Y H S
-2.1313097	G H S
-3.1525276	M H S
-2.5496497	P H S
-1.2633449	O R S
-1.0311463	E R S
-4.2120543	T R S
-3.725706	H R S
-1.2969334	A R S
-0.7978597	U R S
-0.46779674	M R S
-2.994996	D R S
-3.440932	L R S
-0.80336344	I R S
-0.38278466	Q R S
-4.024366	<s> W S
-1.2170026	O W S
-1.4668212	E W S
-1.6519675	A W S
-3.4017954	Y W S
-1.1475729	<s> A S
-1.310856	O A S
-1.3209186	N A S
-1.0203964	C A S
-1.037155	E A S
-1.23152	T A S
-1.2467623	H A S
-1.2837149	R A S
-0.22424829	W A S
-1.3263224	A A S
-1.3470297	S A S
-1.2060817	Y A S
-2.2231336	U A S
-1.3963325	G A S
-1.3368392	M A S
-1.0425464	D A S
-1.3161933	V A S
-0.9300506	L A S
-0.8360127	K A S
-0.73508286	P A S
-1.51688	I A S
-1.1068553	F A S
-1.4101391	B A S
-1.8243959	X A S
-1.3465619	J A S
-1.0538043	O S S
-2.1487885	N S S
-0.8252468	C S S
-0.88310754	E S S
-1.8328418	T S S
-2.180865	R S S
-1.4954476	W S S
-0.92193645	A S S
-1.957818	S S S
-1.8657336	Y S S
-1.4794161	U S S
-1.6904259	G S S
-2.3247607	M S S
-1.48935	D S S
-1.8004034	L S S
-1.5301615	K S S
-1.1798394	P S S
-1.1776088	I S S
-0.9611426	' S S
-1.2736989	B S S
-0.85812294	O Y S
-1.4407763	N Y S
-1.4320817	E Y S
-1.5552564	T Y S
-0.67272407	H Y S
-1.3235718	R Y S
-3.0209963	W Y S
-0.7793511	A Y S
-1.1586891	S Y S
-1.1345978	U Y S
-2.3495612	G Y S
-0.73655796	M Y S
-1.2162801	D Y S
-1.9828032	V Y S
-1.1891013	L Y S
-2.218478	K Y S
-1.7017272	P Y S
-2.910444	F Y S
-1.4279208	B Y S
-1.3445355	X Y S
-1.3573697	<s> U S
-0.9739387	O U S
-0.8884707	N U S
-1.097252	C U S
-0.87475103	E U S
-1.2910248	T U S
-0.8853526	H U S
-0.5503844	R U S
-0.8536939	W U S
-0.5836492	A U S
-1.5107065	S U S
-1.0167367	Y U S
-0.3443827	U U S
-0.84798545	G U S
-0.53773147	M U S
-1.2808812	D U S
-0.7783644	L U S
-1.3690478	K U S
-1.3641288	P U S
-0.3574908	I U S
-1.0078704	F U S
-1.028504	B U S
-2.3587506	X U S
-0.22515815	J U S
-3.639007	Q U S
-1.4083289	O G S
-1.1493369	N G S
-0.86466086	E G S
-1.9098988	R G S
-1.8320051	A G S
-3.5831497	U G S
-0.9556938	G G S
-3.014231	I G S
-1.9378334	O M S
-1.4798564	E M S
-1.3442483	H M S
-1.4260312	R M S
-1.318094	A M S
-2.9261858	S M S
-1.9245137	U M S
-3.189039	G M S
-3.1960194	M M S
-2.6647546	L M S
-0.8631047	I M S
-1.0040623	' M S
-3.4566317	<s> D S
-1.0255537	O D S
-0.9738779	N D S
-1.5810584	E D S
-0.7660099	R D S
-1.8374788	W D S
-1.2476292	A D S
-1.8787438	U D S
-3.3959146	D D S
-1.7409564	L D S
-1.8032162	I D S
-0.19659618	' D S
-3.863872	E V S
-2.702757	G V S
-3.4485831	D V S
-2.7018127	F V S
-2.4308395	O L S
-1.5428339	E L S
-1.2620504	R L S
-0.9776761	W L S
-1.0727028	A L S
-1.6871964	U L S
-3.5483794	G L S
-1.1900024	L L S
-1.8076185	I L S
-1.2261442	O K S
-0.8718554	N K S
-0.8928102	C K S
-0.7788327	E K S
-3.0612953	T K S
-1.0585469	R K S
-1.6775453	A K S
-1.5183204	S K S
-1.1074798	L K S
-0.6593829	Q K S
-1.1564615	O P S
-2.0006044	E P S
-2.9102166	H P S
-3.2047553	R P S
-1.4847003	A P S
-3.625006	S P S
-3.4468715	Y P S
-1.8766857	U P S
-1.5466261	M P S
-3.4216607	D P S
-2.1849258	L P S
-0.7090069	I P S
-1.1862391	F P S
-1.2089067	<s> I S
-0.88576996	O I S
-0.9702083	N I S
-1.2220956	C I S
-0.7266003	E I S
-0.99702406	T I S
-0.3949944	H I S
-1.1534126	R I S
-1.3492396	W I S
-1.7365785	A I S
-0.93909466	S I S
-1.1879596	Y I S
-0.75250936	U I S
-1.2352201	G I S
-0.8591076	M I S
-0.8799216	D I S
-0.8580126	V I S
-1.2654153	L I S
-1.5635407	K I S
-1.8727479	P I S
-2.1167865	I I S
-1.3799678	F I S
-1.9943521	B I S
-0.23392685	X I S
-1.3124634	O F S
-2.2595353	E F S
-3.7083914	R F S
-2.68313	W F S
-3.364446	A F S
-1.7385616	L F S
-2.7443247	K F S
-1.6178867	I F S
-1.4593282	F F S
-1.1068462	Q F S
-0.8276374	O ' S
-0.7696684	N ' S
-0.004050649	C ' S
-0.09671322	E ' S
-0.015216329	T ' S
-0.018796105	H ' S
-0.000546434	R ' S
-0.044223193	W ' S
-0.01407285	A ' S
-0.895561	S ' S
-0.047937877	Y ' S
-0.018796105	G ' S
-0.038442697	M ' S
-0.0016660284	D ' S
-0.06325547	V ' S
-0.0014380919	L ' S
-0.47665474	K ' S
-0.0023609938	P ' S
-2.9469228	I ' S
-0.080621615	F ' S
-0.22359692	B ' S
-3.762207	<s> B S
-1.1693835	O B S
-3.5410974	E B S
-1.5867898	R B S
-2.9491153	W B S
-1.2865343	A B S
-1.2467661	U B S
-1.5707637	M B S
-2.6510675	P B S
-3.0579388	I B S
-2.9144468	B B S
-2.3830502	O X S
-3.0687602	E X S
-2.3673835	A X S
-2.300419	U X S
-0.36753374	M X S
-0.36753374	V X S
-1.3154093	I X S
-0.63207424	X X S
-2.9959397	<s> J S
-2.8362734	A J S
-2.9462526	S J S
-2.136897	M J S
-1.4505202	W Q S
-0.28423032	O - S
-0.19876988	N - S
-0.98400533	E - S
-0.5055132	H - S
-0.67567104	R - S
-2.1203153	W Z S
-0.66612285	K Z S
-0.38571846	B Z S
-2.449322	Z Z S
-0.19031927	Q & S
-0.12350517	3 1 S
-3.6648118	O O Y
-2.1628783	N O Y
-2.1745853	C O Y
-2.040183	T O Y
-3.223569	H O Y
-1.7018527	R O Y
-2.2912495	W O Y
-2.3744214	S O Y
-2.1085496	Y O Y
-3.548231	G O Y
-4.0556817	M O Y
-1.3776083	D O Y
-0.8961419	V O Y
-1.7757212	L O Y
-0.8426382	B O Y
-0.40438834	J O Y
-2.211721	O N Y
-1.4905283	N N Y
-2.0933132	E N Y
-2.8387656	R N Y
-1.3703188	W N Y
-1.3648273	A N Y
-3.82261	S N Y
-2.6996326	M N Y
-0.6669419	V N Y
-2.5579982	L N Y
-2.1688876	I N Y
-2.2143939	<s> C Y
-2.0218282	N C Y
-3.4489734	E C Y
-1.8525577	T C Y
-1.7667341	R C Y
-2.201062	A C Y
-3.0759523	S C Y
-2.133897	G C Y
-3.044645	I C Y
-2.9801264	F C Y
-3.2414067	O E Y
-1.7982485	N E Y
-1.8777255	C E Y
-2.076762	E E Y
-2.4490924	T E Y
-1.2365828	H E Y
-1.9288241	R E Y
-2.4079096	W E Y
-1.5926193	S E Y
-1.6828694	Y E Y
-1.8724713	U E Y
-1.679261	G E Y
-2.3340273	M E Y
-2.1983795	D E Y
-1.8462359	V E Y
-1.9576459	L E Y
-1.3489656	K E Y
-2.1551006	P E Y
-3.5474315	F E Y
-1.221133	B E Y
-0.37526023	- E Y
-2.547807	Z E Y
-2.5115728	<s> T Y
-2.069453	O T Y
-1.6147028	N T Y
-2.7526217	C T Y
-1.7914627	E T Y
-2.001205	T T Y
-1.6675261	H T Y
-1.2166768	R T Y
-3.312184	W T Y
-1.958512	A T Y
-2.45279	S T Y
-3.8767471	Y T Y
-1.7338363	U T Y
-1.9723153	G T Y
-3.770568	D T Y
-1.4236985	L T Y
-1.4228712	K T Y
-2.3642282	P T Y
-1.3676014	I T Y
-1.4850962	F T Y
-1.0096416	' T Y
-1.0606581	B T Y
-0.93524396	X T Y
-4.0730944	<s> H Y
-3.4500103	O H Y
-2.9414244	N H Y
-1.527262	C H Y
-1.7075999	E H Y
-2.2924235	T H Y
-1.4603618	R H Y
-1.1893938	W H Y
-2.8109512	A H Y
-2.1319437	S H Y
-2.815861	Y H Y
-2.2877915	G H Y
-2.7492187	M H Y
-2.0950053	D H Y
-0.9758382	P H Y
-1.4612458	F H Y
-2.1540458	X H Y
-1.532576	O R Y
-1.8929086	N R Y
-1.1445718	C R Y
-1.3230646	E R Y
-1.234244	T R Y
-3.3509927	H R Y
-0.8526021	R R Y
-2.994592	W R Y
-1.7004273	A R Y
-1.7074603	U R Y
-1.7309437	G R Y
-1.1223873	M R Y
-1.8502375	D R Y
-1.3691051	L R Y
-2.0430102	I R Y
-3.9170249	F R Y
-3.0992756	B R Y
-4.0003805	<s> W Y
-1.6081743	O W Y
-3.8194556	N W Y
-1.8703129	E W Y
-1.6170869	A W Y
-3.373141	G W Y
-3.7330697	<s> A Y
-2.5545142	N A Y
-3.5721002	C A Y
-3.8185313	E A Y
-2.1917484	T A Y
-3.4510193	H A Y
-1.6249101	R A Y
-0.9691547	W A Y
-1.3384967	S A Y
-2.7354848	G A Y
-1.1534626	M A Y
-0.78119457	D A Y
-1.4050754	L A Y
-1.6121856	K A Y
-1.730575	P A Y
-3.165066	F A Y
-2.184356	B A Y
-1.0439051	J A Y
-3.30597	<s> S Y
-3.4384563	O S Y
-2.1721368	N S Y
-1.8045701	C S Y
-2.2403195	E S Y
-2.64092	T S Y
-3.1765997	H S Y
-2.8563552	R S Y
-2.7058809	W S Y
-1.9410324	A S Y
-2.8072193	S S Y
-3.0143082	Y S Y
-1.9240465	U S Y
-2.5585334	G S Y
-2.9309027	M S Y
-3.0525093	D S Y
-2.6169708	L S Y
-2.9684145	K S Y
-1.247255	P S Y
-2.4654298	I S Y
-2.5764954	F S Y
-2.8074481	' S Y
-1.924646	O Y Y
-2.5575328	N Y Y
-4.0224752	E Y Y
-1.8274748	T Y Y
-1.6435857	H Y Y
-2.0356543	R Y Y
-2.0433934	A Y Y
-2.8689575	S Y Y
-2.803403	M Y Y
-3.274433	D Y Y
-2.6444435	L Y Y
-2.253176	F Y Y
-1.4502499	B Y Y
-2.6124423	O U Y
-3.636742	E U Y
-1.9034748	G U Y
-1.8509231	B U Y
-3.865656	Q U Y
-1.3770533	O G Y
-2.0958648	N G Y
-2.8805254	E G Y
-1.4231381	R G Y
-1.608889	S G Y
-0.7825819	G G Y
-3.5997512	D G Y
-3.1195223	L G Y
-0.7838837	<s> M Y
-1.7189282	O M Y
-0.47809935	N M Y
-1.4019265	E M Y
-0.7139821	T M Y
-0.84367573	H M Y
-1.4247346	R M Y
-2.0059495	W M Y
-2.5767684	A M Y
-1.062604	S M Y
-1.3549862	Y M Y
-1.7159626	U M Y
-0.65092844	G M Y
-1.0873691	M M Y
-1.3842301	D M Y
-0.82712334	L M Y
-1.6800637	K M Y
-1.3482647	P M Y
-3.377592	I M Y
-0.7541053	F M Y
-3.4145515	<s> D Y
-1.1710334	O D Y
-1.814931	N D Y
-2.1397264	E D Y
-3.1960404	T D Y
-2.7008057	R D Y
-2.5397406	W D Y
-1.0312984	A D Y
-3.0428667	Y D Y
-1.9349496	U D Y
-2.592726	M D Y
-1.7189736	D D Y
-1.7038531	L D Y
-2.1059332	I D Y
-2.941049	F D Y
-2.4018178	C V Y
-4.2171197	E V Y
-1.6818868	A V Y
-3.4920435	I V Y
-2.938643	<s> L Y
-2.1269555	O L Y
-0.223987	N L Y
-2.7930791	C L Y
-1.1475275	E L Y
-0.50718427	T L Y
-0.5379996	H L Y
-0.696726	R L Y
-1.1262462	W L Y
-2.8945441	A L Y
-0.9187432	S L Y
-3.1459312	Y L Y
-1.9464617	U L Y
-1.0335939	G L Y
-0.25990698	M L Y
-0.5741659	D L Y
-0.9461809	L L Y
-0.43895897	K L Y
-1.0823029	P L Y
-1.2611661	I L Y
-1.3825651	F L Y
-1.0311711	B L Y
-0.3571946	J L Y
-1.342944	Z L Y
-2.8946257	O K Y
-1.1429431	N K Y
-1.3959162	C K Y
-2.5349472	E K Y
-3.338888	R K Y
-3.3103893	A K Y
-0.89317894	S K Y
-2.9635353	D K Y
-2.7968175	L K Y
-1.9061563	O P Y
-2.6675932	E P Y
-3.264794	A P Y
-3.9506564	S P Y
-2.7010212	U P Y
-3.0844898	M P Y
-2.0843017	D P Y
-1.5998465	L P Y
-1.4153236	P P Y
-2.875764	I P Y
-4.335852	F I Y
-3.4790604	<s> F Y
-2.06293	O F Y
-2.2679868	E F Y
-3.6839092	T F Y
-3.0554318	A F Y
-2.9592273	S F Y
-1.2155434	I F Y
-1.8193223	F F Y
-1.131756	<s> B Y
-2.385495	O B Y
-0.991331	N B Y
-1.7507049	C B Y
-1.3376234	E B Y
-0.9635103	T B Y
-1.8264347	H B Y
