\data\
ngram 1=5205
ngram 2=42476
ngram 3=86430

\1-grams:
-4.6383862	<unk>	0
0	<s>	-0.78092676
-1.4438541	</s>	0
-2.090847	WE	-0.7052771
-2.5292056	ARE	-0.31037393
-4.488052	UTILIZING	-0.12926126
-2.3666782	OUR	-0.37662575
-3.3829994	OWN	-0.20443483
-2.8754418	US	-0.3474664
-3.6943996	BASED	-0.28471178
-3.3145912	LABORATORIES	-0.30039388
-1.5224342	AND	-0.67886543
-1.8665277	FOR	-0.72014153
-2.5432634	ME	-0.43594337
-2.282603	ITS	-0.56095487
-3.220157	GONNA	-0.2897097
-2.6907005	BE	-0.3233045
-2.6086738	MORE	-0.3274024
-3.1720042	CHEAPER	-0.39017838
-1.9705284	XXXUM	-0.44323504
-2.791914	ACTUALLY	-0.27285445
-3.1874695	BEST	-0.2175785
-4.349785	EATEN	-0.12926126
-2.1633782	WITH	-0.6537825
-4.488052	BEER	-0.12926126
-2.8530061	VERY	-0.31012744
-3.8811145	FAMOUS	-0.12926126
-1.8095317	IN	-0.6522823
-4.349785	PAMPANGA	-0.12926126
-1.8539296	THE	-0.43721822
-2.9241211	FOOD	-0.33047578
-2.0147405	IS	-0.54315233
-2.1769943	ON	-0.6342367
-4.349785	FRIDGE	-0.18477437
-2.4833047	JUST	-0.36383897
-3.6034496	CASE	-0.17131943
-2.7733212	THERES	-0.5756157
-2.0465522	A	-0.4275635
-1.9610783	OF	-0.47214842
-3.4642348	EMERGENCY	-0.2343456
-3.4354346	CALL	-0.22626182
-1.8810543	XXXUH	-0.47820604
-2.248684	MY	-0.41879672
-3.5642447	NUMBER	-0.16769773
-2.63876	WHERE	-0.55317307
-4.488052	KUBAO	-0.12926126
-1.8764142	YOU	-0.6779463
-3.0417242	TAKE	-0.36490238
-3.8811145	MRT	-0.12926126
-3.274322	EVERYDAY	-0.1827372
-2.9888058	TOO	-0.28453544
-3.1720042	MUCH	-0.26641387
-3.7481837	ACCESSIBLE	-0.14698872
-1.7789792	TO	-0.6453828
-2.5326777	ALL	-0.50785244
-3.809583	NEARBY	-0.1561314
-2.3643062	YOUR	-0.30746967
-2.0735514	IT	-0.63390726
-3.220157	APARTMENT	-0.28152782
-1.8657763	SO	-0.7164518
-3.009206	DONT	-0.31797454
-2.63876	HAVE	-0.4297393
-2.838668	ANY	-0.23583293
-2.4143999	WILL	-0.4342045
-3.0531282	NEED	-0.33248022
-3.2555063	HAPPY	-0.2611235
-2.671087	SINCE	-0.48821118
-3.1570709	LOVE	-0.2638992
-3.5642447	MAKES	-0.19507916
-4.349785	CRAZY	-0.12926126
-4.349785	BRO	-0.12926126
-4.488052	RISEN	-0.12926126
-4.349785	THEREFORE	-0.12926126
-1.9175313	I	-0.7575953
-4.488052	COMPEL	-0.12926126
-3.3829994	START	-0.19684806
-2.9416406	BUSINESS	-0.32959244
-2.2787008	THIS	-0.40016448
-3.1286616	CITY	-0.27827018
-2.8678336	HELP	-0.4325941
-2.6343324	THEM	-0.40131468
-3.646548	IMPROVE	-0.19715096
-2.4740696	THEIR	-0.3130942
-3.809583	STUDIES	-0.18222465
-3.2939901	HOWEVER	-0.23208788
-2.5728223	ONE	-0.4231413
-3.8811145	NEGATIVE	-0.18222465
-3.5642447	IMPACT	-0.30118895
-1.7795942	THAT	-0.71375877
-3.6943996	CELL	-0.39035532
-3.646548	PHONE	-0.16711567
-1.889692	OR	-0.46761465
-3.5642447	SMARTPHONE	-0.25090718
-2.5844471	NOT	-0.36438912
-2.666319	GOOD	-0.31959978
-2.3911405	AT	-0.61140436
-3.4642348	TALKING	-0.37058294
-3.5642447	STUFF	-0.1673988
-2.8910697	WHO	-0.30051538
-3.6034496	CANT	-0.18668881
-3.4950817	BUY	-0.23814641
-3.1570709	NEEDS	-0.25148723
-2.3435209	LIKE	-0.4289881
-3.0648396	CHILDREN	-0.3094943
-2.6569371	CAN	-0.35756144
-3.3362184	FREE	-0.27978802
-4.488052	PASSENGER	-0.12926126
-3.1720042	FRIENDS	-0.2944618
-2.711242	HE	-0.38478747
-3.809583	ANYONE	-0.16010945
-3.0417242	KNOW	-0.27778184
-3.966797	JEEP	-0.17824401
-2.978954	CAUSE	-0.25254023
-3.1570709	ALOT	-0.60874975
-3.408426	GROWING	-0.3350013
-4.488052	PROSPECT	-0.12926126
-3.142634	THINK	-0.3016104
-3.809583	ECONOMY	-0.1893234
-3.4354346	FUTURE	-0.22596551
-2.20394	IF	-0.8308349
-3.7481837	TOURISM	-0.16257566
-4.349785	CHAIN	-0.12926126
-4.488052	CONTINUES	-0.12926126
-3.0531282	WAY	-0.35812634
-3.0648396	HARD	-0.39716902
-3.0306122	HER	-0.2299353
-2.0627856	BECAUSE	-0.7984775
-2.675908	AN	-0.27310506
-4.2156706	INTERVIEW	-0.12926126
-2.7856276	WERE	-0.34130332
-2.4959319	ALSO	-0.361435
-3.966797	CHECKING	-0.12926126
-3.5642447	QUALITIES	-0.20959908
-2.8831854	PERSON	-0.3890794
-2.711242	WORK	-0.4525224
-4.488052	INNOCENT	-0.12926126
-2.7439995	HAS	-0.32905626
-3.6943996	RESPONSIBILITIES	-0.16010945
-2.761354	EVEN	-0.3617687
-3.2939901	PROVIDE	-0.35078707
-2.5728223	WHAT	-0.5505302
-2.8047667	SHOULD	-0.3626826
-3.6034496	WORKERS	-0.17067248
-4.073645	EXPECT	-0.18477437
-2.4532554	FROM	-0.38896745
-3.7481837	HUNDRED	-0.17639613
-3.6943996	PER	-0.3077687
-4.488052	CENT	-0.12926126
-3.3829994	SURE	-0.30013338
-2.845778	GOING	-0.4529682
-3.0197773	GET	-0.28469476
-4.349785	RESULTS	-0.12926126
-3.115125	WANT	-0.38079572
-3.6034496	TRUST	-0.19118267
-3.1874695	IMPORTANT	-0.3274676
-2.4895723	WHEN	-0.71536034
-2.8603566	HAVING	-0.48852694
-3.1286616	SUCH	-0.48115468
-3.237472	POSITION	-0.31686306
-2.2206082	AS	-0.64854753
-3.7481837	MANAGER	-0.20901845
-2.8678336	DO	-0.36455703
-4.073645	CONTINUE	-0.12926126
-2.8990998	NO	-0.2708154
-3.0417242	SMOKING	-0.27012134
-3.646548	RULE	-0.19022207
-3.809583	WOULDNT	-0.2837428
-3.1874695	PART	-0.51801676
-3.8811145	LIFESTYLE	-0.2089032
-3.1286616	FAMILY	-0.33650807
-3.809583	SUPPORT	-0.12926126
-3.220157	KEEP	-0.24363682
-3.1570709	HOUSE	-0.30788016
-3.809583	CAR	-0.12926126
-3.6034496	SAVE	-0.1997384
-2.978954	MONEY	-0.40094495
-3.8811145	PREPARE	-0.17824401
-3.4354346	RESPECT	-0.20035769
-2.8047667	OTHER	-0.2816716
-2.6299493	PEOPLE	-0.4493727
-3.646548	CULTURE	-0.22356293
-3.3589792	ABLE	-0.601363
-4.488052	RESPEC	-0.12926126
-4.2156706	GAIN	-0.12926126
-2.9241211	GIVE	-0.47434548
-3.6034496	MESSAGE	-0.17739272
-3.3829994	CANNOT	-0.19491795
-3.966797	JOIN	-0.12926126
-3.2555063	TODAY	-0.26434946
-3.4642348	LOCATION	-0.26020858
-3.7481837	HOMETOWN	-0.19958262
-3.1874695	LOOK	-0.40720215
-2.7554917	HOW	-0.49100983
-3.7481837	YOUVE	-0.14863679
-3.6034496	CHANGED	-0.14863679
-3.966797	FOUND	-0.16010945
-3.1874695	SOMEONE	-0.26579034
-4.488052	SETTLED	-0.12926126
-3.5642447	DOWN	-0.24554032
-3.1019974	HIM	-0.2582276
-3.6943996	SOMEBODY	-0.21802072
-4.349785	QUICK	-0.12926126
-4.349785	LAUGH	-0.12926126
-3.274322	TALK	-0.62990034
-2.4959319	ABOUT	-0.48894566
-3.237472	ANYTHING	-0.25774089
-3.809583	SUCCESSFUL	-0.25474855
-4.488052	RELI	-0.12926126
-4.2156706	RELIGIOUS	-0.12926126
-3.4950817	MAN	-0.17425139
-3.2939901	TIMES	-0.2322842
-2.8113387	THOSE	-0.29411834
-4.349785	CONVENIENCE	-0.12926126
-3.3829994	COMPANIES	-0.18855137
-4.073645	THEYLL	-0.21134353
-3.5642447	MOVE	-0.20201808
-2.334593	HERE	-0.59631556
-3.0648396	THAN	-0.24426915
-3.966797	METROPOLITAN	-0.27147684
-3.1570709	AREA	-0.3372403
-3.7481837	MEANING	-0.17308953
-3.8811145	XXXXUH	-0.1654707
-3.3145912	CHINESE	-0.19536498
-3.6943996	IMPLEMENT	-0.25742456
-2.294525	THEY	-0.6022704
-3.6943996	HELLO	-0.1876645
-2.9888058	MR	-0.5980127
-4.488052	BROWN	-0.12926126
-3.6034496	NAME	-0.25474855
-4.488052	VICTOR	-0.12926126
-3.6943996	ID	-0.32762608
-2.5963917	THATS	-0.5361241
-2.9598968	WHY	-0.41963562
-3.6943996	ALLOWED	-0.24584448
-3.3145912	ACCESS	-0.37849233
-3.1286616	EMPLOYEES	-0.26219165
-2.8831854	SOCIAL	-0.80000275
-3.6943996	MEDIA	-0.15497212
-3.6943996	SITES	-0.23522337
-2.716533	WHILE	-0.41990817
-2.3067832	THERE	-0.62634426
-3.528288	HISTORICAL	-0.29800084
-3.1720042	COULD	-0.26125747
-3.646548	ONLINE	-0.16257566
-4.349785	DOWNLOAD	-0.12926126
-3.8811145	APP	-0.255481
-3.0306122	ASK	-0.44351357
-4.349785	DRIVER	-0.12926126
-3.809583	THOUGHTS	-0.23372899
-3.142634	THESE	-0.19813916
-3.5642447	OFFERING	-0.28025684
-3.6034496	SERVICES	-0.16547075
-3.646548	PRICE	-0.22904773
-2.1894667	BUT	-0.6016009
-2.845778	NOW	-0.34012282
-3.6034496	HOPE	-0.26759097
-3.4642348	GROW	-0.20282936
-3.646548	INVEST	-0.24014097
-3.7481837	TRIED	-0.172102
-3.528288	EVERYBODY	-0.17308953
-4.2156706	CONTRIBUTE	-0.17308953
-3.2555063	COUNTRY	-0.2819952
-3.4354346	WANTED	-0.35717845
-3.6034496	DEALING	-0.69837856
-3.0892549	KIND	-0.7656307
-4.2156706	COMPETITION	-0.12926126
-2.6616027	WELL	-0.32739723
-3.6943996	NEGATIVELY	-0.2837428
-4.2156706	OFFICES	-0.12926126
-3.6943996	COURSE	-0.1704018
-3.5642447	TEAM	-0.209878
-2.6477535	IM	-0.46727842
-3.2555063	OH	-0.28162158
-4.2156706	BEG	-0.12926126
-2.539706	SOME	-0.30352432
-3.2555063	FOODS	-0.2640641
-2.969321	ANOTHER	-0.24874032
-4.349785	LEAP	-0.20497607
-4.488052	FAITH	-0.12926126
-3.6943996	CHOSE	-0.14441149
-3.7481837	CHANGE	-0.14441149
-3.2939901	CAREER	-0.24852513
-3.3829994	ADVICE	-0.23022994
-3.2035058	TRANSPORTATION	-0.24903026
-3.4642348	AVAILABLE	-0.20371085
-2.9072812	PLACE	-0.4251625
-3.809583	MOSTLY	-0.12926126
-4.349785	GYP	-0.12926126
-3.809583	GYPNEY	-0.16010945
-3.809583	TAXI	-0.12926126
-4.488052	TRINIDAD	-0.12926126
-2.9072812	YOURE	-0.29819414
-4.488052	BAGUIO	-0.12926126
-2.7672963	THEN	-0.32399476
-2.671087	WHICH	-0.4928115
-3.3589792	HAPPEN	-0.2159126
-2.8990998	EVERY	-0.2823292
-3.4950817	NIGHT	-0.27393785
-4.488052	JANUARY	-0.12926126
-4.349785	CELEBRATING	-0.12926126
-2.9327927	SHE	-0.31547385
-3.646548	DRIVE	-0.16257566
-3.5642447	SIX	-0.1654707
-3.8811145	FIFTY	-0.15306245
-4.349785	KILOMETERS	-0.12926126
-4.488052	MILES	-0.12926126
-3.4354346	FAR	-0.32762608
-3.0306122	USE	-0.3414289
-4.349785	PACK	-0.12926126
-3.0892549	SMOKE	-0.34167963
-3.8811145	AM	-0.13396105
-4.073645	WONDERING	-0.17308953
-3.809583	WIFE	-0.23925373
-3.966797	INVOLVED	-0.22980061
-3.4354346	SOPHIE	-0.23056394
-3.408426	OPINION	-0.22590366
-3.1019974	ALREADY	-0.20321612
-3.0531282	MANY	-0.24391644
-3.809583	BUILDINGS	-0.19862422
-2.9598968	AROUND	-0.3791849
-3.220157	YEAH	-0.22756177
-3.8811145	SISTER	-0.15062273
-3.4354346	NEXT	-0.22463544
-2.6477535	TIME	-0.51253283
-2.721889	GO	-0.49745882
-3.1874695	OUTSIDE	-0.28579393
-3.4642348	FRUITS	-0.3306804
-3.2939901	WHATEVER	-0.2364191
-4.073645	LOSE	-0.12926126
-2.7497075	WOULD	-0.3681197
-3.4354346	DEFINITELY	-0.18517782
-3.3145912	SUGGEST	-0.3965894
-3.5642447	AGREE	-0.34418893
-4.073645	POLICY	-0.17308953
-4.349785	ESTABLISHED	-0.12926126
-2.969321	COMPANY	-0.36634636
-4.2156706	CALLS	-0.12926126
-3.966797	PERIOD	-0.22980061
-4.2156706	PANIC	-0.12926126
-4.2156706	REMAIN	-0.12926126
-3.966797	CALM	-0.21134353
-3.4950817	POSSIBLE	-0.24962619
-3.646548	WATER	-0.19369183
-4.488052	WIPES	-0.12926126
-4.349785	MAT	-0.12926126
-3.7481837	FACE	-0.15062273
-3.4642348	MOVIE	-0.2509599
-4.349785	TITLE	-0.2484379
-4.073645	SHOWS	-0.18477437
-3.7481837	REAL	-0.21802072
-4.488052	REALISATIONS	-0.12926126
-3.0417242	LIFE	-0.36351183
-3.3589792	RIDE	-0.31139284
-3.7481837	BICYCLE	-0.19186081
-3.1286616	STAY	-0.3062623
-3.237472	SAFE	-0.25839207
-2.8530061	THINGS	-0.42145717
-3.4642348	ALRIGHT	-0.1563185
-3.408426	RECOMMEND	-0.30791372
-3.646548	DAYCARE	-0.25041857
-3.809583	COMPANYS	-0.2089032
-3.809583	HEADQUARTERS	-0.21337187
-4.073645	MAP	-0.12926126
-3.646548	BELIEVE	-0.22463544
-2.5223439	RIGHT	-0.5396989
-4.073645	VEHICLE	-0.12926126
-2.9072812	BEFORE	-0.3707089
-3.646548	GOT	-0.14922403
-2.998886	INTO	-0.25315273
-3.6943996	DAILY	-0.17308953
-3.7481837	BASIS	-0.19865951
-3.0892549	THROUGH	-0.23865059
-2.7733212	OKAY	-0.35524938
-4.073645	QUALIFIED	-0.2404759
-4.073645	SUPERVISORS	-0.12926126
-3.528288	PROJECT	-0.25432497
-3.809583	MOTIVATED	-0.12926126
-4.488052	STIMULATE	-0.12926126
-4.488052	CATERERS	-0.12926126
-4.073645	EXPERIENCING	-0.12926126
-4.073645	TECHNICAL	-0.18477437
-3.5642447	ISSUES	-0.17308953
-3.3589792	PROBLEMS	-0.21388821
-3.7481837	DELIVERY	-0.16010945
-4.2156706	VAN	-0.12926126
-4.073645	WORRY	-0.15798329
-3.8811145	RESPONSIBILITY	-0.20497607
-3.3829994	CUSTOMERS	-0.22807604
-3.8811145	INTERESTING	-0.12926126
-3.0197773	EVERYTHING	-0.2751782
-3.408426	TYPE	-0.6636412
-3.4354346	AMUSEMENT	-0.6814497
-3.5642447	PARK	-0.24245277
-4.2156706	PROVIDED	-0.20497607
-4.488052	ERSON	-0.12926126
-3.2555063	EASILY	-0.20745924
-4.2156706	ADJUST	-0.12926126
-3.4642348	TASK	-0.24126557
-2.9072812	MAY	-0.45705605
-3.8811145	SAME	-0.14925641
-3.966797	LIGHTS	-0.17021681
-4.488052	JURISDIC	-0.12926126
-4.488052	JURISDICTION	-0.12926126
-4.2156706	HALLWAYS	-0.18222465
-3.7481837	APPRECIATE	-0.22090764
-2.9327927	MOST	-0.38488916
-3.966797	HARM	-0.17308953
-3.966797	CEO	-0.1455991
-3.8811145	PRODUCTIVITY	-0.19678229
-4.349785	CAPABILITIES	-0.12926126
-4.349785	CARRY	-0.12926126
-4.073645	THROUGHOUT	-0.1654707
-4.2156706	FAMILYS	-0.25904587
-3.3589792	FINANCES	-0.2836652
-3.966797	JEEPNEYS	-0.12926126
-4.488052	MOTORCYCLES	-0.12926126
-3.2035058	FIND	-0.30807084
-4.073645	DESTINATION	-0.12926126
-3.0197773	THING	-0.44119024
-3.8811145	GYPNEYS	-0.12926126
-3.5642447	SALLY	-0.3483549
-3.274322	SORRY	-0.33058733
-2.9598968	MAKE	-0.44702578
-3.1720042	BAD	-0.2384003
-3.646548	STORM	-0.16862957
-3.809583	FLIGHT	-0.21360445
-2.8990998	WAS	-0.23873563
-3.7481837	DELAYED	-0.2744446
-3.6034496	EDUCATION	-0.22256386
-2.8180115	REALLY	-0.30418816
-3.0197773	JOB	-0.38197696
-3.4642348	SMART	-0.4086922
-3.220157	NOWADAYS	-0.23257534
-4.073645	EXAMPLE	-0.16691597
-3.4950817	SCHOOLS	-0.20901845
-3.966797	PROVINCE	-0.1654707
-3.6034496	SIMPLE	-0.1455991
-3.1570709	MAKING	-0.27631122
-3.237472	TRY	-0.39700896
-2.998886	SOMETHING	-0.3338854
-3.966797	GUIDE	-0.30898184
-4.2156706	TOWARD	-0.12926126
-3.4354346	LONG	-0.31738567
-4.349785	TERM	-0.15306245
-3.4642348	GOALS	-0.21981946
-3.7481837	STUDY	-0.1561314
-3.3145912	PLAY	-0.19822194
-3.646548	STORE	-0.18780175
-3.8811145	APPLYING	-0.21134353
-3.646548	GOAL	-0.22394465
-4.073645	PROMOTED	-0.12926126
-3.966797	TILL	-0.17308953
-3.3362184	TEN	-0.38063854
-3.142634	YEARS	-0.2799245
-3.0648396	XXXAH	-0.17285317
-2.721889	FIRST	-0.34571043
-3.8811145	CLIENT	-0.17308953
-3.8811145	REALIZE	-0.33628225
-4.349785	CAPACITY	-0.12926126
-4.488052	CAPABILITY	-0.12926126
-3.220157	PROBLEM	-0.30739892
-4.2156706	FACILITIES	-0.12926126
-3.1019974	NEAR	-0.35361806
-3.4642348	GOVERNMENT	-0.21164224
-3.966797	KNOWS	-0.22184253
-3.4354346	WHATS	-0.36645347
-3.5642447	COMMUNITY	-0.17739272
-3.2939901	LOT	-0.29755452
-3.0768757	SCHOOL	-0.35170847
-3.220157	BUILDING	-0.20738316
-4.488052	UNOCCUPIED	-0.12926126
-3.8811145	ROOMS	-0.12926126
-3.5642447	RECENTLY	-0.16255945
-3.8811145	VISITED	-0.17824401
-4.488052	BANARI	-0.12926126
-4.488052	PHUGAO	-0.12926126
-3.809583	FAVOURITE	-0.20824625
-3.3362184	VISIT	-0.23856638
-3.646548	CLIENTS	-0.20824625
-3.8811145	FEEDBACK	-0.16010945
-3.528288	ONCE	-0.2089032
-3.5642447	SERVICE	-0.22858745
-3.8811145	GENERAL	-0.24255598
-3.528288	SITUATION	-0.26069888
-3.3362184	OFFICE	-0.21793863
-3.646548	HELPS	-0.18022977
-4.2156706	SOUND	-0.20497607
-4.349785	UNPROFESSIONAL	-0.12926126
-3.408426	WORLD	-0.19942993
-3.4642348	WORKS	-0.17544532
-3.966797	MATTERS	-0.12926126
-3.7481837	ONSITE	-0.34418893
-3.115125	DAY	-0.24838066
-3.4950817	CARE	-0.23261791
-3.528288	POSITIVE	-0.21608435
-3.809583	EFFECT	-0.17662804
-3.528288	PRETTY	-0.25395465
-3.4950817	NICE	-0.20138775
-3.966797	BONDING	-0.12926126
-3.408426	FRIEND	-0.22212227
-4.2156706	WEDDING	-0.12926126
-3.1874695	SAY	-0.30794877
-3.237472	BEEN	-0.19532107
-3.2939901	GREAT	-0.1774106
-4.073645	APOLOGISING	-0.21134353
-3.4950817	APPLY	-0.27788937
-3.8811145	SON	-0.2015443
-3.966797	DAUGHTER	-0.12926126
-3.6943996	SOON	-0.25496814
-3.3145912	CHILD	-0.2216979
-4.349785	PURSUING	-0.12926126
-3.142634	SEE	-0.31177148
-4.488052	COMPETITIONS	-0.12926126
-3.0648396	USING	-0.38146502
-3.4950817	MARKET	-0.1810525
-4.349785	GOODS	-0.12926126
-3.1570709	THEYRE	-0.19118273
-3.8811145	PERFORM	-0.1561314
-4.488052	PROFESSIONALISM	-0.12926126
-2.978954	DIFFERENT	-0.25130177
-3.408426	TRYING	-0.68846476
-3.009206	NEW	-0.26599693
-3.809583	DRUG	-0.16817638
-4.349785	IDENTIFY	-0.12926126
-4.488052	SIM	-0.12926126
-4.488052	CARD	-0.12926126
-3.3589792	HEALTH	-0.2625647
-4.2156706	INSURANCE	-0.12926126
-3.220157	VACATION	-0.28566435
-3.4642348	LEAVE	-0.19684806
-4.2156706	MATERNITY	-0.12926126
-3.408426	HOURS	-0.21043871
-4.349785	SUITED	-0.12926126
-3.646548	OLD	-0.16530584
-3.1874695	IVE	-0.27220657
-4.349785	INTERNSHIP	-0.12926126
-4.488052	LTO	-0.12926126
-3.8811145	LIMIT	-0.19862422
-3.966797	HERES	-0.21134353
-3.966797	TIPS	-0.19331746
-3.1874695	STILL	-0.18230145
-3.8811145	GYM	-0.17241041
-3.646548	PROPER	-0.1561314
-4.073645	SHAPE	-0.16010945
-4.073645	CITIES	-0.12926126
-3.3829994	AFFECT	-0.33930713
-4.2156706	STARVE	-0.20497607
-3.6034496	GOD	-0.1561314
-3.0648396	PLEASE	-0.29691288
-3.809583	DOG	-0.19596268
-3.809583	BANK	-0.19240913
-2.8831854	WORKING	-0.36118427
-3.6943996	HONEST	-0.24191274
-3.6034496	RESPONSIBLE	-0.16975002
-3.274322	EMPLOYEE	-0.22472133
-4.073645	RAISE	-0.1654707
-3.4950817	SAID	-0.19536108
-3.1570709	TELL	-0.45269936
-4.488052	NEWBIE	-0.12926126
-4.349785	NATIONALITIES	-0.12926126
-3.6943996	UTILISE	-0.29218668
-4.488052	LABORATOR	-0.12926126
-3.646548	PRODUCTION	-0.21786457
-3.966797	CULTURES	-0.12926126
-3.408426	MEET	-0.2611755
-3.2035058	DRIVING	-0.26142532
-2.9156196	BEING	-0.3239833
-3.3362184	PLAN	-0.20901845
-4.2156706	DECREASE	-0.12926126
-3.3589792	HUNGER	-0.25165063
-3.809583	ATTEND	-0.17544532
-3.966797	EVENT	-0.22090764
-3.7481837	RELAX	-0.27654207
-3.7481837	ATTENDING	-0.12926126
-3.5642447	WAITING	-0.41091588
-3.5642447	PICNIC	-0.18790227
-3.3145912	SAFETY	-0.20544542
-3.809583	HELMET	-0.17308953
-3.6943996	AVOID	-0.13803457
-4.2156706	RUNNING	-0.12926126
-4.488052	EATINGS	-0.12926126
-4.488052	COMMUNICATIVE	-0.12926126
-3.528288	COMES	-0.26659632
-3.0892549	YES	-0.25197938
-3.0648396	ILL	-0.42433536
-3.5642447	MEAN	-0.16119005
-4.073645	SUPPORTING	-0.12926126
-4.2156706	MENTIONED	-0.16010945
-3.220157	ROOM	-0.3120066
-3.809583	ASSIGNED	-0.27829033
-4.073645	ORDER	-0.22927645
-3.6943996	SLEEP	-0.17544532
-3.6034496	USUALLY	-0.1802429
-3.4642348	DONE	-0.13842006
-2.8754418	OUT	-0.4137476
-3.7481837	SHORT	-0.21608435
-3.646548	EXPENSES	-0.17241041
-3.274322	ENVIRONMENT	-0.2600952
-2.8603566	TWO	-0.3475816
-3.528288	BOOKS	-0.2716719
-3.6034496	MOVIES	-0.25474855
-4.349785	COLLEAGUE	-0.12926126
-4.073645	ASKS	-0.12926126
-3.8811145	ENJOYED	-0.1561314
-4.488052	LATELY	-0.12926126
-3.6034496	DESCRIBE	-0.3282352
-3.4950817	BOOK	-0.22580333
-3.3829994	MADE	-0.21582204
-3.6943996	ASSURE	-0.37084675
-3.8811145	BACKGROUND	-0.19678229
-3.7481837	EXERCISE	-0.12926126
-4.349785	JOG	-0.12926126
-3.7481837	MORNING	-0.19217704
-4.073645	FRESH	-0.21134353
-3.809583	AIR	-0.1561314
-4.349785	CRYSTAL	-0.12926126
-3.646548	QUITE	-0.16025831
-3.528288	COLD	-0.19966912
-3.646548	WAYS	-0.24291025
-4.488052	ACQUIRE	-0.12926126
-4.349785	DISEASES	-0.12926126
-3.3362184	ALONG	-0.33842364
-3.6034496	CO	-0.40017673
-4.488052	UPSTAIRS	-0.12926126
-3.8811145	BABY	-0.14863679
-4.073645	DOUBLE	-0.18477437
-3.408426	CHECK	-0.2698527
-3.6034496	SHES	-0.1802429
-3.1874695	GIVING	-0.29570517
-4.073645	ASSISTANT	-0.12926126
-4.349785	BROKEN	-0.12926126
-3.408426	WAR	-0.2329416
-4.073645	TARDINESS	-0.18477437
-3.4950817	DUE	-0.6769586
-4.349785	UM	-0.12926126
-4.2156706	SICKNESS	-0.12926126
-4.073645	INCUR	-0.17308953
-4.2156706	BAN	-0.12926126
-4.349785	MEDICINE	-0.12926126
-4.2156706	BREAKFAST	-0.12926126
-3.4950817	LUNCH	-0.19535223
-3.4354346	DINNER	-0.2691819
-3.966797	PUSH	-0.22980061
-2.8678336	UP	-0.32471555
-3.966797	SIT	-0.22980061
-4.349785	UPS	-0.12926126
-4.488052	TENDENCY	-0.12926126
-3.809583	MOOD	-0.1802429
-4.2156706	SOCIALISING	-0.12926126
-3.2555063	HOME	-0.1867553
-3.408426	YOUNG	-0.23141386
-3.237472	UNDERSTAND	-0.3582235
-4.073645	SOLUTION	-0.17308953
-2.998886	EACH	-0.48411036
-3.3829994	CUSTOMER	-0.25362822
-3.809583	SELF	-0.12926126
-3.7481837	OPTION	-0.18704294
-4.488052	BLAKE	-0.12926129
-4.349785	AHEAD	-0.12926126
-3.009206	REGARDING	-0.39918134
-3.0306122	TRAVEL	-0.31328428
-3.8811145	DEALS	-0.12926126
-4.349785	WASNT	-0.12926126
-4.349785	PARTS	-0.12926126
-3.3589792	LESS	-0.16677484
-4.488052	FORTUNATE	-0.12926126
-3.646548	UNDERSTANDING	-0.20052007
-3.408426	GUYS	-0.22737388
-3.7481837	INFORM	-0.2089032
-3.3145912	IDEA	-0.2514081
-3.528288	KNOWLEDGE	-0.21105042
-3.7481837	SEARCH	-0.17308953
-4.488052	WAITED	-0.12926126
-3.8811145	POST	-0.1654707
-4.349785	RENTALS	-0.12926126
-4.2156706	NEWSPAPERS	-0.12926126
-4.349785	ADVERTISEMENTS	-0.12926126
-4.488052	BULLETIN	-0.12926126
-3.809583	AMONG	-0.16010945
-3.5642447	DECISION	-0.17308953
-3.7481837	TRUCK	-0.17824401
-4.073645	DELIVERING	-0.12926126
-3.646548	LATE	-0.2249113
-3.7481837	MECHANICAL	-0.39491886
-3.7481837	WISELY	-0.12926126
-4.2156706	ENTER	-0.12926126
-3.7481837	ROOMMATES	-0.17308953
-3.6943996	WALK	-0.20497607
-3.6943996	NATURE	-0.24291025
-4.349785	BEAUTY	-0.20497607
-3.528288	TOWN	-0.22725466
-2.998886	ESPECIALLY	-0.34298614
-4.2156706	VOICE	-0.20497607
-3.6943996	STUDYING	-0.14863679
-4.488052	PROHIBITED	-0.12926126
-2.998886	ALWAYS	-0.21349894
-3.4950817	CLEAN	-0.20347401
-3.7481837	HI	-0.15420184
-3.6943996	KELLY	-0.6282336
-3.4642348	SAM	-0.1929061
-3.966797	WELCOME	-0.1654707
-4.349785	ZEALAND	-0.1654707
-3.0768757	SPECIALLY	-0.34989914
-4.2156706	IRON	-0.31264174
-3.5642447	CHILDHOOD	-0.22689137
-4.073645	HERO	-0.17308953
-3.408426	MARY	-0.19175766
-3.528288	QUESTION	-0.22880654
-4.488052	REHABILATE	-0.12926126
-4.349785	REHABILITATE	-0.2484379
-3.3589792	EAT	-0.19072522
-4.488052	CTION	-0.12926126
-4.073645	BLACK	-0.2484379
-4.488052	CLOVER	-0.12926126
-4.488052	MAGIC	-0.12926126
-3.8811145	SWIMMING	-0.12926126
-4.488052	VOLLEYBALLS	-0.12926126
-3.3589792	OTHERS	-0.17241041
-4.349785	REMINDS	-0.12926126
-3.0768757	EVERYONE	-0.23848945
-3.3589792	ROOMMATE	-0.22724575
-4.073645	APPROACHABLE	-0.12926126
-3.809583	SUPERVISOR	-0.21859197
-3.8811145	QUALIFICATIONS	-0.17308953
-3.646548	EXPLAIN	-0.25244313
-3.809583	CANDIDATE	-0.24191274
-3.2555063	COME	-0.223223
-4.349785	PUNCH	-0.12926126
-3.4354346	BASICALLY	-0.18385473
-3.7481837	DISTRACTION	-0.20921065
-4.488052	HUSBANDS	-0.12926126
-4.488052	WIFES	-0.12926126
-3.809583	TAKES	-0.16010945
-3.6943996	FINANCIAL	-0.2021857
-4.2156706	HOTELS	-0.12926126
-3.274322	OVER	-0.2054711
-3.6943996	TRIP	-0.17544532
-4.488052	MUM	-0.12926126
-3.0892549	ONLY	-0.23047084
-3.7481837	MOMENT	-0.16891727
-4.349785	VIEWING	-0.12926126
-4.488052	PAGES	-0.12926126
-3.646548	ACCESSING	-0.39491886
-4.073645	EFFICIENT	-0.22980061
-3.3145912	MYSELF	-0.26813668
-3.966797	UMBRELLA	-0.1654707
-3.274322	BACK	-0.28645113
-3.142634	LET	-0.41348985
-3.6034496	HAPPENED	-0.20420022
-4.488052	SYSTEMS	-0.12926126
-3.646548	GONE	-0.14863679
-3.966797	LONGER	-0.14698872
-3.8811145	WARS	-0.20921065
-4.488052	NATURALLY	-0.12926126
-4.488052	AGREEING	-0.12926126
-3.966797	ACTION	-0.18477437
-4.488052	VOLUNTARILY	-0.12926126
-3.2035058	ENJOY	-0.26118466
-3.8811145	TRAVELLING	-0.12926126
-2.6170595	BY	-0.32484514
-3.408426	FLYING	-0.37325972
-3.7481837	MANDATORY	-0.29979858
-3.1019974	ENGLISH	-0.3533333
-3.7481837	INFRONT	-0.5600759
-3.8811145	EVERYWHERE	-0.21134353
-3.142634	INSIDE	-0.37200493
-3.966797	DARK	-0.12926126
-3.966797	EXCEPT	-0.1654707
-3.966797	STAIRS	-0.25904587
-3.809583	EQUIPPED	-0.27829033
-4.349785	ANNOUNCEMENTS	-0.12926126
-3.966797	CROWD	-0.2404759
-3.4950817	DID	-0.2021857
-3.5642447	ALLOW	-0.19870578
-3.809583	DEADLINE	-0.18735671
-3.646548	SALES	-0.18780175
-3.6034496	TECHNOLOGY	-0.2029449
-3.7481837	SET	-0.16257566
-3.809583	CIRCUMSTANCES	-0.12926126
-4.488052	XXBGN	-0.12926126
-4.349785	BIGGEST	-0.12926126
-4.488052	MINDANAO	-0.12926126
-4.488052	KADAYAWAN	-0.12926126
-4.488052	MASSES	-0.12926126
-3.0648396	BETTER	-0.26638967
-3.646548	BRAND	-0.20497607
-4.349785	SUPERIOR	-0.2484379
-3.7481837	CONVINCE	-0.2015443
-4.349785	MURPHY	-0.12926129
-3.3362184	OVERTIME	-0.29222757
-3.0197773	DURING	-0.3468266
-3.6034496	BREAK	-0.23372899
-3.966797	HOUR	-0.15306245
-3.4354346	SPEND	-0.25207216
-3.3145912	INSTEAD	-0.56711733
-3.528288	SMARTPHONES	-0.13884097
-3.809583	FEW	-0.1561314
-4.488052	WORKOUTS	-0.12926126
-3.3362184	HEALTHY	-0.31056356
-4.2156706	UTILITIES	-0.20497607
-3.966797	K	-0.12926126
-3.5642447	ADVANTAGES	-0.2363566
-4.2156706	LIKES	-0.20497607
-3.4354346	LIVE	-0.26215732
-3.5642447	THOUGHT	-0.2192114
-4.073645	LORI	-0.19862422
-3.7481837	SCOTT	-0.18300761
-3.528288	THREE	-0.17425139
-3.6034496	OPTIONS	-0.19118267
-3.6943996	PUBLIC	-0.22090764
-3.1720042	BOTH	-0.33865067
-3.8811145	HANDLE	-0.26146635
-4.488052	JURADIAH	-0.12926126
-4.488052	BAGISIRI	-0.12926126
-4.349785	CONTINUED	-0.2484379
-3.142634	HIS	-0.2096977
-4.488052	FORMER	-0.12926126
-4.488052	COMPATRIOTS	-0.12926126
-3.966797	DECIDE	-0.1561314
-3.7481837	PRESSURE	-0.25661618
-3.809583	LATER	-0.1893234
-4.073645	LACK	-0.43758047
-3.4354346	ENOUGH	-0.20199229
-4.349785	KEPT	-0.12926126
-3.528288	WANTS	-0.30510718
-3.4950817	UNTIL	-0.22851466
-4.349785	GREW	-0.12926126
-4.2156706	SPORTS	-0.12926126
-3.7481837	TEENAGE	-0.22580333
-3.408426	STUDENTS	-0.25508642
-3.809583	BIYA	-0.22927645
-4.2156706	RIVER	-0.1654707
-3.408426	FOUR	-0.18540277
-3.7481837	DEPENDS	-0.30716336
-3.408426	INTERNATIONAL	-0.34647465
-3.6943996	BPO	-0.25612932
-3.809583	PROUD	-0.2930364
-4.488052	IVBE	-0.12926126
-3.237472	OFFER	-0.3134344
-3.3589792	ADVANTAGE	-0.25561225
-4.073645	NEAREST	-0.16010945
-4.488052	JOINING	-0.12926126
-4.349785	WASTING	-0.12926126
-3.2939901	PLAYING	-0.2698527
-4.2156706	VIDEO	-0.31264174
-3.408426	GAMES	-0.14863679
-4.073645	DRINKING	-0.12926126
-4.349785	CLUBS	-0.12926126
-4.488052	OBLIGE	-0.12926126
-4.349785	LABRADORS	-0.12926126
-4.488052	GENTLE	-0.12926126
-3.5642447	OPPORTUNITY	-0.32970616
-3.7481837	ONES	-0.15306245
-4.488052	PERFORMING	-0.12926126
-3.7481837	STUDENT	-0.15306245
-3.7481837	FOLLOW	-0.27615738
-3.4950817	RULES	-0.24893892
-4.488052	REGULATIONS	-0.12926126
-3.3145912	YOURSELF	-0.189596
-3.7481837	EXPENSIVE	-0.18477437
-3.3362184	PAY	-0.18904106
-4.073645	SURVIVE	-0.12926126
-3.2939901	FOCUS	-0.41633612
-4.073645	MINIMISE	-0.18477437
-4.488052	DISTRACTIONS	-0.12926126
-4.488052	FLUE	-0.12926126
-2.838668	THANK	-1.074512
-4.488052	MEDICATION	-0.12926126
-3.8811145	HOT	-0.12926126
-4.073645	TEA	-0.18477437
-4.349785	LEMON	-0.12926126
-3.6943996	STEP	-0.20052007
-3.3362184	FEEL	-0.2582889
-3.528288	DEAL	-0.22055139
-3.966797	SELLING	-0.1654707
-3.2555063	PLACES	-0.30971196
-4.349785	HURRY	-0.12926126
-3.3145912	MRS	-0.5761833
-4.2156706	DAVIS	-0.16348779
-4.073645	TOUCH	-0.12926126
-4.349785	BUTTON	-0.12926126
-3.7481837	COMMUNICATE	-0.2813354
-4.2156706	ANYBODY	-0.12926126
-3.6943996	ANYWHERE	-0.21802072
-3.6943996	COUPLE	-0.5187224
-3.809583	ACHIEVE	-0.18300761
-3.966797	PERCENT	-0.20497607
-4.073645	ATTENDANCE	-0.12926126
-4.2156706	RATE	-0.12926126
-3.408426	WITHIN	-0.40772048
-4.2156706	WHOLE	-0.1455991
-3.966797	BLOCK	-0.22980061
-4.488052	BLACKOUT	-0.12926126
-4.349785	EQUIP	-0.12926126
-3.809583	ROAD	-0.19331746
-3.0892549	LANGUAGE	-0.36547533
-4.2156706	RELY	-0.20497607
-3.4354346	INFORMATION	-0.28727224
-3.6034496	COMFORTABLE	-0.20751192
-4.073645	FORGET	-0.12926126
-3.5642447	STOP	-0.14922403
-3.646548	WHENEVER	-0.30498457
-3.4950817	BEAUTIFUL	-0.17089906
-3.0306122	DOING	-0.2667163
-3.966797	ISNT	-0.12926126
-3.6943996	SUGGESTION	-0.15798329
-4.2156706	DISADVANTAGES	-0.12926126
-3.4354346	LEARN	-0.2435921
-3.8811145	UNITED	-0.3077687
-4.2156706	STATES	-0.1561314
-4.073645	RE	-0.12926126
-4.349785	RELATE	-0.12926126
-3.4642348	MEANS	-0.18458374
-4.2156706	XXXHMM	-0.12926126
-3.966797	TOTALLY	-0.12926126
-3.7481837	AWARE	-0.31617022
-3.7481837	FINISH	-0.20814812
-3.7481837	NEWS	-0.20312819
-3.528288	WONT	-0.20636098
-4.349785	REPEAT	-0.2484379
-3.0417242	AGAIN	-0.26806623
-3.966797	HIGHLY	-0.19678229
-4.2156706	AIRPLANE	-0.12926126
-3.274322	BOSS	-0.2004332
-3.809583	FAMILIES	-0.23372899
-3.5642447	SMALL	-0.1713122
-3.646548	OURSELVES	-0.20814812
-3.1720042	LOOKING	-0.41970456
-4.073645	WENT	-0.1654707
-3.4950817	OPEN	-0.18874022
-3.3145912	COMMUNICATION	-0.23567961
-3.274322	WHEREIN	-0.34187442
-3.966797	COOL	-0.1654707
-4.349785	BOND	-0.20497607
-4.073645	PICNICS	-0.18477437
-3.6034496	COFFEE	-0.26326087
-3.809583	FIFTEEN	-0.28121084
-3.809583	MINUTES	-0.19118267
-3.8811145	FINE	-0.15306245
-3.3362184	BUILD	-0.25419536
-3.809583	CHICAGO	-0.2192114
-4.488052	DEPART	-0.12926126
-4.073645	WILSON	-0.16891727
-4.349785	COORDINATE	-0.12926126
-3.5642447	MEETING	-0.21442406
-3.8811145	HUNGRY	-0.15306245
-4.2156706	TIRED	-0.12926126
-3.8811145	LITTLE	-0.12926126
-3.7481837	PARKS	-0.20921065
-4.2156706	BEAT	-0.20497607
-4.2156706	COMPETITORS	-0.12926126
-3.8811145	OPENED	-0.15306245
-3.3589792	AWAY	-0.25543833
-4.073645	ADVERTISE	-0.1654707
-3.646548	DEGREE	-0.18780175
-4.349785	AFTERWARDS	-0.12926126
-3.0197773	AFTER	-0.2698527
-4.488052	COMPLETING	-0.12926126
-4.073645	HANDLING	-0.12926126
-3.4642348	LETS	-0.19864716
-4.2156706	MOBILE	-0.20497607
-3.966797	PHONES	-0.172572
-3.7481837	EDUCATIONAL	-0.22032431
-3.408426	REASON	-0.2808384
-3.6034496	PERSONAL	-0.23372899
-4.2156706	INVESTING	-0.12926126
-4.073645	IMPORTANCE	-0.17308953
-4.349785	REASONS	-0.12926126
-4.488052	PARENTHOOD	-0.12926126
-4.488052	SODAS	-0.12926126
-3.8811145	SNACKS	-0.31264174
-4.349785	WED	-0.12926126
-3.966797	BILLS	-0.1654707
-4.488052	ESPECIAL	-0.12926126
-4.2156706	DAVOR	-0.31264174
-4.073645	GATHERING	-0.12926126
-3.7481837	INCONVENIENCE	-0.16547075
-3.7481837	ARRIVE	-0.17308953
-3.7481837	OVERALL	-0.12926126
-4.488052	MANNERED	-0.12926126
-4.488052	DELI	-0.12926126
-3.5642447	DELIVER	-0.20921065
-3.8811145	SATISFACTION	-0.1561314
-4.073645	AGENCYS	-0.25904587
-3.809583	PURPOSE	-0.22032431
-4.2156706	BIT	-0.12926126
-3.2555063	LEARNING	-0.2474936
-3.3829994	SECOND	-0.3192986
-3.966797	COMMUNICATING	-0.12926126
-4.073645	CREATIVE	-0.12926126
-4.488052	IMAGINATIVE	-0.12926126
-4.488052	SOCIA	-0.12926126
-4.488052	SOCIABLE	-0.12926126
-4.488052	STANDS	-0.12926126
-3.6943996	PERSONALITY	-0.15062273
-3.966797	PASSIONATE	-0.2484379
-3.5642447	WILLING	-0.40109617
-4.2156706	WILLINGNESS	-0.12926126
-4.488052	BOTTOM	-0.12926126
-4.073645	HEART	-0.12926126
-3.2555063	XXXST	-0.15702647
-4.349785	EAGER	-0.20497607
-3.4642348	QUALITY	-0.2788029
-4.073645	TRAVELS	-0.12926126
-3.646548	FASTER	-0.23285177
-3.6034496	LAUREN	-0.19596268
-3.809583	PLUS	-0.15306245
-3.966797	SOCIETY	-0.12926126
-4.2156706	ROLE	-0.12926126
-4.349785	MODEL	-0.20497607
-4.349785	DISPLAY	-0.12926126
-4.349785	DEMAND	-0.12926126
-4.349785	PROFIT	-0.12926126
-4.349785	SECONDLY	-0.12926126
-4.2156706	ORGANISATION	-0.20497607
-4.349785	FRY	-0.12926126
-4.073645	SOUP	-0.18477437
-4.349785	PREHEAT	-0.2484379
-3.6034496	MATTER	-0.21297772
-3.646548	CERTAIN	-0.16677484
-4.349785	CHARGE	-0.12926126
-3.6943996	WEEK	-0.2500797
-3.5642447	LARRY	-0.2029449
-3.6034496	TERRIBLE	-0.2313252
-4.2156706	ENCOUNTERED	-0.12926126
-3.5642447	POWER	-0.32157332
-4.073645	OUTAGE	-0.14338484
-3.408426	LEFT	-0.1705067
-3.4354346	OFF	-0.17739272
-4.073645	HEY	-0.14777614
-3.528288	MIKE	-0.15798329
-4.2156706	NEIGHBOURS	-0.12926126
-3.4642348	SPEAKING	-0.23809128
-3.809583	SPEAK	-0.17711824
-3.6943996	PROPOSE	-0.18704294
-3.7481837	MARRIED	-0.15798329
-4.2156706	WOMAN	-0.1654707
-3.7481837	SUPPOSED	-0.7386105
-4.488052	INFORMATIONS	-0.12926126
-3.220157	MIGHT	-0.27352113
-3.6034496	WATCH	-0.21983646
-4.073645	FORM	-0.12926126
-3.966797	GUIDANCE	-0.12926126
-4.073645	PARENT	-0.15062273
-4.488052	BRAVE	-0.12926126
-4.349785	EMERGENCIES	-0.12926126
-3.646548	REACH	-0.24898668
-4.349785	AFFECTING	-0.12926126
-3.809583	PACKAGE	-0.2089032
-3.4642348	OFFERS	-0.18790227
-4.488052	MEAL	-0.12926126
-4.488052	FREAK	-0.12926126
-4.349785	ARGUMENTS	-0.12926126
-4.488052	SOLVED	-0.12926126
-4.488052	PERSUADE	-0.12926126
-3.809583	FIRM	-0.18477437
-3.4950817	EASY	-0.3014573
-4.073645	IMPROVEMENT	-0.12926126
-4.2156706	NATURAL	-0.12926126
-4.488052	PLAINS	-0.12926126
-3.809583	RICE	-0.16010945
-4.349785	FIELDS	-0.12926126
-4.2156706	UPDATED	-0.12926126
-3.4642348	HIGH	-0.26576954
-3.4642348	DAYS	-0.18894298
-3.528288	FUN	-0.2189892
-4.2156706	BASKETBALL	-0.12926126
-4.488052	W	-0.12926126
-3.4354346	DOESNT	-0.25437042
-4.2156706	GRANDFATHER	-0.12926126
-3.6943996	STARTED	-0.22798213
-4.073645	PURSUE	-0.19678229
-4.073645	GRANDMOTHER	-0.12926126
-4.488052	LOVERS	-0.12926126
-3.6943996	READ	-0.21963601
-3.6943996	MOTHER	-0.15450391
-3.5642447	STORY	-0.17241041
-4.2156706	BEHIND	-0.12926126
-3.646548	HOLDEN	-0.14698872
-4.349785	ARRANGEMENT	-0.12926126
-3.809583	MANAGING	-0.16010945
-4.349785	PERFORMANCE	-0.12926126
-3.528288	HAD	-0.24261345
-4.488052	PREVIOUS	-0.12926126
-3.115125	EXPERIENCE	-0.23812878
-3.809583	MOUNTAINS	-0.14863679
-4.488052	SPECIES	-0.12926126
-3.966797	IMPRESSION	-0.21544063
-4.349785	MAID	-0.2484379
-4.488052	MANHATTAN	-0.12926126
-4.349785	JENNIFER	-0.12926126
-4.488052	UTILI	-0.12926126
-3.6943996	HIRE	-0.2903065
-3.220157	OVERSEAS	-0.40870917
-3.966797	ACCOMPLISHED	-0.1654707
-4.2156706	WORKED	-0.12926126
-4.488052	FINISHES	-0.12926126
-3.3362184	CONSIDER	-0.23327322
-3.809583	RENT	-0.1561314
-4.349785	RESPOND	-0.12926126
-3.966797	QUESTIONS	-0.17824401
-3.809583	CONCERN	-0.19678229
-4.2156706	GUARANTEE	-0.16010945
-3.3829994	GIVEN	-0.39430404
-3.8811145	DEPEND	-0.21134353
-4.2156706	COPE	-0.31264174
-4.349785	MISSED	-0.12926126
-4.488052	WORRIES	-0.12926126
-3.966797	TREAT	-0.1893234
-4.349785	TRIPTY	-0.12926126
-3.3589792	BUDGET	-0.30047387
-3.8811145	SCHEDULE	-0.16010945
-4.349785	DOCTORS	-0.12926126
-3.809583	DRUGS	-0.12926126
-3.5642447	PROMOTION	-0.20052007
-3.8811145	EARLIER	-0.16010945
-3.4354346	CREATE	-0.3552089
-4.488052	PARTIES	-0.12926126
-4.2156706	GREATER	-0.12926126
-4.2156706	DISCOUNT	-0.12926126
-4.488052	ELIGIBLE	-0.12926126
-3.7481837	INTERESTED	-0.25387293
-4.2156706	HEARING	-0.18477437
-4.349785	PASSING	-0.12926126
-3.809583	NON	-0.16010945
-4.349785	DEPENDANT	-0.2484379
-4.2156706	PIECES	-0.20497607
-3.646548	HISTORY	-0.2750949
-3.7481837	DAVAO	-0.18780175
-4.349785	C	-0.12926126
-3.809583	REGION	-0.12926126
-4.073645	RESERVATION	-0.12926126
-4.349785	REWARDS	-0.12926126
-4.488052	SHAKES	-0.12926126
-3.809583	DRINK	-0.14863679
-4.073645	AFFORDABLE	-0.12926126
-3.809583	PLOT	-0.19862422
-4.488052	AMBIANCE	-0.12926126
-3.7481837	KID	-0.1455991
-3.8811145	GENERATION	-0.20921065
-4.488052	ROB	-0.12926126
-4.073645	COMPARED	-0.43758047
-4.2156706	PERSPECTIVE	-0.20497607
-3.809583	STUFFS	-0.15306245
-3.8811145	RELATIVES	-0.15306245
-3.4354346	PARENTS	-0.19181302
-3.7481837	EARN	-0.2015443
-3.809583	WAIT	-0.24191274
-4.488052	PRIVILEDGES	-0.12926126
-3.966797	STRESSFUL	-0.12926126
-3.966797	LISTEN	-0.21134353
-4.2156706	WHOSE	-0.12926126
-4.073645	HUGE	-0.18477437
-3.4950817	FAST	-0.23087624
-3.3589792	MUST	-0.25125635
-3.809583	YA	-0.12926126
-4.349785	ASIDES	-0.12926126
-4.073645	HANG	-0.43758047
-4.488052	THEREE	-0.12926126
-4.073645	ACCOUNTING	-0.12926126
-4.488052	ACCOUNTANT	-0.12926126
-4.488052	BROUGHT	-0.12926126
-3.528288	TAKING	-0.20824625
-4.349785	DI	-0.12926126
-4.2156706	WEVE	-0.19331746
-3.8811145	DIFFERENCE	-0.12926126
-3.4950817	XXXERR	-0.16975002
-4.488052	BACHELORS	-0.12926126
-4.488052	MERRY	-0.12926126
-3.809583	FEELING	-0.12926126
-4.488052	TRAIL	-0.12926126
-4.488052	EXCITEMENT	-0.12926126
-3.8811145	WANNA	-0.12926126
-3.2939901	SHARE	-0.28436413
-4.488052	SIGNATE	-0.12926126
-3.966797	SMOKER	-0.12926126
-3.6034496	THEMSELVES	-0.2021857
-3.6034496	BECOME	-0.21192564
-4.488052	WEAK	-0.12926126
-4.349785	PRONE	-0.2484379
-4.349785	ENJ	-0.12926126
-4.349785	YOURSELVES	-0.12926126
-3.966797	CHATTING	-0.17308953
-4.488052	COCKTICAL	-0.12926126
-4.349785	DRINKS	-0.12926126
-4.488052	QUIETLY	-0.12926126
-4.2156706	TASKS	-0.12926126
-4.2156706	DUTIES	-0.20497607
-3.809583	CONSUME	-0.15306245
-3.6034496	APOLOGISE	-0.21884109
-4.073645	DELAY	-0.14698872
-3.408426	THOUGH	-0.22474061
-4.488052	FOSTER	-0.12926126
-4.488052	WIDE	-0.12926126
-4.2156706	VARIETY	-0.20497607
-4.488052	AMENITY	-0.12926126
-4.349785	SECURITIES	-0.12926126
-4.349785	REFRIGERATOR	-0.20497607
-3.8811145	COOK	-0.12926126
-4.488052	PAP	-0.12926126
-4.349785	THROWING	-0.12926126
-4.2156706	WASTE	-0.12926126
-3.966797	SHOULDNT	-0.22980061
-3.966797	WORRIED	-0.19331746
-3.3145912	YOULL	-0.33145007
-4.488052	T	-0.12926126
-4.488052	SPEAKS	-0.12926126
-4.488052	DISCIPLINE	-0.12926126
-4.488052	ORGANIZATIONS	-0.12926126
-3.408426	PUT	-0.26500767
-4.2156706	EFFORTS	-0.12926126
-4.349785	PROGRESS	-0.12926126
-3.646548	POINT	-0.19353664
-4.349785	SINCERE	-0.12926126
-4.488052	GRATEFULLY	-0.12926126
-3.966797	LIKELY	-0.12926126
-4.488052	BURN	-0.12926126
-4.349785	SLEEPY	-0.12926126
-4.488052	SLEEPINESS	-0.12926126
-4.2156706	WEEKS	-0.18477437
-3.528288	YEAR	-0.20470163
-4.488052	TIMING	-0.12926126
-4.349785	ADVANCING	-0.12926126
-3.646548	DEVELOP	-0.19753976
-4.488052	WEAPONS	-0.12926126
-4.349785	MASS	-0.12926126
-4.488052	DESTRUCTION	-0.12926126
-4.488052	ITD	-0.12926126
-4.349785	KILL	-0.12926126
-4.488052	OREINT	-0.12926126
-4.349785	ORIENTED	-0.12926126
-3.5642447	XXUH	-0.12926126
-4.349785	NORMALLY	-0.12926126
-3.966797	PLANT	-0.20497607
-4.073645	CROPS	-0.17308953
-3.1570709	XXXNA	-0.2186338
-3.4642348	ACTIVITIES	-0.17824401
-3.646548	CHOOSE	-0.24813785
-3.7481837	ATTITUDE	-0.16257566
-4.488052	CLEANLINESS	-0.12926126
-4.2156706	BEHAVIOR	-0.12926126
-4.2156706	HEARD	-0.18477437
-3.8811145	PROGRAMS	-0.18477437
-4.488052	EARNING	-0.12926126
-3.2035058	GETTING	-0.20591134
-4.2156706	RESOLVE	-0.12926126
-3.809583	THIRTY	-0.18222465
-4.488052	PERIODS	-0.12926126
-3.5642447	ASKING	-0.20262511
-4.2156706	UPTO	-0.12926126
-4.349785	CONSIDERATION	-0.12926126
-3.1720042	COUNTRIES	-0.24715097
-4.488052	RACES	-0.12926126
-4.488052	DIFF	-0.12926126
-4.488052	PHILOSOPHIES	-0.12926126
-4.488052	IGNORANCE	-0.12926126
-3.6943996	LAW	-0.17639613
-4.488052	EXCUSES	-0.12926126
-3.6034496	BENEFITS	-0.18477437
-4.488052	ARRANGING	-0.12926126
-3.8811145	ADDITIONAL	-0.20921065
-4.349785	FEES	-0.12926126
-3.809583	FLEXIBLE	-0.12926126
-4.488052	QUERIES	-0.12926126
-3.8811145	SYSTEM	-0.20921065
-4.073645	DIRECTLY	-0.17308953
-3.809583	AIRPORT	-0.12926126
-3.8811145	CATCH	-0.22032431
-3.966797	TORONTO	-0.17639613
-4.488052	PRESENTATIVE	-0.12926126
-3.809583	PRESENTATION	-0.2015443
-4.488052	AFF	-0.12926126
-4.488052	EIGHTY	-0.12926126
-4.073645	AFFECTS	-0.12926126
-3.8811145	DISADVANTAGE	-0.2404759
-4.2156706	BEGAN	-0.20497607
-3.142634	TOGETHER	-0.28560936
-4.488052	VIOLENCE	-0.12926126
-3.966797	SURROUNDED	-0.22980061
-3.8811145	FATHER	-0.14698872
-3.6034496	TOURIST	-0.16396286
-3.7481837	ELEMENTARY	-0.38743478
-4.349785	GUESS	-0.14169925
-4.2156706	RELIEVING	-0.20497607
-3.408426	STRESS	-0.20078698
-3.7481837	ACCIDENT	-0.16257566
-4.2156706	KINDA	-0.12926126
-4.488052	CUSHION	-0.12926126
-4.488052	BLOW	-0.12926126
-4.488052	RELATES	-0.12926126
-4.488052	OUTDOORS	-0.12926126
-3.966797	EQUIPMENT	-0.1654707
-4.488052	APPROVAL	-0.12926126
-3.966797	BOOKED	-0.19353664
-3.6943996	MONTHS	-0.32762608
-3.6943996	AGO	-0.22166774
-4.073645	INFORMED	-0.12926126
-4.2156706	BARBECUE	-0.12926126
-4.2156706	ISAO	-0.12926126
-4.349785	GRANDPARENTS	-0.12926126
-3.528288	MET	-0.1561314
-4.349785	MUNICIPALITY	-0.12926126
-4.488052	MOLAVE	-0.12926126
-4.488052	ZAMBOANGA	-0.12926126
-4.488052	DEL	-0.12926126
-4.349785	SUR	-0.12926126
-3.528288	TOLD	-0.2930364
-4.349785	DATE	-0.12926126
-4.488052	CUTE	-0.12926126
-3.809583	PROBABLY	-0.12926126
-3.8811145	MAJOR	-0.18222465
-4.073645	TOOL	-0.18477437
-3.966797	INTERACT	-0.35595587
-4.2156706	ETC	-0.12926126
-3.7481837	MIND	-0.18130493
-4.488052	ENABLED	-0.12926126
-4.349785	BATH	-0.12926126
-4.488052	CONSIDERABLE	-0.12926126
-4.073645	ELECTRICITY	-0.12926126
-4.073645	MAIN	-0.14338484
-4.349785	MEDIUMS	-0.12926126
-3.1570709	MAYBE	-0.23192854
-4.2156706	MIXED	-0.20497607
-3.4642348	MANAGE	-0.21208052
-4.073645	WALKING	-0.16010945
-3.4354346	LOCAL	-0.2351786
-3.809583	FARM	-0.14338484
-3.4354346	PICK	-0.20824625
-3.966797	FRUIT	-0.17824401
-3.7481837	PRODUCTIVE	-0.29218668
-3.809583	NOTHING	-0.14698872
-3.7481837	ASKED	-0.20052007
-4.488052	YESTERDAY	-0.12926126
-4.073645	WATCHED	-0.12926126
-4.349785	DANGERS	-0.12926126
-3.8811145	LETTING	-0.21134353
-3.4642348	INTERNET	-0.20974293
-4.488052	UNSUPERVISED	-0.12926126
-4.488052	PORNOGRAPHY	-0.12926126
-4.488052	SEXUAL	-0.12926126
-4.488052	PREDATORS	-0.12926126
-4.488052	SORTS	-0.12926126
-3.7481837	SICK	-0.18477437
-4.2156706	WEATHER	-0.12926126
-4.2156706	SUDDENLY	-0.12926126
-4.488052	COUNTERPART	-0.12926126
-3.966797	CREATING	-0.17308953
-3.4354346	JOBS	-0.16257566
-4.349785	RAINED	-0.18477437
-3.6943996	DIDNT	-0.18968573
-4.073645	NOTICE	-0.12926126
-3.5642447	LOST	-0.18131828
-3.8811145	HOPING	-0.27147684
-4.2156706	CENTER	-0.1561314
-4.349785	COMMERCIAL	-0.12926126
-3.5642447	MANILA	-0.20388319
-3.966797	BESIDES	-0.12926126
-3.4950817	BIG	-0.1876645
-4.349785	AMENITIES	-0.12926126
-3.3829994	SKILLS	-0.29347515
-4.488052	TRAINED	-0.12926126
-4.073645	WONDERFUL	-0.12926126
-4.488052	COLOUR	-0.12926126
-4.488052	GROUNDS	-0.12926126
-4.349785	POLITE	-0.12926126
-4.488052	JUICE	-0.12926126
-4.488052	ICE	-0.12926126
-4.349785	CREAM	-0.12926126
-3.809583	AGENCY	-0.17273888
-3.966797	OPENING	-0.12926126
-4.2156706	DISTURB	-0.19331746
-3.6943996	RUN	-0.17021681
-3.3145912	SIDE	-0.19041811
-4.073645	EXPLAINING	-0.12926126
-4.488052	RECEPTIONIST	-0.12926126
-3.7481837	REQUEST	-0.22032431
-4.073645	SECONDS	-0.35595587
-4.2156706	RESPONSE	-0.12926126
-4.073645	SIXTY	-0.25904587
-4.349785	NECESSITIES	-0.2484379
-3.809583	MEDICINES	-0.18477437
-3.408426	BUSINESSES	-0.33511594
-4.2156706	OPERATE	-0.20497607
-3.5642447	EIGHT	-0.1654707
-3.4642348	LIVES	-0.19186081
-3.6943996	VISITING	-0.15062273
-4.2156706	CORE	-0.12926126
-4.349785	SMOKES	-0.12926126
-4.349785	CHEAPEST	-0.12926126
-3.7481837	THIRD	-0.14863679
-3.8811145	APPLICATION	-0.17308953
-4.349785	THATSS	-0.12926126
-4.488052	URGENTLY	-0.12926126
-3.6943996	PARTNER	-0.19678229
-4.349785	PROTECT	-0.12926126
-3.220157	KIDS	-0.25257188
-4.2156706	SACRIFICE	-0.12926126
-4.488052	RETURNED	-0.12926126
-4.2156706	GOVERNMENTS	-0.12926126
-4.488052	VENDORS	-0.12926126
-4.349785	ORDERS	-0.12926126
-3.5642447	BUSY	-0.12926126
-4.488052	GOLF	-0.12926126
-3.8811145	IMMEDIATELY	-0.19862422
-3.966797	FACT	-0.18477437
-4.349785	RELATED	-0.12926126
-4.488052	ESTIMATE	-0.12926126
-4.349785	ESTIMATED	-0.2484379
-4.488052	REPAIR	-0.12926126
-3.809583	YET	-0.12926126
-4.488052	CAUSING	-0.12926126
-4.349785	RELATIVE	-0.12926126
-4.488052	COUSINS	-0.12926126
-4.488052	STADIUM	-0.12926126
-3.966797	AFFORD	-0.37592864
-4.488052	DISCOURAGED	-0.12926126
-3.809583	SINGLE	-0.14863679
-4.2156706	SAW	-0.17308953
-4.488052	STARING	-0.12926126
-4.349785	GUARDS	-0.12926126
-3.4642348	COST	-0.20824625
-3.809583	EFFECTIVE	-0.12926129
-3.4642348	FRIENDLY	-0.30697864
-4.2156706	PLENTY	-0.31264174
-4.488052	INVENTORY	-0.12926126
-4.073645	INCLUDING	-0.12926126
-3.6943996	PHILIPPINES	-0.1823625
-3.809583	SEVEN	-0.12926126
-3.6943996	THOUSAND	-0.14863679
-4.2156706	ISLANDS	-0.20497607
-4.073645	HURT	-0.18477437
-3.966797	LOSS	-0.17308953
-3.6943996	INTEGRITY	-0.14863679
-3.8811145	WORDS	-0.1654707
-3.8811145	LIGHT	-0.1561314
-3.809583	REMEMBER	-0.17308953
-4.2156706	DISNEYLAND	-0.20497607
-3.7481837	AMAZING	-0.16836607
-3.809583	SHIFT	-0.27829033
-3.6034496	INCOME	-0.16836607
-3.966797	BASIC	-0.12926126
-3.8811145	ANTIPOLO	-0.20921065
-3.7481837	FISH	-0.15062273
-4.349785	SETTING	-0.12926126
-4.349785	STANDARD	-0.20497607
-4.349785	PRECISION	-0.12926126
-4.488052	ACCURACY	-0.12926126
-4.488052	RESORT	-0.12926126
-4.488052	WATERS	-0.12926126
-4.488052	MOUNT	-0.12926126
-4.488052	MAKILING	-0.12926126
-4.2156706	UPON	-0.12926126
-4.2156706	RESEARCH	-0.12926126
-3.966797	DOGS	-0.17308953
-4.488052	SANDWICHES	-0.12926126
-4.2156706	DOOR	-0.12926126
-4.349785	LOCKED	-0.12926126
-3.646548	PROPERLY	-0.19353664
-3.7481837	SHOW	-0.17241041
-4.2156706	SAKE	-0.12926126
-3.4642348	COLLEGE	-0.2029449
-3.220157	SIR	-0.23607606
-4.073645	DISCUSS	-0.1654707
-4.2156706	POOL	-0.12926126
-4.488052	UNDERNEATH	-0.12926126
-4.2156706	REFRESH	-0.12926126
-4.2156706	EXACT	-0.12926126
-4.2156706	SCIENCE	-0.18477437
-3.966797	TEACHER	-0.12926126
-3.966797	WIND	-0.22980061
-4.488052	SURFING	-0.12926126
-3.7481837	MARRIAGE	-0.20921065
-4.2156706	MAXIMUM	-0.1654707
-4.488052	HOPES	-0.12926126
-4.488052	STICK	-0.12926126
-4.488052	ENEMY	-0.12926126
-4.488052	VILLAIN	-0.12926126
-4.488052	SAITAMA	-0.12926126
-4.2156706	EARLY	-0.12926126
-3.6943996	NEIGHBOURHOOD	-0.18982573
-3.4642348	AMOUNT	-0.3888926
-4.349785	EMBRACE	-0.12926126
-4.488052	CATERING	-0.12926126
-4.2156706	ACHIEVEMENTS	-0.12926126
-4.488052	PROJ	-0.12926126
-4.2156706	GLADLY	-0.12926126
-4.488052	PROPOSED	-0.12926126
-4.073645	MAJORITY	-0.18477437
-4.349785	FAIRLY	-0.12926126
-3.7481837	TURN	-0.12926126
-3.7481837	ISSUE	-0.1802429
-4.349785	RESOLVED	-0.20497607
-3.8811145	CONVENIENT	-0.18780175
-3.966797	POINTS	-0.12926126
-3.809583	TELLING	-0.19862422
-3.809583	BILINGUAL	-0.21963601
-3.4642348	PROGRAM	-0.21859197
-3.966797	LEADERS	-0.20497607
-4.073645	NATION	-0.12926126
-4.2156706	SHOP	-0.12926126
-4.073645	PARTY	-0.12926126
-3.966797	POPULAR	-0.16010945
-3.6034496	SPECIAL	-0.14863679
-4.349785	FRIED	-0.12926126
-4.2156706	AFTERNOON	-0.12926126
-3.809583	SAD	-0.18477437
-4.073645	MESS	-0.18477437
-4.2156706	STREETS	-0.17308953
-4.073645	FRONT	-0.17308953
-4.2156706	SLOW	-0.12926126
-3.966797	COULDNT	-0.12926129
-3.7481837	GOES	-0.20052007
-4.349785	RYAN	-0.15062273
-4.488052	FIRSTLY	-0.12926126
-3.809583	AGENT	-0.19118267
-4.073645	TEACHERS	-0.12926126
-3.966797	MS	-0.17308953
-4.488052	OLSEN	-0.12926126
-3.7481837	EASIER	-0.25496814
-3.4950817	EVER	-0.15306243
-4.073645	MUSEUM	-0.12926126
-4.2156706	MAKATI	-0.12926126
-4.488052	YALLAH	-0.12926126
-4.488052	GUADALUPE	-0.12926126
-4.488052	PEMBO	-0.12926126
-3.646548	TEACH	-0.23269175
-4.349785	STRETCHING	-0.12926126
-4.488052	SQUAT	-0.12926126
-4.2156706	YOGA	-0.12926126
-4.349785	ZUMBA	-0.12926126
-3.809583	REMIND	-0.19862422
-3.6943996	ADVERTISING	-0.12926126
-3.6943996	KNOWN	-0.19596268
-3.966797	CINNIGONG	-0.12926126
-3.809583	INGREDIENTS	-0.19331746
-4.488052	RESTING	-0.12926126
-4.488052	COCO	-0.12926126
-4.488052	CANCEL	-0.12926126
-4.073645	CELLULAR	-0.20497607
-3.8811145	NETWORK	-0.1455991
-3.8811145	CONNECTION	-0.1561314
-3.528288	CAME	-0.22598723
-4.2156706	ACCOUNTS	-0.12926126
-3.528288	EATING	-0.12926129
-4.488052	VEGE	-0.12926126
-3.7481837	VEGETABLES	-0.1893234
-4.488052	INTROMIROS	-0.12926126
-4.488052	CORIDOR	-0.12926126
-4.488052	CHATRE	-0.12926126
-4.073645	PREFER	-0.12926126
-4.488052	COMPETENCIES	-0.12926126
-4.488052	SHORTCUT	-0.12926126
-4.2156706	DIVERSION	-0.31264174
-4.349785	USA	-0.12926126
-4.488052	CITIZENSHIP	-0.12926126
-3.7481837	LEAD	-0.15306245
-4.349785	POPULATED	-0.12926126
-4.488052	TEACHES	-0.12926126
-4.488052	FAME	-0.12926126
-4.073645	LOYALTY	-0.12926126
-4.073645	FRIENDSHIP	-0.18477437
-3.4642348	MAAM	-0.18342265
-4.488052	UNDIS	-0.12926126
-3.966797	KNOWING	-0.17308953
-3.646548	ENJOYING	-0.16891727
-4.349785	CHILDS	-0.12926126
-3.966797	POOR	-0.20497607
-3.5642447	LOTS	-0.6769586
-3.8811145	STABLE	-0.18222465
-4.488052	ARAB	-0.12926126
-4.488052	ADVANCED	-0.12926126
-4.488052	TUTORIALS	-0.12926126
-4.488052	SUPER	-0.12926126
-4.2156706	HOSPITABLE	-0.12926126
-4.488052	SOMEPLACE	-0.12926126
-3.5642447	HAND	-0.15798329
-3.966797	CHALLENGE	-0.12926126
-4.488052	CONFUSIONS	-0.12926126
-4.073645	TERMS	-0.22184253
-4.349785	SEMINAR	-0.12926126
-3.6943996	WET	-0.17308953
-4.488052	SOAKED	-0.12926126
-3.809583	RAIN	-0.16343081
-4.2156706	CONFUSION	-0.12926126
-3.3145912	S	-0.14837366
-4.2156706	TOOK	-0.20497607
-3.4354346	RATHER	-0.2615204
-3.966797	ABILITY	-0.23504445
-4.488052	HARMONY	-0.12926126
-4.2156706	ADD	-0.12926126
-4.349785	BASE	-0.12926126
-4.349785	COURAGE	-0.12926126
-4.073645	PAST	-0.15062273
-4.073645	TELLS	-0.35595587
-3.528288	LAST	-0.33100313
-4.488052	BLOOM	-0.12926126
-3.4354346	LOWER	-0.31271353
-3.966797	PHILIPPINO	-0.15306245
-3.6943996	MORGAN	-0.16257566
-4.488052	DANIEL	-0.12926126
-3.809583	AREAS	-0.12926126
-4.2156706	DINAKDAHAN	-0.20497607
-3.6034496	ADOBO	-0.1997384
-4.488052	DISAPPOINT	-0.12926126
-4.349785	SUSTAIN	-0.12926126
-4.488052	SPOTS	-0.12926126
-4.2156706	XXXER	-0.12926126
-4.488052	BATANAS	-0.12926126
-4.073645	BEGIN	-0.18477437
-4.488052	KEY	-0.12926126
-3.7481837	RESOURCES	-0.14863679
-4.349785	SOURCE	-0.20497607
-4.073645	CAMPAIGN	-0.12926126
-4.2156706	SKILL	-0.12926126
-3.809583	LEARNED	-0.18477437
-4.349785	DIFFICULTY	-0.12926126
-4.2156706	SUBJECTS	-0.12926126
-4.488052	CONTACTS	-0.12926126
-3.3829994	SPECIFIC	-0.16419464
-4.488052	BARS	-0.12926126
-3.966797	TYPES	-0.22980061
-4.2156706	LOCATIONS	-0.12926126
-3.646548	PLANNED	-0.18300761
-3.7481837	RESCHEDULE	-0.2862334
-3.809583	SPENT	-0.16891727
-3.6034496	WEEKEND	-0.19684806
-4.488052	PREVENTED	-0.12926126
-3.809583	END	-0.12926129
-3.6943996	UNEMPLOYED	-0.23261791
-3.809583	CON	-0.16010945
-4.349785	ACCIDENTALLY	-0.12926126
-4.488052	DROPPED	-0.12926126
-4.349785	BASKET	-0.12926126
-4.488052	GREET	-0.12926126
-4.488052	PLEASED	-0.12926126
-4.2156706	THEIRSELF	-0.20497607
-4.349785	BORED	-0.12926126
-4.488052	TS	-0.12926126
-4.073645	WIN	-0.16010945
-3.8811145	INTEREST	-0.19331746
-3.966797	SELL	-0.1654707
-4.349785	BREAD	-0.2484379
-3.8811145	UNEMPLOYMENT	-0.16010945
-3.966797	INDIVIDUAL	-0.12926126
-4.349785	AMUSE	-0.12926126
-4.488052	XXXUHT	-0.12926126
-4.073645	SOLVE	-0.21134353
-3.966797	POVERTY	-0.12926126
-4.488052	NEGOTIATE	-0.12926126
-3.8811145	NICK	-0.21134353
-4.2156706	NORMAL	-0.12926126
-4.488052	SIZE	-0.12926126
-3.7481837	REDUCE	-0.33608466
-3.966797	ADVISE	-0.1654707
-4.2156706	SERVED	-0.12926126
-4.488052	PRESENCE	-0.12926126
-4.073645	FILE	-0.18477437
-3.528288	HEAVY	-0.21213128
-4.349785	SAMPLE	-0.12926126
-3.966797	STARTING	-0.17308953
-4.073645	PETS	-0.12926126
-4.073645	BONFIRE	-0.20497607
-4.2156706	BORN	-0.12926126
-4.073645	FIRE	-0.2484379
-3.966797	GARDEN	-0.22032431
-4.488052	RAISED	-0.12926126
-4.2156706	ACCOMPLISHMENTS	-0.12926126
-4.488052	ACCOMPLISHING	-0.12926126
-3.646548	INCREASE	-0.23372899
-4.2156706	MOMS	-0.18477437
-4.488052	PEDIATRICIAN	-0.12926126
-3.966797	POLLUTION	-0.22980061
-3.8811145	NOISE	-0.21134353
-3.528288	TRAFFIC	-0.17308953
-3.646548	PASSED	-0.18477437
-3.6943996	PEACE	-0.20989059
-4.488052	HARDCORE	-0.12926126
-4.488052	MERCILESS	-0.12926126
-3.8811145	CLOTHES	-0.12926126
-3.966797	RURAL	-0.1654707
-3.528288	BENEFIT	-0.24898668
-4.073645	CONSIDERATE	-0.12926126
-3.6034496	SALARY	-0.18222465
-4.073645	ACCORDING	-0.43758047
-4.488052	FRESHER	-0.12926126
-3.966797	CONTACT	-0.20497607
-4.488052	TREK	-0.12926126
-4.488052	SUMMIT	-0.12926126
-4.349785	FLAT	-0.12926126
-4.488052	WATERFALLS	-0.12926126
-3.6943996	MISS	-0.1652298
-4.488052	OTHERWISE	-0.12926126
-4.488052	ASSUME	-0.12926126
-3.8811145	ACCOMPLISHMENT	-0.15306245
-4.073645	FORGOT	-0.19331746
-4.488052	EAGERLY	-0.12926126
-4.349785	RUSHING	-0.12926126
-3.3589792	RIDING	-0.38916537
-3.8811145	BUS	-0.18780175
-4.349785	KINDS	-0.2484379
-4.488052	DESTINATIONS	-0.12926126
-4.488052	LABEL	-0.12926126
-4.349785	PLAYGROUND	-0.12926126
-4.073645	BESIDE	-0.12926126
-3.1874695	LIVING	-0.24959971
-4.349785	URBAN	-0.12926126
-3.528288	SOMETIMES	-0.18658826
-4.2156706	RESULT	-0.12926126
-3.646548	PLATFORM	-0.17824401
-3.8811145	MOVING	-0.1654707
-4.2156706	FORWARD	-0.15062273
-3.6943996	ALTHOUGH	-0.20497607
-4.488052	OVERWHELMED	-0.12926126
-3.809583	QUALIFICATION	-0.19862422
-4.488052	IMPLEMENTED	-0.12926126
-3.809583	GUY	-0.12926126
-4.349785	GROOM	-0.12926126
-4.488052	DOMINANT	-0.12926126
-4.488052	ACCOMPANY	-0.12926126
-4.488052	COUCH	-0.12926126
-3.966797	PET	-0.1654707
-3.4950817	BRING	-0.17485514
-3.809583	METRO	-0.20921065
-4.073645	DIVISION	-0.18477437
-3.809583	SUMMER	-0.2192114
-4.488052	SESS	-0.12926126
-4.349785	SESSION	-0.12926126
-3.6034496	FINDING	-0.39491886
-4.073645	TEMPORARY	-0.17308953
-4.349785	VEGAN	-0.12926126
-4.349785	MICROSOFT	-0.12926126
-3.8811145	SPECIFICALLY	-0.20497607
-4.349785	EXCEL	-0.12926126
-3.809583	WRITING	-0.22032431
-4.488052	BOOKKEEPING	-0.12926126
-4.349785	EXCUSE	-0.12926126
-3.809583	WRONG	-0.12926126
-4.488052	RESERVE	-0.12926126
-4.488052	HORIZON	-0.12926126
-4.488052	OLDEST	-0.12926126
-4.349785	CATHEDRAL	-0.12926126
-3.8811145	STANDING	-0.1654707
-4.488052	CONFERENCE	-0.12926126
-4.2156706	LONDON	-0.16010945
-4.488052	BLESS	-0.12926126
-4.488052	MELAGOSE	-0.12926126
-4.488052	CHALLENGING	-0.12926126
-4.073645	EMERGING	-0.25904587
-4.073645	ECONOMIES	-0.12926126
-4.349785	XXUXM	-0.12926126
-3.4642348	XXUM	-0.15450391
-4.2156706	COWORKERS	-0.12926126
-4.2156706	WORKMATES	-0.12926126
-3.6943996	COLLEAGUES	-0.20052007
-4.488052	UNDERSTANDABLE	-0.12926126
-3.646548	LANGUAGES	-0.15062273
-3.7481837	ATTENTION	-0.14863679
-3.809583	LABORATORY	-0.17308953
-3.646548	ASSISTANCE	-0.17241041
-4.073645	ASSIST	-0.22980061
-4.349785	STEAM	-0.12926126
-4.073645	PORK	-0.12926126
-3.809583	CUT	-0.12926126
-4.349785	PIECE	-0.12926126
-4.349785	SALT	-0.12926126
-4.2156706	ONIONS	-0.20497607
-4.073645	VINEGAR	-0.12926126
-3.966797	CONFIDENCE	-0.12926126
-3.966797	FINISHING	-0.17308953
-4.2156706	PRICING	-0.12926126
-4.349785	VALUABLE	-0.12926126
-4.488052	HATES	-0.12926126
-4.488052	DATING	-0.12926126
-4.2156706	ACCEPTED	-0.12926126
-4.2156706	APPRECIATED	-0.20497607
-4.349785	TITANIC	-0.12926126
-4.349785	SHOWING	-0.12926126
-4.488052	GROWS	-0.12926126
-4.2156706	SORT	-0.20497607
-3.966797	ANYTIME	-0.17308953
-4.2156706	PLANE	-0.17308953
-4.2156706	CHALLENGES	-0.14698872
-3.809583	DIFFICULT	-0.19331746
-4.2156706	FLUENT	-0.17308953
-4.488052	INDE	-0.12926126
-4.349785	INDEPENDENT	-0.12926126
-3.3829994	FIVE	-0.1810525
-4.073645	NEEDING	-0.20921065
-4.2156706	COOPERATION	-0.12926126
-4.349785	DISAGREE	-0.12926126
-3.4354346	COMING	-0.26207042
-4.2156706	SPREAD	-0.18477437
-4.488052	MALANDOSE	-0.12926126
-3.4950817	ASIDE	-0.7069219
-3.966797	HIRED	-0.16010945
-4.349785	HONESTLY	-0.12926126
-4.488052	ACKNOWLEDGING	-0.12926126
-4.2156706	LISTENING	-0.25904587
-4.073645	PARTNERS	-0.1654707
-4.2156706	GADGETS	-0.12926126
-4.2156706	RECREATIONAL	-0.31264174
-4.488052	LIFESTYLES	-0.12926126
-4.488052	PICKS	-0.12926126
-4.2156706	INPUT	-0.12926126
-3.809583	IDEAS	-0.18300761
-3.528288	WHETHER	-0.23809128
-3.6034496	ROSE	-0.14698872
-4.2156706	ADOPT	-0.18477437
-3.8811145	ALMOST	-0.12926126
-4.2156706	DONORS	-0.12926126
-4.488052	AWARDED	-0.12926126
-4.488052	ROUGHLY	-0.12926126
-4.488052	BOLEN	-0.12926126
-4.488052	BOULANSORSHIGAN	-0.12926126
-3.7481837	CAPABLE	-0.24191274
-4.349785	CHARACTERISTICS	-0.20497607
-4.2156706	TRAITS	-0.12926126
-4.488052	GARBAGE	-0.12926126
-4.349785	BREADWINNER	-0.12926126
-3.8811145	HIT	-0.1654707
-4.349785	WING	-0.12926126
-3.966797	DESK	-0.1561314
-3.966797	GAVE	-0.2404759
-4.349785	ACCURATE	-0.12926126
-4.349785	XXXH	-0.12926126
-4.349785	DESIRE	-0.12926126
-3.3829994	OPPORTUNITIES	-0.37755644
-4.073645	ENHANCE	-0.12926126
-3.809583	GETS	-0.16010945
-4.349785	PROVE	-0.16010945
-4.073645	PROMOTIONS	-0.12926126
-3.8811145	DISCOUNTS	-0.1654707
-3.6943996	PACKAGES	-0.25309235
-3.7481837	CURRENTLY	-0.12926126
-4.488052	HEATER	-0.12926126
-4.2156706	ORGANIZATION	-0.12926126
-3.809583	RAISING	-0.27829033
-4.349785	COORDINATOR	-0.12926126
-4.349785	FORBIDDING	-0.20497607
-3.7481837	HELPFUL	-0.25387293
-4.073645	OPERATION	-0.19331746
-4.349785	MAXIMISE	-0.12926126
-4.488052	TERRAIN	-0.12926126
-4.488052	VEGETATION	-0.12926126
-4.349785	DETERMINED	-0.12926126
-4.2156706	ACCOMMODATE	-0.12926126
-4.2156706	FORBID	-0.12926126
-4.073645	APOLOGIZE	-0.12926126
-3.8811145	ADVANCE	-0.16010945
-4.349785	FOLLOWED	-0.12926126
-4.349785	DISCOVERING	-0.12926126
-4.073645	APPROACH	-0.12926126
-4.349785	TOUCHES	-0.2484379
-4.349785	DESTROYS	-0.12926126
-4.2156706	RELATIONSHIPS	-0.20497607
-4.073645	SPOT	-0.12926126
-4.349785	WISE	-0.12926126
-4.349785	FORBIDDEN	-0.12926126
-4.2156706	DOLLAR	-0.12926126
-4.488052	RUNS	-0.12926126
-4.488052	INCLUDE	-0.12926126
-4.2156706	SOMEWHAT	-0.12926126
-4.488052	FELT	-0.12926126
-3.966797	SUBJECT	-0.172102
-4.2156706	AFFECTED	-0.12926126
-4.2156706	RELEASE	-0.12926126
-3.7481837	SAYING	-0.33628225
-4.349785	COMPA	-0.12926126
-4.2156706	KEEPS	-0.12926126
-4.073645	FULL	-0.12926126
-4.2156706	SOMETIME	-0.1654707
-3.809583	TEXT	-0.19862422
-4.488052	CLARISSA	-0.12926126
-4.349785	ANSWERED	-0.12926126
-4.349785	BI	-0.12926126
-4.073645	PHARMACEUTICAL	-0.43758047
-4.488052	SEATTLE	-0.12926126
-3.966797	DEVELOPED	-0.22184253
-3.966797	FORMULA	-0.19331746
-4.073645	WAKE	-0.43758047
-4.488052	KISS	-0.12926126
-4.488052	HUG	-0.12926126
-4.488052	SUBURBAN	-0.12926126
-4.349785	HAPPIER	-0.12926126
-4.488052	MURZAMECHANFEL	-0.12926126
-4.488052	DEST	-0.12926126
-4.488052	CARRYING	-0.12926126
-4.488052	VERSION	-0.12926126
-4.2156706	CRY	-0.12926126
-4.488052	MAYHEM	-0.12926126
-4.349785	RESIDING	-0.2484379
-3.7481837	CAMPUS	-0.16010945
-4.488052	ASTHMA	-0.12926126
-4.488052	BOTHER	-0.12926126
-4.073645	PLATFORMS	-0.12926126
-4.349785	NANNY	-0.12926126
-4.2156706	PUTTING	-0.12926126
-4.073645	RELIGIONS	-0.12926126
-4.488052	YEP	-0.12926126
-4.349785	EXPERT	-0.12926126
-3.809583	PERFECT	-0.19331746
-3.809583	UNFORTUNATELY	-0.26719603
-3.646548	NEEDED	-0.19353664
-4.349785	INCREASED	-0.12926126
-4.073645	UN	-0.12926126
-3.966797	WHEREVER	-0.22980061
-4.488052	WARMED	-0.12926126
-3.4642348	NEVER	-0.16862957
-4.488052	GRIM	-0.12926126
-4.488052	GRIMMER	-0.12926126
-4.488052	PASSION	-0.12926126
-4.349785	CHRIST	-0.12926126
-3.809583	SPACE	-0.14698872
-4.488052	DONATION	-0.12926126
-4.488052	CONCERT	-0.12926126
-4.488052	GOVERNMEN	-0.12926126
-4.349785	DRIBBLE	-0.12926126
-3.966797	TROUBLE	-0.12926126
-4.349785	UNFORGETTABLE	-0.12926126
-4.2156706	XXXBGN	-0.12926126
-4.349785	FLEXIBILITY	-0.12926126
-3.966797	BODY	-0.12926126
-4.2156706	ADDRESS	-0.12926126
-4.073645	NATIVE	-0.25904587
-3.408426	THINKING	-0.34907818
-4.073645	REPLACE	-0.12926126
-4.349785	SUPPLIES	-0.20497607
-4.073645	KNEW	-0.20497607
-4.488052	TRAVELLED	-0.12926126
-4.488052	PERSONA	-0.12926126
-3.6034496	PRODUCT	-0.19345136
-4.488052	MABALACAT	-0.12926126
-4.488052	BARANGAYES	-0.12926126
-4.2156706	TOUCHING	-0.12926126
-4.488052	MEANINGFUL	-0.12926126
-4.349785	COMMUNICATIONS	-0.12926126
-4.2156706	USBS	-0.31264174
-4.073645	ANYWAY	-0.18477437
-4.2156706	SAND	-0.12926126
-3.646548	BEACHES	-0.14698872
-4.488052	COSY	-0.12926126
-4.488052	BALCONY	-0.12926126
-4.488052	ROOFTOP	-0.12926126
-4.2156706	REGARDS	-0.25904587
-4.349785	BRAIN	-0.12926126
-4.488052	ALTEAST	-0.12926126
-4.488052	INVESTIGATION	-0.12926126
-4.488052	SERIOUS	-0.12926126
-4.488052	REFERENCES	-0.12926126
-4.073645	MEETINGS	-0.12926126
-4.349785	ASSIGN	-0.12926126
-3.966797	READY	-0.20497607
-4.2156706	POSITIONS	-0.12926126
-4.349785	CATER	-0.12926126
-4.073645	GROUP	-0.12926126
-4.073645	USEFUL	-0.12926126
-4.488052	CONSTRAINTS	-0.12926126
-4.488052	DESCENT	-0.12926126
-3.809583	SHAWN	-0.16010945
-4.349785	GANGNUM	-0.12926126
-4.349785	STYLE	-0.12926126
-3.8811145	RESTAURANT	-0.12926126
-3.4354346	CHINA	-0.16174121
-4.2156706	LOVES	-0.12926126
-4.349785	MILK	-0.12926126
-4.073645	LEADER	-0.18222465
-4.349785	CREDIBILITY	-0.12926126
-4.349785	PROJECTS	-0.12926126
-4.2156706	PROMISE	-0.12926126
-4.349785	MASSAGE	-0.12926126
-4.488052	DRESS	-0.12926126
-4.2156706	CORPORATE	-0.12926126
-4.073645	COVER	-0.22980061
-3.966797	HASSLE	-0.12926126
-3.6034496	TWENTY	-0.21802072
-3.966797	SERVE	-0.16010945
-3.6943996	GIVES	-0.25580925
-4.2156706	RESPECTFUL	-0.12926126
-3.809583	PARTICULAR	-0.12926126
-4.488052	INFLICTED	-0.12926126
-4.488052	SUFFICIENT	-0.12926126
-4.349785	GUIDED	-0.12926126
-3.4642348	USED	-0.35751408
-3.6034496	PRODUCTS	-0.22592592
-4.488052	LEGAL	-0.12926126
-4.488052	SONS	-0.12926126
-4.488052	CUSTODY	-0.12926126
-3.7481837	ACCOMPLISH	-0.15062273
-4.2156706	COWORKER	-0.12926126
-4.349785	SA	-0.12926126
-4.488052	DESERVING	-0.12926126
-3.8811145	HOPEFULLY	-0.16010945
-4.488052	FOOL	-0.12926126
-4.2156706	ITLL	-0.20497607
-4.488052	MENTALLY	-0.12926126
-3.966797	FINANCIALLY	-0.21134353
-4.073645	EXPERIENCES	-0.22980061
-4.488052	URGENCY	-0.12926126
-3.966797	FLY	-0.16010945
-4.488052	BIKES	-0.12926126
-4.349785	ENJOYABLE	-0.2484379
-3.966797	ACCIDENTS	-0.1654707
-4.073645	CLASS	-0.12926126
-4.073645	DISTANCE	-0.12926126
-4.488052	PROFICIENT	-0.12926126
-4.349785	STARTS	-0.12926126
-4.073645	RAINING	-0.17308953
-4.073645	CONGRATULATIONS	-0.17308953
-3.966797	RECENT	-0.255481
-4.488052	SUPPLY	-0.12926126
-3.8811145	HIRING	-0.16010945
-3.6943996	PROVIDING	-0.24465269
-3.8811145	NINE	-0.1561314
-4.073645	ZERO	-0.2484379
-4.349785	SHOT	-0.12926126
-4.488052	HOSAIR	-0.12926126
-4.488052	ISAL	-0.12926126
-3.7481837	BETWEEN	-0.22032431
-4.488052	IMPROVED	-0.12926126
-4.073645	COMMODITY	-0.12926126
-4.488052	COSTLY	-0.12926126
-3.966797	B	-0.12926126
-3.7481837	CHOOSING	-0.20921065
-3.5642447	HES	-0.15798329
-4.349785	VISITS	-0.12926126
-4.488052	REMAINING	-0.12926126
-3.966797	SAVING	-0.12926126
-3.966797	RELAXING	-0.12926126
-4.488052	MENTAL	-0.12926126
-4.349785	PAPERS	-0.2484379
-4.488052	COPY	-0.12926126
-4.349785	FURNITURE	-0.12926126
-4.2156706	CHOICES	-0.12926126
-4.488052	PROVIDES	-0.12926126
-4.349785	VEGETABLE	-0.12926126
-4.2156706	FAMILIAR	-0.20497607
-4.349785	TYPICAL	-0.12926126
-4.2156706	ENTRY	-0.25904587
-3.8811145	LEVEL	-0.12926126
-4.488052	YOUTHS	-0.12926126
-4.2156706	TEENAGERS	-0.12926126
-4.349785	ADULTS	-0.18477437
-4.073645	NANNIES	-0.12926126
-4.2156706	NEIGHBOUR	-0.1654707
-4.488052	NEIGH	-0.12926126
-4.073645	SPAN	-0.35595587
-4.488052	MUFFINS	-0.12926126
-4.073645	TABLE	-0.1654707
-3.528288	UNDER	-0.22256386
-3.6034496	SHARING	-0.14441149
-4.488052	SMILES	-0.12926126
-4.488052	PRAY	-0.12926126
-4.488052	CHEATS	-0.12926126
-3.966797	PRODUCING	-0.12926126
-4.349785	REALISED	-0.12926126
-4.349785	BLESSED	-0.12926126
-3.809583	REALISE	-0.2313252
-4.488052	LUCKY	-0.12926126
-4.349785	LIT	-0.12926126
-3.966797	CIGARETTE	-0.12926126
-4.488052	DISPOSED	-0.12926126
-4.488052	IMPROPERLY	-0.12926126
-4.488052	CLIMB	-0.12926126
-4.349785	LADDER	-0.12926126
-3.7481837	CANDIDATES	-0.29636082
-4.349785	EXTREMELY	-0.12926126
-4.349785	WORTHY	-0.2484379
-4.488052	FILL	-0.12926126
-3.8811145	CORRECT	-0.12926126
-3.7481837	ACCOUNT	-0.15306245
-4.2156706	WEEKENDS	-0.12926126
-4.349785	L	-0.12926126
-4.488052	HONOURED	-0.12926126
-4.349785	LIMITED	-0.2484379
-4.488052	FORTUNATELY	-0.12926126
-4.2156706	PRO	-0.12926126
-3.966797	AMERICAN	-0.17308953
-4.2156706	MONDAY	-0.12926126
-4.2156706	SEEMS	-0.1654707
-4.349785	POSITIVELY	-0.12926126
-3.8811145	TOP	-0.15306245
-4.349785	MINDFUL	-0.12926126
-4.488052	CENTRAL	-0.12926126
-4.073645	STOPS	-0.18477437
-4.488052	SIGNIFICANT	-0.12926126
-4.349785	TURNING	-0.12926126
-4.488052	PEDDLE	-0.12926126
-4.2156706	SLOWLY	-0.20497607
-4.2156706	PROGRESSIVE	-0.12926126
-4.2156706	HALLWAY	-0.12926126
-4.488052	CONDIMENTS	-0.12926126
-4.2156706	PLATE	-0.12926126
-4.349785	XXXAN	-0.12926126
-3.966797	CHOICE	-0.20497607
-4.349785	REGULAR	-0.12926126
-4.2156706	PIONEER	-0.12926126
-4.488052	ELDER	-0.12926126
-4.488052	CONGREGATION	-0.12926126
-3.7481837	SECURITY	-0.16891727
-4.2156706	STORES	-0.12926126
-4.349785	CHIHUAHUA	-0.12926126
-4.488052	LABRA	-0.12926126
-4.349785	FIXED	-0.12926126
-4.2156706	ATTITUDES	-0.12926126
-4.2156706	DRIVERS	-0.12926126
-4.349785	ROADS	-0.12926126
-3.966797	EXPECTED	-0.17308953
-4.073645	EXPECTING	-0.16010945
-4.349785	MONIES	-0.12926126
-4.488052	LITERAL	-0.12926126
-4.073645	HEADS	-0.18477437
-4.349785	ABOVE	-0.20497607
-3.8811145	NIAGARA	-0.4351371
-3.8811145	REST	-0.17308953
-4.349785	MONTREAL	-0.18477437
-3.809583	FALLS	-0.20199229
-4.488052	GUIDING	-0.12926126
-3.7481837	CHILDRENS	-0.20052007
-4.488052	FA	-0.12926126
-3.8811145	LOW	-0.14441149
-4.349785	LOWEST	-0.18477437
-4.488052	RESIDENCE	-0.12926126
-4.073645	MOVED	-0.18477437
-3.7481837	LAND	-0.14698872
-3.3829994	WITHOUT	-0.24014097
-3.966797	PRODUCE	-0.19862422
-4.349785	SUGGESTED	-0.12926126
-4.073645	AGE	-0.12926126
-3.966797	INSTAGRAM	-0.20497607
-4.488052	TWITTER	-0.12926126
-4.073645	COLDS	-0.12926126
-3.966797	INTERACTING	-0.35595587
-4.488052	SCOTLAND	-0.12926126
-4.073645	TECHNOLOGIES	-0.18477437
-3.8811145	INVESTORS	-0.1654707
-4.488052	MINIMUM	-0.12926126
-3.966797	INVESTMENT	-0.12926126
-3.966797	STRATEGY	-0.12926126
-4.488052	CONTAIN	-0.12926126
-4.349785	STARK	-0.12926126
-4.488052	MIX	-0.12926126
-4.488052	ENGAGING	-0.12926126
-4.2156706	CONTENT	-0.20497607
-4.488052	RESPONSIVE	-0.12926126
-4.349785	TRANSACT	-0.12926126
-4.349785	COMPLICATED	-0.12926126
-4.349785	GLAD	-0.12926126
-3.6943996	CHANCE	-0.26924896
-4.488052	BANAWAY	-0.12926126
-4.349785	WRITE	-0.12926126
-4.349785	ESSENTIAL	-0.12926126
-4.2156706	DELICACIES	-0.12926126
-4.488052	ORGANISED	-0.12926126
-4.2156706	ADDICTION	-0.12926126
-4.2156706	SPEED	-0.18477437
-4.488052	MODERATE	-0.12926126
-4.488052	GATES	-0.12926126
-4.488052	GREATLY	-0.12926126
-4.488052	R	-0.12926126
-4.488052	BELL	-0.12926126
-4.349785	PRIMARY	-0.12926126
-4.073645	TREE	-0.12926126
-3.966797	EMPLOYED	-0.17308953
-4.349785	ANNOUNCEMENT	-0.12926126
-4.349785	RES	-0.12926126
-4.488052	POORS	-0.12926126
-4.488052	FIRS	-0.12926126
-4.488052	AVAIL	-0.12926126
-4.349785	SPEECH	-0.12926126
-4.488052	PROCESSES	-0.12926126
-4.349785	BASICS	-0.12926126
-4.2156706	SATISFIED	-0.20497607
-4.2156706	EMPLOYER	-0.18477437
-3.3829994	ITSELF	-0.21693245
-4.2156706	CLEANING	-0.12926126
-4.488052	INDUSTRIOUS	-0.12926126
-4.073645	TRICYCLES	-0.12926126
-4.349785	LANE	-0.12926126
-3.8811145	PICKING	-0.30898184
-3.966797	NIAGRA	-0.30898184
-3.966797	CLOSE	-0.18222465
-4.488052	WEIGH	-0.12926126
-4.488052	DEALINE	-0.12926126
-4.488052	GDP	-0.12926126
-4.488052	KNOWLEDGEABLE	-0.12926126
-4.488052	INVOLVE	-0.12926126
-4.488052	INVOLVES	-0.12926126
-4.488052	PREF	-0.12926126
-3.528288	CALLED	-0.1561314
-4.488052	YORKS	-0.12926126
-4.488052	SQUARE	-0.12926126
-4.488052	PROG	-0.12926126
-4.488052	POLITICIAN	-0.12926126
-4.488052	NEGO	-0.12926126
-4.488052	NEGOTIATION	-0.12926126
-4.2156706	FUNNY	-0.12926126
-3.809583	STORIES	-0.16010945
-4.349785	INCENTIVES	-0.12926126
-3.966797	SIMPLY	-0.1561314
-4.349785	AGENTS	-0.12926126
-3.8811145	BED	-0.12926126
-4.073645	PHILIPPINE	-0.1654707
-4.073645	HEROES	-0.12926126
-3.4642348	AGAINST	-0.25284562
-4.349785	PRESERVE	-0.12926126
-4.2156706	SURF	-0.12926126
-4.073645	EXACTLY	-0.12926126
-4.488052	TONE	-0.12926126
-4.349785	ONION	-0.12926126
-4.073645	WHITE	-0.18477437
-4.488052	RED	-0.12926126
-4.073645	SHELTER	-0.12926126
-4.2156706	INTERNATIONALLY	-0.12926126
-3.6943996	RELATIONSHIP	-0.17824401
-4.488052	CURRICULUM	-0.12926126
-3.809583	ANYMORE	-0.3077687
-4.349785	BEGINS	-0.2484379
-3.7481837	PLANNING	-0.43392056
-4.349785	SCARED	-0.12926126
-4.2156706	ALLOWANCE	-0.12926126
-4.488052	REMOTE	-0.12926126
-4.488052	DECENT	-0.12926126
-3.4950817	PROMOTE	-0.3404502
-3.966797	TOMORROW	-0.12926126
-4.349785	FULFILLING	-0.2484379
-3.966797	DREAMS	-0.19331746
-4.488052	ALS	-0.12926126
-4.488052	TEXTS	-0.12926126
-4.2156706	SAYS	-0.20497607
-3.8811145	HELL	-0.1654707
-4.488052	NEWER	-0.12926126
-4.488052	V	-0.12926126
-4.349785	COMP	-0.12926126
-3.966797	JESUS	-0.17308953
-4.488052	GUTS	-0.12926126
-3.7481837	TOURISTS	-0.15062273
-4.488052	AMSTERDAM	-0.12926126
-4.488052	BELGIUM	-0.12926126
-4.2156706	OLDER	-0.12926126
-4.349785	DEREK	-0.12926126
-4.488052	RELIA	-0.12926126
-4.488052	RELIALI	-0.12926126
-4.349785	RELIABILITY	-0.12926126
-4.2156706	EXCITED	-0.12926126
-4.2156706	SISTERS	-0.12926126
-4.2156706	DECIDED	-0.31264174
-4.488052	IMAGES	-0.12926126
-4.488052	DEPARTMENTS	-0.12926126
-4.488052	MARVEL	-0.12926126
-4.2156706	COMICS	-0.12926126
-4.349785	FAN	-0.12926126
-4.488052	SPANNING	-0.12926126
-4.488052	WOLVERINE	-0.12926126
-4.349785	SP	-0.12926126
-4.488052	SPOKE	-0.12926126
-3.646548	PROFESSIONAL	-0.2451555
-3.4950817	ENCOUNTER	-0.14248855
-4.2156706	OFTEN	-0.12926126
-3.646548	PLANS	-0.14863679
-4.488052	SUPPLYING	-0.12926126
-4.2156706	DANGEROUS	-0.12926126
-4.2156706	DEPENDING	-0.31264174
-4.488052	IOR	-0.12926126
-3.966797	F	-0.12926126
-4.349785	SITUATIONS	-0.2484379
-4.073645	UNABLE	-0.43758047
-4.2156706	HELPED	-0.20497607
-4.349785	UNWIND	-0.12926126
-4.488052	OCEAN	-0.12926126
-3.8811145	SEA	-0.12926126
-4.073645	SOMEHOW	-0.12926126
-4.349785	LIKING	-0.12926126
-4.488052	CHIT	-0.12926126
-4.2156706	PANTRY	-0.18477437
-4.2156706	ESTABLISH	-0.12926126
-4.2156706	TAUGHT	-0.12926126
-4.073645	RECOGNISE	-0.12926126
-4.349785	CONNECTIONS	-0.12926126
-4.488052	NEA	-0.12926126
-4.073645	COMPLEX	-0.17308953
-4.488052	YORK	-0.12926126
-4.488052	DEP	-0.12926126
-4.349785	DEPOSIT	-0.12926126
-4.073645	SAVINGS	-0.12926126
-4.073645	KOREAN	-0.18477437
-4.488052	LEAST	-0.12926126
-4.2156706	FIX	-0.1654707
-4.488052	MEANWHILE	-0.12926126
-4.349785	CLASSES	-0.12926126
-3.6943996	BIKE	-0.16836607
-4.349785	DELIVERED	-0.18477437
-4.488052	SKIES	-0.12926126
-4.349785	NONE	-0.2484379
-3.966797	FACILITY	-0.18780175
-4.349785	STATISTICS	-0.12926126
-4.488052	STUDIOS	-0.12926126
-4.488052	UNIVERSALS	-0.12926126
-4.2156706	ACCEPT	-0.20497607
-4.488052	BIZARRE	-0.12926126
-4.488052	INTROVERT	-0.12926126
-3.6943996	SITE	-0.14698872
-3.966797	HEAD	-0.12926126
-4.488052	PRONOUNCE	-0.12926126
-4.349785	KIM	-0.12926126
-4.488052	TELLER	-0.12926126
-4.488052	TUTORIAL	-0.12926126
-4.488052	BREAKDOWNS	-0.12926126
-4.349785	ASSURED	-0.2484379
-4.349785	FITNESS	-0.12926126
-3.809583	HA	-0.16010945
-4.488052	HO	-0.12926126
-4.073645	HOUSEHOLD	-0.43758047
-4.488052	CHORES	-0.12926126
-4.488052	WASHING	-0.12926126
-4.488052	PRECISELY	-0.12926126
-4.349785	PAVE	-0.12926126
-4.073645	COM	-0.12926126
-4.2156706	AUSTRALIA	-0.16010945
-4.073645	HEAR	-0.14863679
-4.073645	MANAGEMENT	-0.12926126
-3.6943996	MARKETING	-0.16257566
-3.7481837	WATCHING	-0.12926126
-4.488052	BLOGS	-0.12926126
-4.488052	BLOG	-0.12926126
-3.6943996	NECESSARY	-0.22858745
-3.8811145	HOLD	-0.17308953
-4.488052	ABSORBED	-0.12926126
-4.488052	MM	-0.12926126
-4.2156706	HONESTY	-0.20497607
-4.349785	ASIAN	-0.12926126
-4.488052	THAILAND	-0.12926126
-4.488052	MALAYSIA	-0.12926126
-3.8811145	DEADLINES	-0.20052007
-3.966797	UNIFORMS	-0.12926126
-4.488052	PRIORITISE	-0.12926126
-4.488052	TRANSFERRING	-0.12926126
-4.073645	PAID	-0.12926126
-4.349785	CHAOS	-0.12926126
-4.349785	TRIPS	-0.12926126
-4.488052	TWEETING	-0.12926126
-3.966797	PERSONALLY	-0.1654707
-4.349785	RELIABLE	-0.12926126
-3.8811145	BEACH	-0.12926126
-4.2156706	SUGGESTIONS	-0.12926126
-4.349785	IMPROVING	-0.12926126
-4.488052	SUGGESTS	-0.12926126
-4.488052	BRIGHT	-0.12926126
-4.349785	EXISTING	-0.12926126
-3.966797	EARTH	-0.21134353
-3.809583	HUMAN	-0.23504445
-4.488052	EM	-0.12926126
-4.2156706	EMPLOYMENT	-0.12926126
-3.528288	LESSEN	-0.3689115
-4.488052	BANAGER	-0.12926126
-4.073645	STATE	-0.12926126
-4.349785	COMPROMISE	-0.12926126
-4.349785	EVERYBODYS	-0.12926126
-4.2156706	FLOOR	-0.1654707
-4.349785	SUFFICE	-0.12926126
-4.349785	GRADUATED	-0.12926126
-4.073645	TRANSPORT	-0.12926126
-4.2156706	MOMENTS	-0.12926126
-4.349785	RECEIVE	-0.12926126
-4.349785	ELECTRIC	-0.12926126
-4.349785	BILLINGS	-0.12926126
-4.488052	HOLDS	-0.12926126
-4.488052	GROCERIES	-0.12926126
-4.073645	FIELD	-0.12926126
-4.2156706	OURSELF	-0.20497607
-4.488052	CHILL	-0.12926126
-3.809583	MAINTAIN	-0.2883135
-4.2156706	TIGHT	-0.12926126
-4.349785	CONDITIONS	-0.12926126
-4.488052	FAIL	-0.12926126
-3.966797	SMOKERS	-0.15062273
-4.488052	OCIALISE	-0.12926126
-3.6034496	LARGE	-0.17552352
-3.966797	TV	-0.22184253
-4.2156706	SHARED	-0.12926126
-3.6034496	FACEBOOK	-0.12926123
-4.2156706	WARM	-0.12926126
-3.809583	DISTRACT	-0.20497607
-4.488052	LOOKS	-0.12926126
-4.349785	PARKING	-0.18477437
-3.8811145	PRECAUTIONS	-0.16010945
-4.349785	GUARDIANS	-0.12926126
-4.488052	AUTHETIC	-0.12926126
-4.488052	LEE	-0.12926126
-4.488052	SEVENTY	-0.12926126
-4.488052	TAXIS	-0.12926126
-4.488052	CABS	-0.12926126
-4.349785	ORGANIZE	-0.12926126
-4.2156706	TRANSFER	-0.17308953
-4.349785	EL	-0.12926126
-4.488052	HELLLO	-0.12926126
-4.488052	MIKO	-0.12926126
-4.488052	CHITCHAT	-0.12926126
-4.488052	ARRESTED	-0.12926126
-4.349785	OBSERVE	-0.12926126
-4.349785	PASSENGERS	-0.2484379
-4.488052	GREETING	-0.12926126
-4.2156706	IMAGINE	-0.12926126
-4.349785	SHAINA	-0.12926126
-4.488052	PAGOTPUR	-0.12926126
-3.8811145	PROCESS	-0.1654707
-4.488052	SANITIZED	-0.12926126
-3.966797	FURTHER	-0.17308953
-4.488052	LESSON	-0.12926126
-4.349785	COUSIN	-0.12926126
-4.349785	GIRLFRIEND	-0.12926126
-3.7481837	CHURCH	-0.16836607
-4.073645	THUS	-0.1654707
-3.966797	CHLOE	-0.22980061
-4.349785	OFW	-0.12926126
-4.073645	ABROAD	-0.12926126
-4.488052	FASCINATE	-0.12926126
-4.073645	CHARACTER	-0.25904587
-4.488052	BEI	-0.12926126
-4.349785	UPDATE	-0.12926126
-4.073645	TRUCKS	-0.1654707
-4.2156706	ART	-0.12926126
-3.6943996	INDUSTRY	-0.17893998
-3.966797	COMPLETE	-0.12926126
-3.966797	MEAT	-0.12926126
-4.488052	SEASONINGS	-0.12926126
-4.349785	SHINA	-0.12926126
-4.488052	TRIALS	-0.12926126
-4.488052	DEPENDENT	-0.12926126
-4.349785	CENTERS	-0.12926126
-4.488052	CAFETERIA	-0.12926126
-4.488052	LOUNGE	-0.12926126
-3.7481837	SMELL	-0.18780175
-4.488052	BANKING	-0.12926126
-4.488052	WHOA	-0.12926126
-4.2156706	DIVERSITY	-0.12926126
-4.073645	COMPETENCY	-0.12926126
-4.488052	VOICEMAIL	-0.12926126
-3.809583	CURRENT	-0.1561314
-4.488052	INFACT	-0.12926126
-4.488052	XXGARBAGE	-0.12926126
-4.2156706	INSPIRED	-0.12926126
-3.966797	JEEPNEY	-0.1654707
-4.488052	AWARDERS	-0.12926126
-4.349785	INVITE	-0.12926126
-4.488052	INVITATION	-0.12926126
-4.073645	SENDING	-0.22184253
-4.488052	DESTRESS	-0.12926126
-4.488052	AGEN	-0.12926126
-4.349785	ENCOUNTERING	-0.12926126
-4.488052	TRAUMATIZED	-0.12926126
-3.966797	SIMILAR	-0.21134353
-4.073645	POTENTIAL	-0.12926126
-4.488052	PARLOUR	-0.12926126
-4.488052	GIFTS	-0.12926126
-4.349785	BROWSE	-0.12926126
-3.8811145	SEND	-0.16891727
-4.488052	EMAILS	-0.12926126
-4.349785	ASSIGNMENTS	-0.12926126
-4.488052	SHANA	-0.12926126
-4.349785	PATIENT	-0.12926126
-4.349785	RENDER	-0.12926126
-4.349785	MAD	-0.2484379
-4.349785	DECORATION	-0.12926126
-4.488052	PARTICIPANTS	-0.12926126
-4.073645	TOTAL	-0.25904587
-4.488052	ENGAGEMENT	-0.12926126
-4.2156706	STRIVE	-0.20497607
-4.2156706	SERVING	-0.12926126
-3.8811145	FINANCE	-0.21544063
-4.2156706	DIFFICULTIES	-0.12926126
-4.2156706	POSSIBILITY	-0.18477437
-4.073645	PROPOSAL	-0.17308953
-4.488052	UNDERGONE	-0.12926126
-4.488052	VALLEYS	-0.12926126
-4.488052	ACCESSIBILITY	-0.12926126
-4.073645	EVENTUALLY	-0.17308953
-4.349785	ACCOMMODATING	-0.12926126
-4.349785	DIRECT	-0.12926126
-4.349785	LAD	-0.12926126
-4.488052	UNIS	-0.12926126
-4.488052	TRIBE	-0.12926126
-4.488052	SILVER	-0.12926126
-4.349785	BELIEFS	-0.12926126
-4.349785	FOREVER	-0.12926126
-4.488052	GA	-0.12926126
-4.073645	GATHER	-0.12926126
-3.7481837	PREPARED	-0.18300761
-4.488052	MILITARY	-0.12926126
-4.488052	AIDS	-0.12926126
-4.488052	MEALS	-0.12926126
-4.488052	COMF	-0.12926126
-4.349785	ARTIST	-0.12926126
-4.349785	TOYS	-0.12926126
-4.349785	DISCUSSING	-0.2484379
-3.966797	BECOMING	-0.17308953
-3.8811145	GROWTH	-0.27147684
-4.488052	PREMISES	-0.12926126
-4.488052	PUNISHED	-0.12926126
-4.073645	HIDE	-0.12926126
-4.073645	SEEK	-0.12926126
-4.488052	JFK	-0.12926126
-4.349785	SITTING	-0.12926126
-4.349785	REGARD	-0.12926126
-3.966797	WEAR	-0.1561314
-4.2156706	UNIVERSAL	-0.22980061
-4.488052	ASPECT	-0.12926126
-4.488052	CANNOTYOU	-0.12926126
-4.488052	REELED	-0.12926126
-3.6943996	CARS	-0.20052007
-4.349785	DIE	-0.2484379
-4.349785	ELABORATE	-0.12926126
-4.349785	CONSTRAINT	-0.12926126
-4.349785	INSTANCE	-0.12926126
-4.488052	WINNING	-0.12926126
-4.488052	JENNY	-0.12926126
-4.488052	CHANGEY	-0.12926126
-4.2156706	CIGARETTES	-0.12926126
-4.488052	KILLED	-0.12926126
-4.488052	KILLING	-0.12926126
-3.966797	SENSE	-0.17308953
-4.488052	RELEVANCE	-0.12926126
-4.073645	RELIEVE	-0.17308953
-3.8811145	COMPUTER	-0.12926126
-3.6943996	FEED	-0.2551604
-4.073645	SUCCEED	-0.12926126
-3.809583	GAME	-0.18222465
-4.073645	PREVENT	-0.1654707
-4.488052	PUNISHABLE	-0.12926126
-4.488052	SUFFER	-0.12926126
-4.488052	INTROVERTED	-0.12926126
-4.488052	EXPRESS	-0.12926126
-4.349785	FOLLOWING	-0.12926126
-4.2156706	ANTI	-0.31264174
-4.488052	SOLICITATION	-0.12926126
-3.966797	RICH	-0.17308953
-4.488052	EXCITING	-0.12926126
-4.488052	CONFIDENT	-0.12926126
-4.488052	CHAMPE	-0.12926126
-4.488052	ATE	-0.12926126
-4.488052	BALL	-0.12926126
-4.073645	FAVOUR	-0.12926126
-3.966797	ORGANISATIONS	-0.20497607
-3.408426	HELPING	-0.277124
-4.349785	LOCALS	-0.12926126
-4.349785	SMILE	-0.12926126
-4.349785	TRANSPARENT	-0.2484379
-4.349785	SCHOOLING	-0.12926126
-4.488052	QUANTITIES	-0.12926126
-4.488052	CIRCUMSTANCE	-0.12926126
-3.809583	CONSERVE	-0.43193895
-4.2156706	HOSPITAL	-0.12926126
-3.7481837	MALLS	-0.22032431
-4.488052	EXTERIORED	-0.12926126
-4.488052	DESIGN	-0.12926126
-4.488052	DREAMING	-0.12926126
-4.488052	ACCOMP	-0.12926126
-4.349785	RECOMMENDATIONS	-0.12926126
-4.073645	PAYMENT	-0.12926126
-3.966797	COMPENSATION	-0.22184253
-4.488052	SHORE	-0.12926126
-4.2156706	SCHEDULED	-0.12926126
-3.966797	EFFORT	-0.12926126
-4.488052	JIM	-0.12926126
-4.488052	BOYSABATAO	-0.12926126
-4.349785	ROCKS	-0.12926126
-4.488052	RIOTS	-0.12926126
-3.7481837	PROMOTING	-0.3077687
-4.2156706	YOUTH	-0.12926126
-4.073645	JOY	-0.22184253
-3.7481837	MEMORIES	-0.12926126
-4.2156706	HOUSES	-0.12926126
-4.488052	ELECTIVE	-0.12926126
-4.488052	COLLEGES	-0.12926126
-4.073645	SECONDARY	-0.12926126
-3.4950817	ATLEAST	-0.15177667
-4.488052	GRANDMA	-0.12926126
-4.488052	HOOPS	-0.12926126
-4.349785	AGES	-0.12926126
-4.073645	BELOW	-0.12926126
-4.349785	MEDIUM	-0.12926126
-4.488052	BAY	-0.12926126
-4.488052	OVERSEEING	-0.12926126
-4.488052	VERIFIED	-0.12926126
-4.488052	RECTIFY	-0.12926126
-4.349785	MASTER	-0.12926126
-4.073645	BEDROOM	-0.17308953
-4.488052	FUNDS	-0.12926126
-4.488052	INSURE	-0.12926126
-4.488052	INNOVATIVE	-0.12926126
-4.488052	CAPTURE	-0.12926126
-4.349785	INTERESTS	-0.12926126
-4.488052	ADVISOR	-0.12926126
-4.488052	FATHERS	-0.12926126
-4.488052	BREADS	-0.12926126
-4.488052	GRAND	-0.12926126
-4.488052	WANTING	-0.12926126
-4.488052	GLOVES	-0.12926126
-4.488052	PROTECTORS	-0.12926126
-4.349785	TRACK	-0.12926126
-3.7481837	ALLOWING	-0.1561314
-4.488052	CONSEQUENCE	-0.12926126
-4.488052	VIGILANT	-0.12926126
-3.966797	ENSURE	-0.22980061
-4.2156706	SAFELY	-0.18477437
-4.349785	HAVENT	-0.12926126
-4.488052	CONTINGENCY	-0.12926126
-4.488052	ACCIDEN	-0.12926126
-3.966797	TIM	-0.17308953
-3.966797	STEPS	-0.1654707
-4.349785	ED	-0.12926126
-4.488052	THINKS	-0.12926126
-4.349785	REQUIRE	-0.12926126
-4.488052	ADVISED	-0.12926126
-4.488052	POSITIONING	-0.12926126
-4.488052	TASKING	-0.12926126
-3.8811145	SUCCESS	-0.1654707
-3.8811145	SOMEWHERE	-0.12926126
-3.6034496	ELSE	-0.1654707
-4.349785	HESITATION	-0.12926126
-4.349785	HARDWORKING	-0.12926126
-3.966797	RISK	-0.17308953
-4.349785	DANGER	-0.12926126
-4.2156706	INPUTS	-0.12926126
-4.488052	DETAILS	-0.12926126
-4.349785	ALIGNED	-0.12926126
-4.073645	TARGET	-0.12926126
-4.349785	OBJECTIVE	-0.12926126
-4.073645	HEAVEN	-0.21134353
-4.488052	HALLOWED	-0.12926126
-4.073645	THY	-0.12926126
-4.349785	KINGDOM	-0.12926126
-4.2156706	FORGIVE	-0.12926126
-4.488052	TRESPASSES	-0.12926126
-4.488052	EDUCATED	-0.12926126
-4.349785	FINISHED	-0.12926126
-4.488052	SPIDERMAN	-0.12926126
-4.073645	READING	-0.12926126
-4.349785	LAPTOPS	-0.12926126
-4.073645	COMPUTERS	-0.12926126
-4.2156706	WIFI	-0.12926126
-4.488052	CERTIFYING	-0.12926126
-4.488052	RA	-0.12926126
-4.488052	GROOMED	-0.12926126
-4.488052	OUTFITS	-0.12926126
-4.2156706	LEARNERS	-0.12926126
-4.349785	EDGE	-0.12926126
-4.073645	FACING	-0.15306245
-4.2156706	GRADUATE	-0.12926126
-4.349785	OURS	-0.12926126
-4.488052	SELFIE	-0.12926126
-3.966797	RUSH	-0.12926126
-4.349785	SHOPPING	-0.12926126
-4.2156706	MALL	-0.12926126
-4.349785	EXPLANATION	-0.12926126
-4.488052	BURY	-0.12926126
-4.488052	ANOTHERS	-0.12926126
-4.488052	BURDENS	-0.12926126
-4.2156706	LEAVES	-0.12926126
-3.8811145	STREET	-0.16010945
-4.349785	OUTLETS	-0.12926126
-3.966797	TREES	-0.19118267
-4.349785	WILD	-0.12926126
-4.488052	STOCK	-0.12926126
-4.349785	LUNETTA	-0.2484379
-3.8811145	PICKED	-0.22798213
-4.349785	REGARDLESS	-0.12926126
-4.073645	FEELINGS	-0.12926126
-3.966797	LOVED	-0.35595587
-4.488052	SPILL	-0.12926126
-4.2156706	WORD	-0.12926126
-4.349785	RELIGION	-0.12926126
-4.488052	ABSOLUTELY	-0.12926126
-4.349785	TRANSFORM	-0.12926126
-4.073645	COMMUTE	-0.12926126
-4.349785	AGENCIES	-0.12926126
-4.2156706	HINDER	-0.20497607
-3.8811145	PRICES	-0.14863679
-4.349785	TEXTING	-0.12926126
-4.488052	RENTAL	-0.12926126
-4.488052	ADDITION	-0.12926126
-4.488052	GLOWING	-0.12926126
-4.488052	AL	-0.12926126
-4.488052	RESPONSIBILILI	-0.12926126
-4.488052	GASOLINE	-0.12926126
-4.488052	DESIGNATED	-0.12926126
-4.073645	UNIVERSITY	-0.22980061
-3.966797	JAMIE	-0.22184253
-4.488052	VERSUS	-0.12926126
-4.2156706	POLICE	-0.12926126
-4.488052	PERSONNEL	-0.12926126
-4.349785	OWNERS	-0.12926126
-4.349785	ASSOCIATION	-0.12926126
-4.2156706	VILLAGE	-0.17308953
-3.7481837	LEAVING	-0.15062273
-4.488052	RAGNER	-0.12926126
-4.2156706	OWNER	-0.18477437
-4.488052	LANDORAS	-0.12926126
-4.488052	LAGUADOR	-0.12926126
-4.349785	COORDINATORS	-0.12926126
-4.488052	FICTION	-0.12926126
-4.488052	YOUNGER	-0.12926126
-4.349785	GENERATIONS	-0.12926126
-4.488052	SLIDED	-0.12926126
-4.2156706	LOPEZ	-0.20497607
-4.488052	PM	-0.12926126
-4.488052	APPEARED	-0.12926126
-4.349785	BROKE	-0.12926126
-4.073645	SIGNAL	-0.18477437
-4.488052	NIGERIA	-0.12926126
-4.488052	SHOES	-0.12926126
-4.488052	POSTPONE	-0.12926126
-3.966797	LOVING	-0.12926126
-4.488052	FLOWING	-0.12926126
-4.488052	MOUTH	-0.12926126
-4.073645	CONTROL	-0.12926126
-4.349785	BALANCED	-0.2484379
-3.966797	DIET	-0.16010945
-3.646548	ANSWER	-0.24610563
-4.349785	COMBAT	-0.12926126
-4.073645	EDUCATE	-0.18477437
-4.2156706	POPULATION	-0.12926126
-4.349785	SUFFERING	-0.12926126
-4.349785	SHOWER	-0.12926126
-4.488052	COUNTS	-0.12926126
-4.488052	SMOOTHIES	-0.12926126
-4.2156706	ENABLE	-0.20497607
-4.349785	FULFILL	-0.12926126
-4.349785	THA	-0.12926126
-4.2156706	TEST	-0.12926126
-4.488052	PERSIST	-0.12926126
-4.488052	CHAINS	-0.12926126
-3.6943996	SOMEDAY	-0.15062273
-4.349785	APPS	-0.12926126
-4.349785	DATA	-0.12926126
-4.349785	LESSER	-0.2484379
-4.488052	WOLD	-0.12926126
-4.2156706	BUNGALOW	-0.12926126
-4.073645	MEMBERS	-0.12926126
-4.488052	FUMBLY	-0.12926126
-4.488052	SPACES	-0.12926126
-4.488052	FORXXUH	-0.12926126
-4.488052	TERRIBLY	-0.12926126
-4.488052	MATCHES	-0.12926126
-4.488052	MEANTIME	-0.12926126
-4.2156706	ENGAGED	-0.20497607
-4.488052	ATMOS	-0.12926126
-4.349785	ATMOSPHERE	-0.12926126
-4.488052	NEAT	-0.12926126
-4.488052	FOLLOWERS	-0.12926126
-3.7481837	HALF	-0.38743478
-4.349785	AID	-0.2484379
-4.488052	NECESSARILY	-0.12926126
-3.966797	BOOST	-0.21134353
-3.809583	ENCOURAGE	-0.19862422
-4.349785	PERSONALITIES	-0.12926126
-4.488052	ERRANDS	-0.12926126
-4.488052	COMMAND	-0.12926126
-4.349785	DONATE	-0.12926126
-3.966797	BLOOD	-0.17308953
-4.349785	LUCKILY	-0.12926126
-4.488052	GEARS	-0.12926126
-3.6943996	SPENDING	-0.12926126
-4.349785	FATS	-0.12926126
-4.488052	VERSATILE	-0.12926126
-4.488052	OPTIMISTIC	-0.12926126
-3.8811145	XXUXH	-0.12926126
-4.488052	COSTS	-0.12926126
-4.488052	EDUCATING	-0.12926126
-4.349785	FACTOR	-0.12926126
-4.2156706	COMMERCE	-0.12926126
-4.488052	THIRTEEN	-0.12926126
-4.2156706	NINETEEN	-0.12926126
-4.488052	DREAMED	-0.12926126
-4.2156706	FAIR	-0.12926126
-4.349785	PA	-0.12926126
-4.488052	FASHION	-0.12926126
-4.488052	UPSET	-0.12926126
-4.488052	ENTREPRENEUR	-0.12926126
-4.488052	MINES	-0.12926126
-4.349785	NOISY	-0.12926126
-3.4950817	TEACHING	-0.3466481
-4.349785	ACTIVE	-0.12926126
-3.966797	COMPETITIVE	-0.12926126
-3.8811145	CONCERNS	-0.16010945
-4.488052	PROB	-0.12926126
-4.488052	CLINIC	-0.12926126
-4.349785	ESTEEM	-0.12926126
-4.349785	BELLOT	-0.12926126
-3.809583	DELICIOUS	-0.22032431
-4.488052	INSU	-0.12926126
-4.2156706	FINALLY	-0.12926126
-4.349785	FAM	-0.12926126
-4.073645	IMP	-0.18477437
-4.488052	BASI	-0.12926126
-4.073645	QUIET	-0.18477437
-4.488052	IDLE	-0.12926126
-4.349785	TALENT	-0.12926126
-4.488052	GONGU	-0.12926126
-4.488052	TRIES	-0.12926126
-4.488052	ACROSS	-0.12926126
-4.488052	SKYWALKITS	-0.12926126
-4.349785	STUDIED	-0.12926126
-4.488052	METHOD	-0.12926126
-4.488052	SMALLER	-0.12926126
-4.349785	ACCOMMODATION	-0.12926126
-3.7481837	CHEAP	-0.17824401
-4.488052	PROTECTING	-0.12926126
-3.809583	TRAIN	-0.1582548
-4.073645	BUSES	-0.12926126
-4.488052	TUITIONS	-0.12926126
-4.349785	SCARCE	-0.12926126
-3.8811145	SEEING	-0.12926126
-4.073645	HUSBAND	-0.12926126
-4.488052	SYRIA	-0.12926126
-4.488052	PROVOKING	-0.12926126
-4.2156706	CITIZENS	-0.12926126
-4.349785	EXPLAINED	-0.12926126
-3.966797	EXTRA	-0.12926126
-4.2156706	BECOMES	-0.18477437
-3.809583	HARDER	-0.1561314
-4.488052	VERIFY	-0.12926126
-4.488052	BEHAVIOURS	-0.12926126
-4.488052	HEADED	-0.12926126
-4.488052	ESSENCE	-0.12926126
-4.488052	RESILIENT	-0.12926126
-4.488052	INCONVE	-0.12926126
-4.349785	ALWAY	-0.12926126
-4.349785	MATRIX	-0.12926126
-4.488052	EXCEEDING	-0.12926126
-4.488052	DEFINE	-0.12926126
-3.966797	HAPPENS	-0.12926126
-4.2156706	CANADA	-0.12926126
-4.488052	WRECK	-0.12926126
-4.488052	CORRECTLY	-0.12926126
-4.2156706	LEISURE	-0.20497607
-4.349785	RESPECTING	-0.12926126
-4.488052	FUNDAMENTAL	-0.12926126
-3.8811145	TRUE	-0.12926126
-4.488052	ETERNITY	-0.12926126
-4.349785	FOUNDATION	-0.12926126
-4.488052	CIVILIZATION	-0.12926126
-4.488052	SANCTUARY	-0.12926126
-4.349785	SEPARATE	-0.12926126
-4.488052	COUNTRYS	-0.12926126
-4.349785	ANIME	-0.12926126
-4.349785	MUSCLE	-0.12926126
-4.488052	PROTEINS	-0.12926126
-4.488052	BAC	-0.12926126
-4.488052	RENOVATIONS	-0.12926126
-4.073645	EVENING	-0.1893234
-4.349785	MESSY	-0.2484379
-4.488052	SHEET	-0.12926126
-4.349785	SUIT	-0.12926126
-4.488052	CONTAINS	-0.12926126
-4.488052	APPARENTLY	-0.12926126
-4.488052	REQUIRED	-0.12926126
-4.488052	ENQUIRY	-0.12926126
-4.488052	COMPUTATIONS	-0.12926126
-4.2156706	KEEN	-0.12926126
-4.349785	VER	-0.12926126
-4.488052	ANALYTICAL	-0.12926126
-4.488052	HOWS	-0.12926126
-3.8811145	INTRODUCE	-0.172102
-4.488052	HEAL	-0.12926126
-4.488052	APPLICA	-0.12926126
-4.488052	CANDIDA	-0.12926126
-3.966797	LOCATED	-0.21544063
-4.073645	GREATEST	-0.12926126
-4.488052	BECAU	-0.12926126
-4.488052	FOREMOST	-0.12926126
-3.8811145	COOKING	-0.12926126
-4.488052	PROGRAMMING	-0.12926126
-3.7481837	STAYING	-0.17824401
-4.488052	FACTORSTHAT	-0.12926126
-4.349785	PAGE	-0.12926126
-4.2156706	CLEAR	-0.12926126
-4.2156706	LEADING	-0.12926126
-4.488052	ACCUMULATE	-0.12926126
-4.349785	FATTY	-0.2484379
-4.349785	PL	-0.12926126
-4.488052	FORK	-0.12926126
-4.488052	SPOON	-0.12926126
-4.488052	FILLING	-0.12926126
-4.488052	GLASS	-0.12926126
-4.488052	ROXY	-0.12926126
-4.488052	DISAGREEING	-0.12926126
-4.488052	KEN	-0.12926126
-4.349785	PLEASANT	-0.12926126
-4.488052	GR	-0.12926126
-4.349785	CA	-0.12926126
-4.488052	COLDER	-0.12926126
-4.073645	EARNED	-0.18477437
-4.488052	WOOD	-0.12926126
-3.966797	SEEN	-0.16010945
-4.488052	INCURR	-0.12926126
-4.488052	HEADACHE	-0.12926126
-4.488052	SNEEZING	-0.12926126
-4.488052	WATERY	-0.12926126
-4.2156706	NOSE	-0.12926126
-4.2156706	NOBODY	-0.12926126
-4.2156706	USES	-0.12926126
-4.488052	SYRIANS	-0.12926126
-4.2156706	MODE	-0.20497607
-4.488052	RAILWAY	-0.12926126
-4.349785	TRANSIT	-0.12926126
-4.349785	LRT	-0.12926126
-4.488052	LOGICALLY	-0.12926126
-4.488052	MANPOWER	-0.12926126
-4.488052	ADVI	-0.12926126
-4.073645	DOWNTOWN	-0.12926126
-3.966797	APARTMENTS	-0.17308953
-4.488052	DEAF	-0.12926126
-4.2156706	MINE	-0.12926126
-4.488052	TECH	-0.12926126
-4.349785	CLOSED	-0.12926126
-4.349785	WIDESPREAD	-0.12926126
-4.2156706	HONOUR	-0.12926126
-4.488052	SACRED	-0.12926126
-4.488052	CAPA	-0.12926126
-4.488052	ANATOMY	-0.12926126
-4.488052	BOOM	-0.12926126
-4.488052	PROFESSION	-0.12926126
-4.488052	XXXXH	-0.12926126
-4.488052	FLYINGS	-0.12926126
-4.488052	GENDER	-0.12926126
-4.488052	INEQUALITY	-0.12926126
-4.488052	SYSTEMATIC	-0.12926126
-4.349785	CHEERFUL	-0.12926126
-4.2156706	RECOVERING	-0.20497607
-4.488052	EMERLEEN	-0.12926126
-4.488052	MOSCHKOTICHORLITO	-0.12926126
-4.488052	EVOLVED	-0.12926126
-3.809583	VIEW	-0.12926129
-4.488052	RESETTLE	-0.12926126
-4.349785	CONVINCING	-0.2484379
-4.488052	LUXURY	-0.12926126
-3.966797	ITEMS	-0.12926126
-4.488052	LA	-0.12926126
-4.488052	OVERUSE	-0.12926126
-4.488052	DA	-0.12926126
-4.488052	DAMAGED	-0.12926126
-4.2156706	CONCENTRATION	-0.12926126
-4.488052	SUGGESTING	-0.12926126
-4.488052	YOUNGSTER	-0.12926126
-4.2156706	INFLUENCE	-0.12926126
-4.349785	O	-0.12926126
-4.488052	OVERCOME	-0.12926126
-4.488052	NEWLY	-0.12926126
-4.488052	CONFLICT	-0.12926126
-4.2156706	VEHICLES	-0.12926126
-4.488052	WHA	-0.12926126
-4.488052	WO	-0.12926126
-4.349785	REC	-0.2484379
-4.073645	UNIQUE	-0.12926126
-4.349785	SIGHT	-0.12926126
-4.488052	GYNEY	-0.12926126
-4.488052	CAB	-0.12926126
-4.488052	OCCUPY	-0.12926126
-4.073645	CONVERSATION	-0.12926126
-3.966797	GIRL	-0.12926126
-4.488052	WRITER	-0.12926126
-4.488052	DRAIN	-0.12926126
-4.488052	AWARENESS	-0.12926126
-4.488052	CITYS	-0.12926126
-3.7481837	MONTH	-0.14863679
-4.488052	REPLACED	-0.12926126
-4.2156706	FOCUSING	-0.31264174
-4.349785	COMPLETELY	-0.12926126
-4.488052	BOOKSTORE	-0.12926126
-4.488052	LIBRARY	-0.12926126
-4.488052	PAINT	-0.12926126
-4.488052	HIGHRISE	-0.12926126
-3.966797	SENIOR	-0.17308953
-4.488052	ADRIAN	-0.12926126
-4.349785	CENTRE	-0.12926126
-4.073645	BREATHE	-0.12926126
-4.349785	BELONGINGS	-0.12926126
-4.488052	EVERYTHINGS	-0.12926126
-4.349785	CHECKED	-0.12926126
-4.488052	DISCOURAGE	-0.12926126
-4.488052	RIGHTS	-0.12926126
-4.488052	PRIVACY	-0.12926126
-4.349785	DISLIKES	-0.12926126
-4.2156706	UPGRADE	-0.12926126
-4.488052	PARKLAND	-0.12926126
-4.2156706	CLEARLY	-0.12926126
-4.488052	MASAI	-0.12926126
-4.488052	AUNAGDABAU	-0.12926126
-4.349785	EXPERIENCED	-0.12926126
-4.349785	FACILITATOR	-0.12926126
-4.349785	REPORT	-0.12926126
-4.073645	PROS	-0.25904587
-4.488052	CONS	-0.12926126
-4.488052	STICKS	-0.12926126
-4.488052	VAPE	-0.12926126
-4.349785	BOSTON	-0.2484379
-4.488052	MASSACHUSETTS	-0.12926126
-4.488052	SECRET	-0.12926126
-4.073645	CREDIT	-0.12926126
-4.349785	TODAYS	-0.12926126
-4.349785	PROMOTIONAL	-0.2484379
-4.2156706	FEEDING	-0.12926126
-4.349785	YOUTUBE	-0.12926126
-4.488052	CULTIVATE	-0.12926126
-4.488052	SOW	-0.12926126
-4.349785	TESTED	-0.2484379
-4.073645	STRONGLY	-0.25904587
-4.349785	AGREEMENT	-0.12926126
-4.349785	ELBOW	-0.12926126
-4.349785	PROTECTION	-0.12926126
-4.488052	QUOTAS	-0.12926126
-4.488052	DOC	-0.12926126
-4.488052	CONCERNED	-0.12926126
-4.488052	AMBIENCE	-0.12926126
-4.073645	MOM	-0.12926126
-4.488052	DAD	-0.12926126
-4.488052	BRIDGES	-0.12926126
-3.966797	WEBSITE	-0.1561314
-4.349785	CHAT	-0.12926126
-4.349785	BENEFITED	-0.12926126
-4.349785	ABILITIES	-0.12926126
-4.488052	FOLLOWER	-0.12926126
-3.8811145	WORKER	-0.1654707
-4.2156706	DOES	-0.12926126
-4.2156706	JOHN	-0.31264174
-4.488052	WICK	-0.12926126
-4.488052	PULLED	-0.12926126
-4.488052	CRIME	-0.12926126
-4.488052	GODMOTHER	-0.12926126
-4.349785	PEACEFUL	-0.12926126
-4.488052	HONEYMOONERS	-0.12926126
-4.488052	ROMANTIC	-0.12926126
-4.349785	INCLUSIONS	-0.12926126
-3.809583	EITHER	-0.15306245
-4.349785	WISH	-0.12926126
-4.2156706	EXPAND	-0.12926126
-4.488052	ALLOWANCES	-0.12926126
-4.349785	OPERATIONS	-0.12926126
-3.8811145	TOWARDS	-0.12926126
-4.349785	SURVEY	-0.12926126
-4.349785	DISAPPOINTED	-0.12926126
-4.488052	RECEPTION	-0.12926126
-4.488052	TH	-0.12926126
-4.488052	CAMPING	-0.12926126
-4.488052	THIRDLY	-0.12926126
-4.073645	SECURED	-0.12926126
-4.488052	FORCES	-0.12926126
-4.349785	AFRAID	-0.20497607
-4.488052	FIR	-0.12926126
-4.349785	RAN	-0.12926126
-4.488052	LIABILITY	-0.12926126
-4.2156706	WORKOUT	-0.12926126
-4.349785	SOMETHINGS	-0.12926126
-4.488052	NEIGHBOURHOODS	-0.12926126
-4.2156706	CROWDED	-0.12926126
-4.2156706	ESTABLISHMENT	-0.12926126
-4.488052	LE	-0.12926126
-4.349785	NET	-0.12926126
-4.2156706	NAMED	-0.12926126
-4.488052	JAY	-0.12926126
-4.2156706	PRIORITIES	-0.12926126
-4.488052	STATING	-0.12926126
-3.6943996	HIGHER	-0.19865951
-4.488052	COUPLES	-0.12926126
-4.349785	FI	-0.12926126
-4.488052	RESORTS	-0.12926126
-4.073645	TRUSTWORTHY	-0.1654707
-4.349785	THEYVE	-0.12926126
-4.2156706	SHY	-0.12926126
-4.488052	AF	-0.12926126
-4.488052	SYNTHESIS	-0.12926126
-4.349785	POPULOUS	-0.20497607
-4.349785	COMMUTING	-0.12926126
-4.349785	AUDIENCE	-0.2484379
-3.966797	KEEPING	-0.17308953
-4.349785	EVERYONES	-0.12926126
-4.349785	MISERABLY	-0.12926126
-4.488052	MORAL	-0.12926126
-4.488052	ASSETS	-0.12926126
-4.349785	WASTAGE	-0.12926126
-4.073645	COOPERATE	-0.12926126
-4.488052	DEDICATE	-0.12926126
-4.488052	NAZARINE	-0.12926126
-4.488052	ADVISER	-0.12926126
-4.488052	EMPLOYEMENT	-0.12926126
-4.488052	GRABBED	-0.12926126
-4.488052	ADRENALINE	-0.12926126
-4.349785	DEDICATED	-0.12926126
-4.349785	COMMITMENT	-0.12926126
-4.488052	SPARKLING	-0.12926126
-4.488052	SUNDAYS	-0.12926126
-4.488052	CONSTANTLY	-0.12926126
-3.966797	GROUND	-0.12926126
-3.646548	PERSONS	-0.16891727
-4.349785	OFFERED	-0.12926126
-4.349785	ADVISING	-0.12926126
-4.488052	SMOK	-0.12926126
-4.488052	BANKER	-0.12926126
-4.488052	LUCK	-0.12926126
-4.349785	ORDERED	-0.12926126
-4.073645	DEEPLY	-0.12926126
-4.488052	SALAD	-0.12926126
-4.2156706	LOYAL	-0.12926126
-4.488052	BONUS	-0.12926126
-4.488052	WASHINGTON	-0.12926126
-4.488052	HOMEWORK	-0.12926126
-4.488052	PLEASING	-0.12926126
-4.2156706	ADDICTED	-0.31264174
-4.488052	ANIMATED	-0.12926126
-4.488052	FRUSTRATED	-0.12926126
-4.488052	FOLLOWS	-0.12926126
-4.349785	E	-0.12926126
-4.349785	LETTERS	-0.12926126
-4.488052	GRANDPA	-0.12926126
-4.349785	SAUDI	-0.2484379
-4.488052	ARABIA	-0.12926126
-4.488052	JENA	-0.12926126
-4.488052	GAI	-0.12926126
-4.488052	THAI	-0.12926126
-4.488052	ND	-0.12926126
-4.488052	TWIGS	-0.12926126
-4.488052	DEAR	-0.12926126
-4.488052	SPECIALIST	-0.12926126
-4.073645	DEPARTMENT	-0.22980061
-4.488052	BANSWARA	-0.12926126
-4.488052	ELLEN	-0.12926126
-4.488052	CURRENCY	-0.12926126
-4.349785	DOLLARS	-0.12926126
-4.488052	RISKY	-0.12926126
-4.2156706	TRAINING	-0.12926126
-4.349785	LEARNT	-0.12926126
-4.349785	RING	-0.12926126
-4.2156706	ABSENCE	-0.12926126
-4.488052	GARY	-0.12926126
-4.488052	EXECUTED	-0.12926126
-4.488052	SPRING	-0.12926126
-4.2156706	MANNERS	-0.12926126
-4.488052	BELIEVING	-0.12926126
-4.488052	HISSELF	-0.12926126
-4.073645	DEVELOPMENT	-0.12926126
-4.488052	MEND	-0.12926126
-4.488052	EXAMLE	-0.12926126
-4.488052	PRODUCTIONS	-0.12926126
-4.488052	ASSOCIATE	-0.12926126
-4.349785	GEAR	-0.12926126
-4.488052	CAPTION	-0.12926126
-4.073645	UTILIZE	-0.255481
-4.349785	CONFISCATE	-0.12926126
-4.488052	ENJOYMENT	-0.12926126
-4.488052	RESPONSIBILI	-0.12926126
-4.488052	MARIONI	-0.12926126
-4.488052	GOLDBERG	-0.12926126
-4.488052	SANTAS	-0.12926126
-4.488052	MVSI	-0.12926126
-4.488052	INSTITUTE	-0.12926126
-4.2156706	BACHELOR	-0.20497607
-4.488052	INCREASES	-0.12926126
-4.073645	VALUE	-0.12926126
-4.488052	ACCOMPLISHES	-0.12926126
-4.488052	FINITE	-0.12926126
-4.488052	BORACAY	-0.12926126
-4.488052	PALAWAN	-0.12926126
-4.488052	FLUENTLY	-0.12926126
-4.488052	ACCENTS	-0.12926126
-4.073645	GRAMMAR	-0.17308953
-4.488052	GRAMMATICAL	-0.12926126
-4.488052	LAPSES	-0.12926126
-4.488052	TEL	-0.12926126
-4.488052	TOURISTERS	-0.12926126
-3.4642348	PEOPLES	-0.19753976
-4.349785	TONGUE	-0.12926126
-4.349785	WORLDWIDE	-0.12926126
-4.2156706	GOOGLE	-0.12926126
-4.2156706	XXXXUM	-0.18477437
-4.349785	FEATURES	-0.12926126
-4.349785	FREELY	-0.12926126
-4.488052	PASAI	-0.12926126
-4.488052	TAGIG	-0.12926126
-4.488052	MACATTI	-0.12926126
-4.488052	COMMERCIALIZED	-0.12926126
-4.073645	STATION	-0.12926126
-4.488052	ESTABLISHING	-0.12926126
-4.073645	MANDALUYONG	-0.18477437
-3.966797	FIT	-0.12926126
-4.488052	CALIFORNIA	-0.12926126
-4.488052	COO	-0.12926126
-3.966797	ECONOMIC	-0.12926126
-4.2156706	FOREIGNERS	-0.20497607
-4.488052	KAM	-0.12926126
-4.2156706	LIVED	-0.12926126
-4.488052	KNOWLEDGES	-0.12926126
-4.349785	SOYA	-0.2484379
-4.488052	SAUCE	-0.12926126
-3.8811145	CHICKEN	-0.1654707
-4.488052	PEPPER	-0.12926126
-4.349785	CARDS	-0.2484379
-4.349785	DEBIT	-0.12926126
-4.2156706	THANKS	-0.31264174
-4.349785	ADDICTIVE	-0.12926126
-4.2156706	GADGET	-0.12926126
-4.349785	EVENTS	-0.12926126
-4.349785	DREAM	-0.12926126
-4.2156706	SUCCESSFULLY	-0.12926126
-4.488052	WHATSOEVER	-0.12926126
-4.349785	SAFER	-0.12926126
-4.488052	HEALTHIER	-0.12926126
-4.488052	NUMBERS	-0.12926126
-4.488052	CALCULATIONS	-0.12926126
-4.488052	ASSET	-0.12926126
-4.488052	ANTICIPATING	-0.12926126
-4.488052	ARTIFACT	-0.12926126
-4.488052	HOSPITALITY	-0.12926126
-4.349785	FIFTH	-0.12926126
-4.2156706	GRADE	-0.12926126
-4.349785	MICHAEL	-0.12926126
-4.073645	PURPOSES	-0.18477437
-4.073645	APPLE	-0.12926126
-4.073645	COMMON	-0.12926126
-4.349785	DOCTOR	-0.12926126
-3.809583	HOTEL	-0.1893234
-4.349785	CHEMICAL	-0.12926126
-4.488052	COMPOUND	-0.12926126
-4.488052	HARMFUL	-0.12926126
-4.349785	ADDICTING	-0.12926126
-4.488052	TRUTH	-0.12926126
-4.488052	POSER	-0.12926126
-4.488052	VIBES	-0.12926126
-4.349785	PREMIUM	-0.12926126
-4.488052	INSTANTLY	-0.12926126
-4.2156706	WINDOW	-0.12926126
-4.488052	PARTICIPATING	-0.12926126
-4.488052	FORUM	-0.12926126
-4.488052	FEEDBACKS	-0.12926126
-4.488052	GOODBYE	-0.12926126
-3.7481837	PAYING	-0.25690344
-4.488052	REQUESTING	-0.12926126
-4.488052	ROLL	-0.12926126
-4.349785	ROLLER	-0.2484379
-4.488052	COASTER	-0.12926126
-4.073645	SWIM	-0.12926126
-4.349785	HOBBY	-0.12926126
-4.488052	CRUSH	-0.12926126
-4.488052	SHEENA	-0.12926126
-3.8811145	PASS	-0.12926126
-4.2156706	WEEKDAYS	-0.12926126
-4.349785	BIRD	-0.2484379
-4.488052	BOX	-0.12926126
-4.349785	DIED	-0.12926126
-4.349785	MAXIMIZE	-0.12926126
-3.646548	GREEN	-0.23372899
-4.488052	OKAYUKAI	-0.12926126
-4.488052	BELIEVED	-0.12926126
-3.809583	SCENARIO	-0.1561314
-4.2156706	MOUNTAIN	-0.12926126
-4.488052	SEES	-0.12926126
-4.349785	STAFF	-0.12926126
-4.2156706	BAMBOO	-0.20497607
-4.488052	ORGAN	-0.12926126
-4.349785	TAGALOG	-0.12926126
-4.349785	MUSICAL	-0.12926126
-4.488052	DRAMAS	-0.12926126
-4.488052	FITFUL	-0.12926126
-4.488052	FRUITFUL	-0.12926126
-4.488052	PATRONISE	-0.12926126
-4.488052	ATTRAC	-0.12926126
-4.073645	ATTRACTIONS	-0.12926126
-4.2156706	CLIMBING	-0.12926126
-4.488052	HIKING	-0.12926126
-4.488052	ZIP	-0.12926126
-4.488052	LINES	-0.12926126
-3.966797	MINUTE	-0.12926126
-4.488052	RISKS	-0.12926126
-4.488052	LANG	-0.12926126
-4.349785	LUNG	-0.2484379
-4.349785	CANCER	-0.12926126
-4.488052	DAMAGE	-0.12926126
-4.349785	N	-0.12926126
-4.349785	REGULARLY	-0.12926126
-4.488052	RECOMMENDATION	-0.12926126
-3.966797	PRESIDENT	-0.12926126
-4.349785	DIS	-0.2484379
-4.488052	JOBSS	-0.12926126
-4.073645	AWESOME	-0.12926126
-4.488052	VICEPRESIDENT	-0.12926126
-4.488052	SUBORDINATES	-0.12926126
-4.073645	WORSE	-0.12926126
-4.488052	SOAR	-0.12926126
-4.488052	CONTROVERSY	-0.12926126
-4.073645	TOPIC	-0.12926126
-4.488052	INTERACTION	-0.12926126
-4.488052	WORST	-0.12926126
-4.2156706	DIRTY	-0.12926126
-4.488052	ONS	-0.12926126
-4.349785	DECISIONS	-0.12926126
-4.488052	KOREANS	-0.12926126
-4.488052	LISTENS	-0.12926126
-4.488052	SWEAR	-0.12926126
-4.349785	BUYING	-0.12926126
-4.349785	LOCALLY	-0.2484379
-4.488052	CHUNK	-0.12926126
-4.349785	TEND	-0.2484379
-4.488052	SUFFICED	-0.12926126
-3.8811145	COMMITTED	-0.19862422
-4.488052	PSYCHIATRIST	-0.12926126
-4.349785	PHYSICIAN	-0.2484379
-4.2156706	RIDES	-0.12926126
-4.488052	GOSH	-0.12926126
-4.488052	VERNACULAR	-0.12926126
-4.488052	LANTAN	-0.12926126
-4.349785	HOLIDAY	-0.12926126
-4.488052	EXTRACTS	-0.12926126
-4.349785	SHINE	-0.12926126
-4.488052	PRESIDENTS	-0.12926126
-4.488052	ALFREDO	-0.12926126
-4.488052	SANDAL	-0.12926126
-4.488052	BYABAS	-0.12926126
-4.488052	EDIBLE	-0.12926126
-4.2156706	MARK	-0.12926126
-4.349785	MODERN	-0.12926126
-4.488052	CYCLE	-0.12926126
-4.349785	RISE	-0.12926126
-4.488052	OBLIGATION	-0.12926126
-4.488052	ENABLES	-0.12926126
-3.966797	SLEEPING	-0.12926126
-4.488052	TELECOM	-0.12926126
-4.488052	FORGIVING	-0.12926126
-4.488052	LEADS	-0.12926126
-4.349785	DOWNSTAIRS	-0.12926126
-4.488052	ACE	-0.12926126
-4.488052	INVENT	-0.12926126
-4.488052	THEMSELF	-0.12926126
-4.488052	CAREFUL	-0.12926126
-4.488052	THESES	-0.12926126
-4.488052	APPROVED	-0.12926126
-4.488052	PROOF	-0.12926126
-4.2156706	BA	-0.12926126
-4.488052	BABIES	-0.12926126
-4.488052	SENSITIVE	-0.12926126
-4.349785	INCLUDES	-0.12926126
-4.488052	MINCED	-0.12926126
-4.349785	SISIG	-0.12926126
-4.349785	RECOMMENDED	-0.12926126
-4.349785	BRANCH	-0.12926126
-4.488052	UNIFORM	-0.12926126
-4.488052	BECASUE	-0.12926126
-4.488052	SCXXXAH	-0.12926126
-4.488052	BRUISES	-0.12926126
-4.488052	HURTS	-0.12926126
-4.073645	SECURE	-0.1654707
-4.349785	SUCC	-0.12926126
-4.349785	PROTEIN	-0.12926126
-4.2156706	EX	-0.12926126
-4.488052	PAULA	-0.12926126
-4.2156706	JAPAN	-0.12926126
-4.488052	ENJOYS	-0.12926126
